{"config":{"n_embd":16,"n_head":4,"n_layer":2,"block_size":64,"vocab_size":79,"head_dim":4},"tokenizer":{"uchars":[" ","!","#","$","&","'","(",")","*",",","-",".","/","0","1","2","3","4","5","6","7","8","9",":",";","A","B","C","D","E","F","G","H","I","J","K","L","M","N","O","P","Q","R","S","T","U","V","W","X","Y","Z","_","a","b","c","d","e","f","g","h","i","j","k","l","m","n","o","p","r","s","t","u","v","w","x","y","z","|"],"BOS":78},"labels":["ATM Fee","Air Travel","Alcohol & Bars","Amusement","Auto & Transport","Auto Insurance","Auto Payment","BMV","Babysitter & Daycare","Banking Fee","Bonus","Books & Supplies","Business Services","Buy","Cash Expenses","Charity","Check","Clothing","Coffee Shops","Credit Card Payment","Dance","Day Care","Divine and Donations","Doctor","Education","Electricity","Electricity & Gas","Entertainment","Fast Food","Federal Tax","Fees & Charges","Finance Charge","Food & Dining","Furnishings","Gas","Gifts & Donations","Groceries","Gym","Hair","Health & Fitness","Home","Home Improvement","Home Services","Home Supplies","Hotel","Income","Insurance","Insurance refund from Hippo","Interest Income","Internet","Lawn & Garden","Misc","Mobile Phone","Mortgage & Rent","Movies & DVDs","Naidu Gift","Office Supplies","Parking","Party & Farewell","Pay Benefits","Paycheck","Personal Care","Pharmacy","Phone","Prepayment","Registration","Reimbursement","Rent & Utilities","Rental Car & Taxi","Restaurants","Service & Parts","Shipping","Shopping","Snacks","Taxes","Toy for Aadhya","Toys","Transfer","Transfer for Cash Spending","Travel","Travel and Stay","Tuition","USCIS","Uncategorized","Utilities","Waste Water","Water","Webull"],"weights":{"wte":[[0.407109434715233,-0.12777066730659972,0.01774744122028211,0.4159481951623303,-0.14347741790158272,-0.0005003644819405111,0.11594496834803592,0.15462297130445157,-0.06468610878961008,-0.010252092279692144,-0.006762072494176672,-0.350176565289126,0.13351577047948673,-0.34316696053914975,-0.24596385032091675,-0.38783576678921805],[-0.27791841880362983,0.39522655498424447,-0.020170707108247667,-0.21100229099092996,-0.02826061578709561,0.0796443117727543,-0.039626965106274004,-0.06504981851597827,0.31802317037937955,0.26289771443344945,0.14535857467811147,0.13587299435040828,-0.3826820140097515,-0.006285587306349,-0.04280252666294671,0.22933149397451902],[0.5395785668484057,-0.2692082169782299,0.32316402604978073,-0.7279245908755444,0.16455214138351631,-0.8616328204793927,-0.6627038917745164,0.04694681261434526,0.24060989336785177,0.8632677750528491,0.040630175722914955,-0.3197110621106526,-0.4297381623844344,-0.4782611849323892,-0.7380649864081157,0.2725099358963025],[0.10044148387646525,-0.1912733589686937,-0.08677986690963657,-0.07771671374699608,0.029689453188706635,-0.00940436562306109,0.050179807927250845,-0.03730523641653066,-0.0024767556463005267,-0.12433643763100731,-0.0833168873301581,0.025946535427014347,-0.042746004621564374,-0.04981319516256883,0.021355424498457915,-0.011017144587750043],[0.23999360761632746,0.37248282728320964,-0.002561364094454402,-0.12460354156724152,-0.6149060932157863,-0.48825440505894896,0.2662843264744036,0.2704784065024604,0.3757763580782398,0.6084985808900742,-0.7809474125132833,0.8409588938187347,0.5435941997936856,-0.3569301218512144,0.5392099978056196,0.47453853703285426],[-0.38458412051141805,0.028653379060760077,-0.22842355528587946,0.41607749504710717,-0.7547923712728706,0.516680464023775,0.796354189785043,0.3225621086002042,-0.5226099099955934,0.12362191654074108,0.5111348465081664,-0.16816350764611931,-0.3145466021949494,0.36138529280555476,0.0013937963558079258,0.23249368094521272],[0.16961358529672796,-0.14067064182572225,-0.06510228182993223,-0.08568503975408788,-0.10878417578788785,0.11144150115447901,0.08386963128212725,-0.19236388942979862,0.040335616419091364,-0.14501765918177262,0.015160175050966479,-0.10139884753847771,0.053787599245179764,-0.009638545720454047,-0.2050979881805333,-0.1419361005297162],[0.14616336197554522,0.3447663980842222,0.17431395210689396,-0.04666900358305851,-0.014045199888028803,-0.12455311246081134,-0.06048348056144638,-0.059810643508920874,0.1351635116309242,0.11197461213283999,0.11591808727594398,-0.04077376171457313,-0.0696749190284129,0.015177410145647078,-0.2550833452258518,0.06357866662420125],[-0.17372393357014276,-0.003330382246781922,-0.4647487810083295,0.05861687825112738,-0.33567007681680644,-0.3134771539472688,-0.1639882771265951,-0.01181361041180152,0.1339408661566155,0.002547281578491937,0.1835024984280677,-0.4587980073583841,-0.3710508623956183,0.17416348154719652,-0.1910805855839865,-0.034119582970990096],[0.37575358193715735,0.2545975336527482,0.13269305446915863,-0.38770966225949455,0.08057095735929612,-0.35961097211315696,-0.03918823614762939,0.3973953536516248,0.24823840176792525,0.2473428485239143,-0.6110126629226382,0.38460860200597335,0.48852993871438266,-0.378282977266336,-0.5069905916941116,0.6513700682637795],[0.08561706962455262,0.024041695748606953,0.47325478898704554,-0.18778436997434284,0.08736937402628671,-0.05241242817572201,0.2538485792187117,0.3770374656360387,-0.055036712841988175,0.1839513482495157,-0.21000925794758368,-0.262385412760583,0.015403308906311452,-0.4105917123702706,0.05285899396582326,0.23965471138841613],[0.06376140120553712,-0.13255772625176154,-0.17635831210477595,0.2691533663187253,0.3024220289702675,-0.4060310601358373,0.4170273281169324,0.12315507387204237,-0.16286432564624548,-0.02159477851302783,0.17305009396357027,0.053357103247659354,-0.019966161808156586,-0.11172983895167679,-0.1452444262218133,-0.08612964666780795],[0.04696106183796022,-0.23687280863992619,-0.0036921662969385868,0.10100881284914794,-0.22557383726468286,0.16661676316555818,0.2146197860757928,0.21744696830704863,-0.05059948095748505,-0.017347441154598846,-0.07278003712027085,-0.01848528377588832,-0.057753440009705656,0.02320360746465752,0.14572914222181743,0.007901791762191534],[0.36072714441013815,0.08779741922324255,-0.11970575102646734,-0.18285462947489708,0.40617887611032594,-0.03180131446295457,-0.40908876276828504,-0.20258489165557156,0.13981596630395773,0.22232415800394842,0.01854871768392436,-0.10186996156926727,-0.4206257970727005,-0.4731118548339464,0.4290906199021575,-0.2155690277349847],[0.3623571576596602,0.07430012996155692,0.033763865222320305,-0.2384531387617358,-0.09050040776488685,-0.136733990194415,-0.21125076352047817,-0.20134200692429172,0.13337079492549753,0.015699699894999534,0.18426630355099147,-0.15917143364418915,-0.5385594157520771,-0.3053284723633768,-0.11246523676796254,0.014028025235338248],[0.27705419052407904,-0.022712114800515864,0.17819580403636695,-0.28714433777350995,-0.3269181252320809,-0.16503471567922062,-0.2786959471633722,-0.4274988535981483,-0.13447455911219428,0.19188028925584147,0.06210099876107707,-0.03027722765907693,-0.23705442255156997,-0.2582610608139999,0.26855702005701704,-0.3365637539007681],[0.39588538178961774,-0.021850693630551594,0.145244536123135,-0.30181427835546776,0.021438016946136836,-0.13827020547362964,-0.8027800392239597,-0.21561977412866767,-0.05252340943839872,0.2879908062184172,0.4147623144792902,0.001491451886428527,-0.032648422023274226,-0.24325893118511252,-0.11339315887211045,0.24608341270584838],[0.1566048323216268,-0.06083373406107395,0.06549565146560647,-0.0661187296168958,0.08918731838650218,-0.32308613282876486,-0.1818964942925958,-0.22456342340369206,0.24835860692704131,0.1752293061412196,0.2319682753825897,-0.12634394859917497,0.035222370948245985,-0.30601614936578264,0.10268035659527798,-0.04675005268464321],[0.19888784107233282,0.014793091962120168,-0.06412193057850656,-0.17002014220794123,0.058753310278595795,-0.008625447530070416,-0.12670891710204332,-0.09043221840772131,0.11901287727936213,0.09491392336562784,0.08559224316490889,-0.11901744081777904,-0.17389847992041563,-0.12230461736462495,0.04873880012684405,-0.033130810540802164],[0.46492179216159146,-0.12702393282182092,-0.07119201883976393,-0.3621412432582091,0.13471097110763747,0.03379526509822821,-0.23826245618947117,-0.06213097335696845,0.1713843413187331,0.14542485113724457,0.1814762401221722,-0.05200611780414784,-0.15039127039693878,-0.06865987603510793,0.14099206686461055,0.06579966004371084],[0.298070280948257,0.004515009174236493,-0.10890360682015407,-0.03578674183256238,-0.00034361002081545293,-0.28358575375185124,-0.2876595792301407,-0.05198134432970982,0.2936110210798304,0.4445951624882056,0.2779404776544235,-0.05435393601517007,-0.24560656130460035,-0.3032247233653791,0.20957131135916934,-0.04347939186274215],[0.1816787257378162,-0.15173816286766667,-0.15494236144492812,-0.13718596106194408,-0.0980501799586033,-0.1630535318578166,-0.09065212562778541,-0.2645233755262957,0.14320214943860976,0.37040585959793637,0.091964124717822,0.002734239024622018,-0.22435393761521868,-0.16001364713902202,0.3738799918850353,0.0928172834479864],[0.437903605132723,0.11658857463261096,0.04860152309689043,-0.24687935677222517,-0.006447961553244627,-0.3556731222284527,-0.15796396590580253,-0.17685053115591526,0.1723410520378824,0.26172131416868055,0.1882380638381709,-0.028325856111057,-0.06624710383902803,-0.2124241148364757,0.18801637161450407,0.03232757295663685],[0.029600986205898967,0.02882632646484131,0.7618748068215145,0.3794432877198418,-0.1599436356787842,-0.00796279389494816,0.2307336888671799,0.1914566974157465,0.044653424155582606,0.30422439652725225,0.06466221741284381,-0.2755619397648569,0.30939783809104365,-0.447713790044057,-0.32704427483337195,-0.2424034691435424],[-0.3077304862466245,0.34794593567713283,0.34732663610162035,0.037634679462848056,-0.3508252551424484,0.08567519166337462,-0.1486563618963663,-0.15841495536313535,0.11712102153060246,0.36231109743447276,0.4250501089398022,0.0319672870459321,-0.49024619481082027,0.1661617338646364,-0.03979459758335426,0.27031900002604126],[-0.2594951297392346,0.059031742130737044,-0.24843496875147938,0.1909840887510812,-0.1061187018836279,0.21524230815870798,0.11811182301457429,-0.05713868392162366,-0.2266140747252699,0.40188723636320745,-0.1967759522706114,-0.4089861033312077,-0.4769060982533306,0.22843846904308698,0.21695458558934858,0.15734281644732595],[0.03110455078180595,0.24879756330205877,0.04450719453577313,0.17034698854410688,-0.39676500659842373,0.08327947356832612,-0.043981962337418204,0.09365999174207965,-0.013641390564604049,0.3892889597612365,0.2697168988258558,-0.14607028087037335,0.12405958699135149,0.14168084740076084,-0.060507590603999295,-0.3375956173281448],[-0.1964240388107474,0.19280214542722843,0.3776619513229277,0.06913055232583216,0.08313966023296632,-0.45609556217047265,-0.3303516183794982,0.2314048668794056,-0.012568642430757759,-0.07555479024401063,-0.3377152890902859,0.13984877870283716,0.0036491105187905163,0.3942411475421482,0.3633232136976702,-0.48165261014941085],[-0.1287282643398343,-0.005271887335512764,0.025424872860073205,0.13194325750801694,-0.07949683541048506,0.33246685141710275,-0.11545609433822063,0.008995235134553138,0.03292680629284622,-0.2170922416295536,0.3061779144917986,-0.22431218691587496,0.2358551121244623,-0.07305710630446298,-0.21437662147539965,-0.12430989088767413],[-0.2902907073016639,0.12353050474981346,0.21624999606392978,-0.09923092324684296,-0.05205152661576722,0.020997019757417256,0.29859284557471466,-0.34862099640342986,-0.5342333882526591,0.3552503263608335,0.03519990429539634,-0.16174413865906134,0.330922489835986,0.29896589064012413,0.15683851220419012,0.1970098688066732],[-0.41532445164180776,-0.05730405053463029,-0.6197887748775839,0.6069442914146128,-0.5359720821545872,-0.4377818589235167,-0.1332627442702837,0.1183340087419653,-0.20357404921291197,0.10902058755992361,-0.09785472385162765,0.4031935994123455,-0.28049485269681684,0.03051413790904275,0.39976289932171216,-0.1778420256433986],[-0.6404818651464349,0.2187601062495401,0.08429660729424295,-0.06619854920923127,0.08050635913670832,0.07309199576483301,-0.5889957443208882,0.8698597484923718,0.24494084332051308,-0.2712192898723423,0.09969648533685958,-0.32299829041357025,0.49445989529976914,0.5947623884389203,-0.3465388663561808,0.11716385371383053],[-0.3949738593854178,0.3844010701297307,-0.012072037707289885,0.4669066318474173,-0.6019899208059639,-0.14304998052920967,0.13437067128332153,0.28193814135204914,0.05261653915409082,-0.02752735499709972,0.26687345491875325,0.12240268304247598,-0.08438013349586847,0.0829655075767807,-0.3174037863653526,-0.145614375277074],[-0.32619900723564743,0.11035138825432242,0.15775611494805175,-0.4137643325275551,0.1982447391865926,-0.6152263741606407,0.2142232896027285,0.2748922830945791,-0.631492544380509,-0.017812035038120837,0.1961509436497297,-0.018558405773414024,-0.1942144847794402,0.30760646265786473,0.38319211983992946,0.4350967418381956],[-0.3161561112704583,-0.10333351081123857,-0.2030331078276023,0.11316878873342631,0.11751939435161023,-0.24094178637324512,0.03543125694278377,0.035475791538650006,0.07404744545679336,-0.11386586642282331,0.3315483567979384,0.06097828491620643,-0.0686538336708584,0.03791293326826697,0.251991474187632,-0.10213177413551802],[-0.21803480005986195,0.4757435495292393,0.1460035462315864,0.0006822501570210096,-0.36818086893262386,0.22033711174329154,-0.18323298403808078,-0.11000369537914627,0.01401494712395043,0.2552837801287235,0.3921839194032886,0.27103029881314583,0.319843587051317,0.08799020523019407,-0.07298774639123566,-0.43554479175115596],[-0.10265161532104401,-0.048387750612646725,0.13443401458047666,0.27466666298039283,-0.31040368065758517,-0.05487262768074876,-0.16965454248907397,0.46762972381407564,0.03668449586585095,0.15992548165177026,0.49693451028734104,0.12232293918882363,-0.5277652292309424,-0.014158244505448574,-0.15083307294431966,-0.08482140989837224],[-0.118327547700528,-0.03967772664154611,-0.11746998810147197,0.17565414872232235,-0.15793578824511736,-0.2092416698522874,0.20798182820557787,-0.07351354150046613,0.2133642130756143,-0.33718238365348346,0.2782994850167982,-0.07862175497915974,0.10867853188122001,0.21785972892041816,-0.10348370361013598,-0.18948817432880277],[-0.23023912934955879,0.22971516763739383,0.19089825961062495,-0.2043382506012954,-0.09113094559299888,-0.16675257189874715,0.534751211018012,0.04628057062078484,-0.001134392956540043,0.08228823165555207,0.45801638310324866,0.4795595175304302,-0.1504840873761381,0.20732510292452844,0.029913968455147988,-0.2720835002421072],[0.07186107994999032,-0.18273042496146452,-0.004526194514484837,-0.32911324123197844,-0.1959764147847911,0.05880727516088235,-0.0825928696536472,0.058365058334418816,-0.46287370031907077,-0.06763843096470555,-0.252015022860149,-0.5343363288049886,0.1718624080183051,0.46872218744414773,-0.08229868866714748,0.017753564079066975],[-0.18243838750367594,0.09602251540621166,0.025455753318996382,-0.10877180840846172,-0.06388350103391308,0.09024637734600592,-0.50500812428941,0.26294945382939633,0.1662529034826142,-0.09583377928020499,0.32737333212588043,-0.0107768029676467,-0.007830689263553384,0.09429180667876111,0.5477659624845631,0.007683617953123186],[-0.27110157253126327,-0.22439196936547048,0.1929839898715193,-0.0458565984345789,0.5315932379611176,0.24258262964984212,-0.3101601679185591,-0.3098338031856666,-0.2942357758505336,-0.2990106858453604,0.08587652669453927,0.29119354508359285,-0.9079714856166106,-0.23507964999953812,-0.7716551046668322,-0.17414693024876787],[-0.08419287510689838,0.4984572618704565,-0.23686897683943126,0.10360752792125527,-0.45545863752491395,0.3417533362289775,0.08014628444844354,0.18604901177045122,-0.09422850857151685,-0.32757781918364726,0.0039831355977851856,0.11137600603831037,-0.04052962218514976,0.20230778415390163,-0.10450053942155149,0.004412113248777014],[0.14819754824284212,0.35436236352762124,-0.3979857745163175,0.24922775242917924,-0.0954480581847737,-0.4835543789345414,0.13948372549276544,-0.04081231753853457,-0.1973818467056255,0.08978900174561037,0.3253992863828787,0.21767957938136248,0.20084186695985368,0.22061712222885266,-0.1877492019626314,-0.07705013863702882],[-0.15670484610304333,0.2442359207094364,0.22515743070666536,0.5353146320486192,0.24418911156220735,-0.031162732358951225,-0.047642993473619825,0.2097771870140625,-0.0002499540575861606,0.3910470708135864,-0.05739251546653169,0.03405536495658153,0.36453373263671623,0.15166357171758532,-0.32807219410810473,0.17355079031195428],[0.08132537716609295,0.10257919661238353,-0.11611825329248124,-0.14809062811048188,-0.17605517717828173,0.38140604732226446,0.1808202225523117,-0.21663017824446085,-0.0444682834246832,-0.18483540969325848,-0.18525938509282264,-0.2961622577223277,-0.154961201575344,0.22337604642153128,0.21423655964523103,-0.16968921755594985],[-0.007639518775949041,0.05848098341747651,0.0255952572879063,0.0851523348394482,-0.37137738653584784,0.07633983557131822,-0.003964394762824648,0.11029575109594159,0.18989856153853538,0.0574005233913704,0.47402166250991784,0.013379012153663937,0.13933752950472827,0.08925311867526703,-0.12368122035833791,-0.23356449414134922],[0.5941550006508403,0.07462191697762334,-0.6102913495551044,0.33560217965378486,-0.28479260177320787,-0.3455806703441311,-0.6752811268810406,0.5434135597057187,0.8919652735747835,0.1495635423310457,0.8681202155058494,0.2049114787800032,0.4773851565614072,0.1901747215731688,0.5688277153226541,0.9902583659541904],[0.3038319999573682,-0.09311035283910003,-0.006243259166276444,0.05327381011310823,0.12308955277604791,0.19171700374436987,0.2108307871636432,-0.3433399235278127,-0.4999977735508619,0.08759205924557553,0.026472770656764174,-0.30485071662684265,-0.2358270675798855,-0.13312274469683413,0.12053633514932967,0.14870494059971204],[-0.35197795181679625,0.14227340689549994,-0.03138108748636461,0.08006224134296243,-0.33726898716844655,-0.5133862685615007,-0.2072856143281609,-0.1598232389007784,-0.2483424676822819,-0.32825418721019645,-0.011955280850789392,-0.3078889087325566,-0.06455544385217502,-0.052877195693153,0.15000424883512326,0.5090076928390346],[-0.28835055595568193,0.30348353967160896,-0.5813627827348875,-0.2671794082838716,-0.3225561385598628,0.2989846712897557,0.12293681281151134,-0.16535200992046648,0.08032206072308708,-0.4686905197373656,-0.08875339494304872,-0.2631850919347044,0.10317655948420758,-0.2161256259531923,0.1876539051926622,-0.04230720397588815],[-0.05375589028568313,-0.14904166251763584,-0.06179702608851095,-0.10483082084126952,-0.06440544201764403,0.0724883359835102,0.18479257390889833,-0.019307244396504532,-0.013801604675832009,0.08682050702307208,-0.03238328393252496,0.02643303337684084,-0.12310000576197505,0.02346991034441494,-0.05383843889272284,-0.3228045303350039],[-0.41878892837241616,-0.4605830509087317,-0.060106284810661735,-0.2672644383615935,0.5922643632090182,-0.1454194467170865,0.22669362138367102,-0.30451767963186926,0.05652839919656955,0.07721869950802007,-0.20217790086663362,-0.08570973088428098,-0.16225545194972849,0.2543172385474798,-0.20637669937755201,-0.02539509946780449],[-0.31639351032826524,-0.0970271252679184,0.2512806599283902,-0.06437273024000303,0.1400412310152244,0.07193805976336963,0.035352592948540776,-0.26009627759317416,0.08771666738866497,0.10611537020191841,0.30229583802909665,-0.07756189637083162,-0.2575936159320955,0.1472796504029145,-0.10754103402080858,0.0444661756871231],[-0.4124824287663077,0.2373695710072668,-0.6449808694335746,0.5015303958170062,0.8344833072034021,0.48981145211320404,-0.5755141605581561,-0.6175203032843434,-0.07130612975098415,-0.38531585505698085,0.36050601621252715,0.07746264574951842,0.13188570470230382,-0.04683679750988759,0.2781751246267801,-0.41354170357575254],[0.08410220626284398,-0.012610054690838927,0.5337985016845872,0.3865928655080513,0.11107337041529991,0.5579798200800637,0.2856982029798651,0.17034084173378014,0.21017556813430152,0.1512296896287462,0.013042902311751828,0.5014778814328462,0.548977174868303,0.10073439885562287,0.04169126421298859,0.4494621141700896],[0.07665734776372654,-0.20850060053051453,0.2802069007127457,-0.4409654591458457,0.09150561555225611,0.05772306785376465,0.013080373650873146,0.08276017467015719,0.1351177163616261,-0.06617805814569215,-0.25549120849286105,0.19982815926616587,0.25739580387375793,0.2549528983156738,-0.07129019295907628,0.028641523524678504],[0.0010726276053629464,0.08523821985888669,-0.1763042745561252,0.2089352862768589,0.3560091852028772,0.35579027253710366,-0.3591884051664861,0.015731987266919965,0.35246704935467976,-0.3367722181443134,-0.460145000652726,-0.2604440972024891,0.05608014641062424,-0.2142003493292072,-0.48463241278640135,-0.016023986421920124],[0.42675449677392135,-0.02517662137084123,0.10189799748636365,0.32745502897548273,-0.10220570687395888,-0.3369868997321568,-0.12757803717772712,0.30563310444093095,-0.1253175684278244,-0.015151187562434955,0.1580290177087722,0.2152653467551242,0.286504927127503,-0.2013690746392864,0.2351402467739209,0.41456033168633266],[-0.3169834796660866,0.021603951632161417,0.048449949628664044,-0.17887888974290864,-0.16695173342375197,0.2153476960931613,-0.3501227265306731,-0.30619089306926023,-0.09564468597730061,-0.21827294702040861,-0.2117680577279402,0.8405551606631729,0.1336638581439841,-0.3850029515263642,-0.020617314768040587,0.29130745820431053],[-0.013344165618193425,0.3512141699674728,-0.1332020851813152,-0.25715472528093336,0.4228347716979843,0.2189061301633739,0.4762937521175029,-0.26955888261155414,-0.025537822142404062,-0.13115321940306923,-0.2654370439526363,-0.09562244715038654,0.006140234868674828,-0.29195158531277393,-0.34752695552693685,0.15558476542656927],[0.05421382111002051,-0.21943027352831623,-0.10073453671299015,0.03291518595177959,-0.028400617072896515,0.008905436804881952,-0.16816487546532807,0.021014653019127305,-0.025147881573083494,-0.05539260493070812,0.14604742096022783,0.09695317562224608,-0.05927164867069924,-0.08888080778698565,-0.07352725959686884,-0.13832199907676868],[0.7960998080394711,-0.37490816663085563,0.3403130933519103,-0.16026548112309483,0.185043149686145,0.28781187165732325,0.3386743320324541,0.07679561862118692,0.25814115614725247,0.20309986394704233,-0.20061467965638408,0.22260116212497175,0.2007049241696814,-0.4273161286588275,0.7476707471353662,0.276760299747339],[-0.042352896955399504,0.06577253090650255,-0.1058653208643929,0.25108663513024976,0.35663569457513067,0.11988086446426356,0.16996040431128218,-0.08193146532660583,0.10755057395684677,-0.20892053355553414,-0.18812318313753978,0.13917094318514744,0.1096874304201768,-0.25148493531062227,-0.2741884866784279,0.49911876870045996],[-0.05252127580786249,0.4008230025082147,-0.11791290503446211,0.11968793496221156,-0.423507900017954,-0.017683238318246714,-0.43469901907148295,-0.19902521517584632,0.11994188194000024,0.003843673797654551,-0.09899172657982344,-0.1539701749237739,-0.02638842827568393,-0.5420930802037384,-0.4206368087384849,0.19780201705578482],[0.05131796572338386,-0.03193988208684277,0.15974782714487681,0.045503627745872896,0.0006735205979890259,0.39647845496366807,0.24234784703854917,-0.4828100882098418,0.39133934392795283,0.06418308282346277,-0.1297854150295281,0.15450093838045134,-0.14400920091885172,-0.08551082122266761,-0.3019754819780486,-0.39875133624352177],[0.0816317358677046,0.07624296136169946,0.22032809133479625,-0.13776367268290807,0.0613401550472837,-0.6087695370704784,0.08528386359407794,-0.2492567838062529,-0.041435471866446166,-0.3300747613579853,-0.47920000795045664,0.12019582222655933,0.005612927589034296,-0.08159335615753885,-0.3467524249655014,-0.01995857137982004],[-0.44497794465844726,-0.2722837117190203,0.3524109004640148,0.1524640923354246,-0.19311219523577924,0.03274531525706463,0.05310061195238388,-0.3345726122448938,0.4821735152918326,-0.3749411119425477,-0.45491166318734694,0.49301434248848514,0.22554653054728266,-0.12901160504117598,0.1194290499211829,-0.30018833586895854],[0.00962150012550713,-0.10112416492659458,0.11210743609323524,-0.14051100781758885,-0.24208543341518518,0.025728292578555745,-0.019910668342358474,-0.18269668044282814,-0.19280675290724109,-0.35206428555845315,0.1941013213694319,0.3014903695620923,-0.07443190347898186,-0.5304729192854893,0.26463546834054275,0.1566102028748356],[0.45850953563576097,-0.07751205090488833,-0.2397809808742217,0.11858587566842972,0.3168697628341503,0.06581196537259297,-0.118304723525437,-0.14942516718639162,0.07918518169824906,0.16053663592286554,0.12056169796285587,-0.13184400588674197,0.28785850885013076,0.05182133560816798,-0.040142195215292796,0.5651915128479166],[0.2797154559623169,0.27447759334311445,0.18800296462666183,0.22850559572738208,0.4513036577462132,-0.28931795352110656,-0.1875736186461978,0.03771203506513086,-0.07178726879976205,0.004482728410165816,0.09587775528009455,0.5029392156703346,0.699065884313721,-0.2907855798492356,0.07567332584500434,0.35391479137004656],[-0.149063281140261,-0.3829320509305416,0.41173182866243074,0.026506747225775364,0.27922500924914917,0.3482992329091955,0.1459699777816564,-0.004881982929486302,0.07817800109285789,0.06668393297354337,-0.17974905511900602,0.05259172097085651,0.34832605953376644,0.05436072194998488,-0.2550827436583322,-0.05234270917124833],[-0.16878954357545986,-0.13464223181090748,0.06667333662441148,0.5283392348400943,-0.05818525794293618,0.6831176008047162,-0.14335892396433564,-0.15152511393512727,-0.016025160586103152,0.08599322882388184,-0.20902697833558823,-0.2926824372657836,0.4578766858609838,0.35047349699941105,-0.3100275498654916,0.07253095432320698],[-0.17058378898497234,-0.22558029447004035,0.6542310194997323,0.08211925921987849,-0.16786313643750037,0.6101355979052188,-0.24899625098981273,-0.19194237307764214,-0.2614482876164012,-0.583944135993657,-0.2295158778792062,0.2218132775501965,0.36998509853261063,0.07584717503134072,0.4987877656577002,0.23425914054002792],[-0.11503598710124456,-0.290554167650974,0.027124376700913378,0.11079278933846089,-0.006099872717643363,0.21150237510593825,0.19872688329239485,-0.2778607926839619,-0.07554043387267054,-0.062390770376115436,0.09105382364611339,0.051346511926145616,0.17521574841886212,0.05498561296692578,0.04337503823587727,0.2389107752138822],[0.33400423519585687,-0.3682504972210156,0.0005485216473567693,-0.2345173341871843,-0.4904853814450704,-0.37595308622659973,0.5561254294007127,0.2408521327931271,-0.3200493624219155,0.07993174306196141,-0.9187297401102296,0.2335991233077868,-0.09496631839895431,0.190281401873054,-0.31826452289637946,0.4314767392947466],[-0.28427076025122555,0.16446857502995174,-0.035336866879932934,0.4299695507015954,-0.026068769175728316,0.01853073580137349,-0.01793479613851723,-0.39354828114106,-0.12437034248936742,-0.2608470734862166,-0.22179644342825064,0.10511641517197963,-0.10976508583070332,-0.034714761987352405,0.20050783643541853,-0.23974948197911966],[-0.02817562694746425,0.2402951551726119,-0.2875000534987,0.4135432580330919,0.19487433738954116,-0.22140809491502292,0.33225717715332465,0.5145127583810954,-0.19257270570345433,0.38464339990654944,0.36016451073459943,-0.633676749199518,-0.3492283898047254,-0.10798738299481246,0.3207299758683813,-0.3942529483067165],[0.14155591889681846,-0.0612020699651386,-0.05271887578216744,0.039926595965911284,-0.27312867440158956,0.02804072744980067,0.09502005738371001,-0.0982692797029622,0.03324783786809703,-0.014126050195640073,0.03187075883692799,-0.07416822234041352,0.11824499852429206,0.011020129463271139,0.14052252993394282,-0.13668753994260824]],"wpe":[[0.13640191187644474,-0.04982757802124672,-0.08808737926721999,-0.0990683322799857,-0.1724722184030556,0.09700365587883,0.08411134763338836,0.047233051464908415,-0.18794297425272571,-0.07296024692050762,0.18531952329593604,-0.05836934303660472,0.25912520872109246,0.03640512530182813,0.11278597985743422,-0.08776296963245946],[-0.032950270627234116,-0.13583359229957606,0.1833021812127686,-0.08894595960072221,0.4180459416228665,0.08127100695444199,-0.2237152275091648,-0.173626019440593,-0.04405529838775368,-0.3604666836558247,-0.1470604625223711,0.2918097390654019,0.05515878455707593,-0.22044938831249605,-0.3528435532751772,-0.06319996278282944],[0.12426535002478951,0.028870375674238353,0.3161879680432269,0.2877031895554341,0.053452122351577994,-0.12293862679374902,0.18303044908211155,-0.3571816040945975,0.29108920042725583,-0.02382274690150804,-0.1955462132152431,-0.03307145567729397,-0.021701139346743146,-0.05686269874075791,0.429338333423252,-0.26087241135039224],[0.07129638843202644,0.07879677175038416,-0.47513745178087663,-0.2850331493828572,-0.409237533072252,-0.22308758407932608,0.11645682337213097,-0.2756340219669549,0.12887496077101776,-0.10771530775392116,-0.03628795931453162,0.21441748024334778,0.04847871374407023,-0.18919522170472672,-0.28265826495317686,0.015440076390797032],[-0.2298796332640828,0.08864537346048654,0.3367078359367333,0.2630196667264457,-0.12726115272481128,0.08645339694555247,0.027420504570045676,0.11920721885994523,-0.18523771709218181,0.13244647195121265,-0.057723355639863486,-0.06016413383277943,0.41998319387207156,0.13091737480562032,0.18891422623055557,0.3682052764597943],[-0.02506071574219232,-0.28311282921379977,-0.2911855617833578,0.14984214273594537,-0.260877352801092,-0.010980901781633452,-0.16309993304654505,0.009517038603079198,0.051564229101847735,-0.12340163428585206,-0.2416694551081342,-0.2337413192323486,-0.0279433598061256,0.3099709554634066,-0.39301606720381427,0.04861054147312016],[-0.15193681730052602,0.00416057030645532,0.1699495241598071,0.25492546494146373,-0.11273646179511229,0.06912512674287852,0.2543241364001263,0.07492081274453714,-0.10711077582594135,-0.24554476681557877,0.020431852849588508,0.21439561669126184,-0.13846120947802595,-0.20875804037581333,0.032692523548213094,0.12983064903853728],[-0.2886637840729244,0.11947827460233175,-0.25756460591864017,0.32374370036559813,0.2156462173484949,0.18097440721052888,0.24095090889707194,0.1043593045534345,0.27728692011518596,-0.1316043366901813,0.11054308305827572,0.14773581009131104,-0.04999548089208188,0.009697913546033896,0.08403427934105842,-0.37065704849397363],[0.25460433588799325,0.02743065170893118,0.1552672550939638,0.09489205245639337,-0.05570481888098959,-0.043668966618696785,0.14782905649403347,-0.004758689248627384,-0.33210391071605877,-0.03387019364898521,-0.0007441378998809372,0.22648527547130715,0.05971584307340499,0.24374835042094653,-0.008418238500773246,0.2796626472866944],[0.08334317922605322,-0.0215041303701872,-0.23887613700143742,0.07725873530332926,0.2120136519327169,0.1848222419653511,-0.3193074429960213,0.16261981064309047,-0.21028281397976367,-0.10922404750613592,-0.02194207295369681,0.2222555260604134,0.1512210656226165,0.1312020806230921,0.0906203075692001,-0.4470344574055473],[-0.09377404775289853,-0.01514437795580004,0.2362858737824395,-0.12164248975031844,-0.13292080840624784,-0.14550596555877712,0.06087151943155888,-0.06441897803319759,0.20100347348339748,-0.08674904342142921,0.0886732573774914,-0.13848223358290432,0.02617932619342942,0.13907308932404583,-0.17289407533816262,0.0163118983294274],[-0.04924538600613929,-0.16525767580291822,-0.23601266639671556,-0.23639318016718652,0.016891907461755805,0.05511357617409727,-0.05833701229497928,0.0664282275194191,0.07431779395547854,-0.10154459347563281,0.029660637623250382,-0.05101097375091772,0.009676189136505397,0.054882966228990214,0.24472651861875838,-0.10301497710381934],[-0.0964698248901384,-0.0589733351888738,0.1573384886840146,-0.004909145854790533,-0.03953983645890749,-0.24390066542664143,0.15907067492860624,-0.012880131076899224,-0.2013793795649281,-0.13956434537196052,0.14530235544201703,-0.27039056415710466,0.07673406104184584,-0.09073590032212489,0.2933723416684653,-0.10705351830613133],[0.1843656473436813,-0.038708725006981665,0.2231717074520006,-0.04229207534471004,-0.048920935751574725,0.27345880528378863,0.07225683698961674,0.0295500258663671,0.026957161727563964,-0.22671834960991133,0.19673198067993772,-0.08566186082656313,0.04404006045774232,0.06718321766663851,-0.35109720784340553,-0.08144480457099212],[-0.2622558815745931,0.02898326496450423,-0.00016658541299548944,0.10772377318671243,0.03867776160421425,0.07361746388789055,0.08875355203009702,0.09238775308055852,0.08710625028004035,0.17399566311419198,0.18115774165926418,-0.24430283292060762,0.006676614040188392,-0.1309998105781272,-0.03513533366280625,0.23934134640090374],[0.24005138183619973,-0.01984377851711029,-0.03049702797525931,0.21306390355535695,0.0500203857334547,0.10196332033586863,-0.10607044053881963,0.09455632986711866,-0.19514661055389032,0.018479547229953097,-0.08989948141760006,0.09995953311699134,-0.16148306231502935,0.13407197987591174,-0.014884408772701542,0.08540635658282694],[-0.010986907853892978,0.13625765897236078,-0.19092626489162134,-0.21346604035887856,0.1865952255208453,0.19663817860540928,-0.09466086250935331,0.3497904223335671,0.07382532821572393,0.2090263503777763,0.04167218437394062,0.025766997539608764,0.03737779372312958,-0.13244738482030724,-0.1609861785396595,-0.11004084553551453],[-0.15128186470536126,-0.22933767820355608,0.10809539657989424,-0.1481043614042838,0.024895266167183735,-0.03188867822617591,-0.05022246094751502,0.02939515884428332,-0.2597215614081566,0.16878006891817232,-0.050743746662367736,0.09281528038672353,0.03990738134568115,-0.0433471196064224,-0.12448845661651266,-0.050229135714981867],[0.13210742581918009,0.20824200563341583,-0.0035696138693864306,-0.0367254515673953,0.09660645538736785,-0.36635924582397006,-0.0038351594312048443,0.00545568008582471,0.08346793205201278,0.08004551968727178,-0.2577192051698251,-0.14708381108336427,0.07884422527969527,0.18273580986742605,-0.031830943804030454,-0.08293430207509135],[0.1360819097050668,0.07444761094964764,0.20859068364679859,-0.06756206840968358,-0.28205964921309107,0.13828842804961286,-0.037730702483368704,0.15272427887112752,-0.3516079524072182,-0.0461152261316957,0.43469293203029336,-0.007299911158366757,0.17769185301689647,0.005003732732550482,-0.27603039432476234,0.17495508435484738],[0.33005195806928667,0.1667797610633081,0.23562805646628388,-0.010905410201431213,-0.2651499243625193,0.08352886587964722,-0.02676928868046917,-0.11996226960277984,0.24708304902678677,0.18994924013024883,0.05531729695209179,-0.25984498089268776,0.0627612466378097,0.4227584745219722,-0.13521281429946194,-0.0716713326814011],[0.2526690107998608,0.39727463576260913,-0.08676642912742359,-0.11602622565598236,-0.07187105022709708,-0.01659134437555037,-0.08272145323536079,0.03210720702818083,0.08270025006099531,-0.049790185099997386,0.12693515920009818,-0.2835186857690484,0.1509916897014281,0.06419809149514716,-0.03519400637115209,0.1268073522923308],[-0.02080787371543362,-0.04179715902627633,0.026245325087106645,0.05965230209101495,0.0006082889805897429,-0.12971116218404677,0.014852525415422896,-0.04418780604290391,0.0820264171627582,0.053528142518112616,0.06289542085540581,0.1525381464704563,-0.1910995233631585,0.26106378977406897,0.14558639277085306,0.06487992444212934],[0.004281776673631909,-0.04558917960601063,-0.13871698149760195,0.007309330614748494,-0.09244094048980306,-0.07021455121005991,-0.01780820994385478,0.06706630397670808,-0.05147912778544719,0.14100697822424071,-0.10732706751178107,-0.07446434155632434,-0.03336582384243192,0.14880468149119952,-0.2374244791344185,-0.04117214244879035],[0.13524727444452617,0.20792062869344652,0.0646168251072634,0.034763557514270925,0.06707605703427344,0.07055552912411235,-0.07258612668517066,0.003962292328559306,0.022200887217347948,0.1583914465232879,0.059973962009449926,0.047383676563138584,0.04567086209715832,0.07705980434725884,-0.03185225641633962,0.14400512121606884],[0.002791769197576454,0.13713028378921946,-0.008076312919971292,0.13791310400564788,0.05695821790857967,-0.08142498073194712,0.008993412030154276,-0.13616915885123468,0.011829161468332529,-0.030210319504251487,0.13430814687221615,-0.11408245622680904,0.03694142875637081,0.08868959130264693,-0.07848982939485528,-0.0793921143321482],[0.18763388631862238,0.23996974637974097,-0.0029756657416573707,-0.12294224275691068,0.0814593706824032,-0.12045578429761529,-0.11620295167734046,0.026669249020672556,-0.12897683774269447,-0.11552151581983,0.1077366949595476,-0.25602447765397346,0.05101773005195612,-0.03082444492883019,0.06730100781002521,0.01796182832042362],[-0.0179424153409617,0.06895592164749981,0.003387073551164364,0.06692501906269827,-0.330232598361082,0.22505690565155406,-0.08455013684407861,-0.05727608029689791,0.04080717701728528,0.17110910799073048,0.09475169137182489,0.021758302868289035,-0.0048184890212543754,0.0052129334291221695,0.039128987292509104,0.12712716608236388],[-0.06097049429536648,0.0011717977606154474,-0.14768112547989,0.09589987194328863,-0.18003053174862,-0.11968733355838529,0.06500345156668529,0.02392374423001305,0.03334790573716948,0.12793885495763144,-0.08117637597388742,0.07897067218192148,-0.03752620685763521,0.01620940079943835,-0.02215263731818287,0.11230923876556059],[-0.21771039251489227,0.25983048434700845,-0.1634473804738518,0.13596071043090394,0.02384600614378182,-0.30357190435398895,-0.24433895293483257,-0.14734679562565647,0.11325739104826792,-0.06450830701474627,0.04523439034634769,-0.06273047820964492,0.0664152852385934,0.16744928556529584,0.05685342455697095,-0.11318490336728153],[0.007331196798059126,-0.024600086254119115,0.13510106983841313,-0.005004022001539465,-0.18582057144385908,-0.1756747301486189,-0.2182853138716751,0.08180865928069822,0.03973547754185495,-0.027140681364879696,0.16262298787062962,0.042050321846914124,-0.16056595989713157,-0.08905773906337835,0.0467026215545987,0.006133501359137665],[-0.23217092908281517,0.04529699392125073,0.001862909890483899,-0.1095550589346707,-0.164371367814164,-0.285819825774845,0.3310853920554142,-0.006674974725631196,0.05539549845444048,0.19868063431846975,0.2083914663888803,0.03719769079325374,-0.009976187059852131,0.14500224455907512,0.02485788128269874,0.07970235795243971],[-0.14504371702135238,0.12729201431241022,-0.2720847087132789,0.2883295533283916,-0.10276708616242537,0.007796728711403348,0.02351382267111851,-0.217811484476993,-0.11699783584923408,0.1867968740998205,-0.000542799995594657,-0.145120052606832,0.14425823374797564,0.08099053150870833,-0.05815872363106436,0.1738376199457956],[-0.052884388461130104,0.17749488049625078,0.007312716387779534,0.22134139786957477,-0.10312043778454023,-0.039643861753690876,-0.06447260235744694,-0.07652603386816496,-0.016699709358369952,0.02828069672221612,0.10917695117364974,-0.12666270448462855,-0.1263962158360717,-0.1737569498592828,0.2403777499808627,0.10774046251871716],[-0.03994217797213016,-0.059951323886674415,-0.017250697714424088,0.10618006042749811,0.050848558772649204,-0.13517775207841007,0.023797161920274014,-0.01354503336805885,-0.09679464727046622,0.037525598783216145,0.16896216079052617,-0.14224772593560644,-0.03503670802775907,-0.04696095386303599,-0.11339050315538275,0.122123822615705],[0.16855423923729554,0.3370979336521599,0.01551687290366124,0.13616598637875643,0.01583578055484377,0.037724239133987675,0.05999970758654643,-0.22810639556961657,0.009731785386352202,0.023463198768915547,-0.1112963960370842,-0.023391711664271446,-0.14765584355607075,-0.25520733169088117,0.1781580131771366,-0.19586433290276767],[-0.07035301483155118,0.08372404731428212,-0.20366294206396293,0.2036348045330424,-0.22640723340226965,0.014999584740104552,0.04557325803507935,-0.05496575195222134,-0.045085744943007836,0.29848818597051446,-0.08844298393340529,0.09885512873041556,-0.05841189234104349,-0.2860304248806261,-0.21473794321647327,0.1546098987599508],[0.019597019487315,0.04618386416178808,-0.220668059300416,0.07141403994973819,-0.3420670946176361,-0.06142963911176842,0.06751621580245566,-0.023926381102225086,0.3320446588163498,0.10004168418406244,-0.11045907265490845,0.12865524326757444,-0.15683697909638913,0.08260851838684095,0.13182893110174984,0.17712417581040182],[-0.029880827672291017,-0.020290908104734485,0.1407100919137946,-0.16630230920693606,0.038060734454691686,-0.20850905419930074,-0.20976172668177104,-0.07015455319443142,0.186748395088601,-0.03643972697922134,0.09214028066836567,0.07609928579879725,-0.2317354376534296,0.11613598685217864,0.09735864891194906,0.046660466354734746],[0.16532956071456015,0.33261534153991773,0.0750137356069215,0.04100561797070668,0.05633206823930147,-0.25251071718511864,0.018171410746205055,-0.0804168785902535,-0.06916374526974697,-0.0087456921132708,0.002342116315309151,0.12323269606924658,0.02788572390714613,-0.25930875695123934,0.29704572060668416,-0.1558863032528499],[0.09282908591666077,-0.024739113364764954,-0.08150583416675453,-0.257369265397399,0.007218827098662453,-0.24765979784421144,0.10547229186003865,-0.04922364815304256,-0.16455720255904732,0.11198252616493594,-0.020389593702537512,0.03233705075774441,-0.0012246362996248836,0.07593845122618546,0.009239507050556359,0.04786401060153809],[-0.21147168531824637,0.5806515340577176,-0.07191752988310117,-0.07822210658935637,-0.25695026674315774,0.10266635682127155,-0.14045144989464683,-0.20870815463097048,0.4119137066333434,0.5038619259107825,0.13984954773466307,0.14508368161421092,-0.12218004626588436,-0.06525676833500879,0.35354681015572753,0.12815621352323603],[-0.11781488986832618,0.1439131950184113,0.15695311587442806,0.15434721160374648,-0.06237859858380583,-0.15172021567052357,0.04164947549802084,-0.4163030956825939,0.04412822860611753,-0.18818583826044805,0.7725733161960749,-0.10438956027542702,-0.24412056068402524,-0.17780263603624177,0.24866550151657116,0.16839401204790955],[-0.020226657408183864,0.13905156850089534,-0.04049734670492929,-0.03485954642318058,-0.19311574849593874,0.06807885790161376,-0.19382284893542773,-0.08838412466424098,-0.15248370150580098,-0.06126504844638248,0.18943551080880472,-0.05587057349968087,-0.014486537073002301,-0.15316644971176066,-0.03168710253621624,-0.036975886783425435],[-0.13255133465748975,0.3136936643879344,0.24786679006440313,-0.43670834893278543,-0.4265238755815874,-0.009807381542548873,-0.023965874856525515,-0.08549981502720577,-0.11505196648214835,0.1125706703030711,-0.023105598498221105,0.13718262989408758,0.26932070099013333,-0.18296738149470462,0.26055817242511764,0.1702081556442886],[-0.030884248866396555,-0.1655066892186316,-0.12655207267826118,0.05599773569377769,0.11940845616490436,0.07661124398870124,-0.14261017399348944,-0.15054975283785219,-0.011113201442468166,0.31142494912774743,0.18336516222728333,0.054287155361450186,-0.3904761571775969,0.11532998538053145,-0.21193448296323583,0.057356871635341755],[-0.09435961778618603,0.33557455891396126,0.2412283537793053,-0.055844477743845725,0.11172946749228661,-0.1181464393821643,-0.25923140204453726,-0.17883942292684243,-0.04973670925534302,-0.07067387982871363,-0.12388818233385611,0.20469481575253565,0.08085045960296887,-0.3009330574716773,-0.01829829665776992,-0.006258776482846725],[-0.02856421404536782,-0.13564186136803935,-0.1546592653122359,0.038479157260065226,0.033446279955877824,-0.1653348439142763,0.08011305345145167,0.06280171148679123,-0.4285121967359821,0.18483421878612585,0.4633852596040039,0.42574831535298396,-0.3293975481599745,-0.13293050859578942,-0.16989012644978524,-0.2753912238835023],[0.14416276152168372,-0.014893314860236187,-0.24037618133853283,0.0690961225423495,-0.01802601104766627,-0.0918387970374341,-0.05946915013746096,-0.48997016740406235,0.27759328388331095,0.4323378274132025,0.30733437456309826,0.05611541119087787,-0.3014239994874192,0.1576906256221518,0.03476000556457767,-0.17726718472252187],[-0.3790623040165507,-0.3471088244155822,0.2565136884907668,-0.12591176180248217,-0.139032003397507,0.20313101155538538,-0.22809525936678798,-0.49357437552594813,-0.08180412656517272,0.1439965016851238,0.5917412604293848,0.12601203545260578,-0.28551354250737804,0.26450295575414273,-0.02142904351753145,0.1498367199280564],[-0.07601912533942268,0.025209471838938104,0.01573119102861599,-0.34362772619351467,0.24651462098819132,0.04698065107119801,-0.12191792106006985,-0.03801513424996148,-0.07517542992877115,-0.08655221474574026,0.09458414387599909,-0.1385849532847097,-0.25123716961532633,0.04490598336533864,0.1462527074519192,0.021854924765873706],[-0.1839626528683163,0.1402222492196687,-0.12042980856456088,-0.16567518293412478,-0.4658237595730084,-0.06961426226348072,0.26116665418524737,0.1181942460976023,0.36950856771961654,0.5944303374355956,0.3460029842419039,0.35060171312108623,-0.21136177081640417,-0.012230747099531706,-0.2780227788302172,-0.1720941029191743],[-0.39243427835088995,0.20449228854124987,0.2564796899642194,-0.21272455301214763,-0.2976849968780103,0.3678580016073102,0.05777973946619077,-0.044297614430742774,-0.2916527422516012,-0.004850848308041865,0.7073408799964607,0.3171595504333047,-0.4340615358583921,0.10928960997713281,0.41201927878046635,-0.14781087531186776],[0.18878555079141726,-0.4119549303654933,-0.4663875636462139,-0.23727026760870656,0.39550795961452034,0.01126717833162159,-0.18784075085000174,-0.21687335296887267,-0.1458273697094515,0.2757406804306923,0.1434317352022137,-0.06718559782389524,-0.04485868622000766,-0.09737519177289766,-0.3759089436695505,0.21012067086514602],[-0.11586380571413636,0.5002149657544644,-0.1814907354484453,-0.13503938877557636,-0.389983920149444,0.07944036766661722,0.10578843437223574,-0.07239196210166131,-0.17557235828851583,0.17883178492302845,0.22831554964717962,0.436130004995101,-0.0116460727021961,-0.061931678627115724,0.2603787069982736,0.03237365927970349],[0.2257973673795569,-0.17087766367319784,-0.17624801795744574,-0.34179815273791875,0.0843934497398386,-0.08326713459177268,-0.3762406126223385,-0.19153373886950767,-0.5601474051615442,0.18336740432139204,0.31108125250840857,0.13728463916998646,-0.1859027814100484,-0.4208805007385813,0.06365490013692164,-0.5557774892430423],[-0.010931843780594811,0.11791674714997753,0.06922385761785484,-0.1365739133169699,0.08839743645822555,-0.22906489767752158,0.17951156929873893,-0.20242821908998093,-0.11863664297735627,-0.042286418362829474,0.1728524769727656,0.24083779678729395,-0.22456534835563507,0.08084966698959636,-0.06903842294295714,0.18650971497239277],[-0.10451566686208179,-0.10950380957254702,0.03254098209418633,-0.09083329215208233,0.14462966098805266,0.3537222608294264,-0.41542104066554847,-0.21171613876457937,-0.39691524877189,0.23736543053098683,0.024028125513947993,0.12136222452407182,-0.16709415038727965,-0.13272053811665377,0.16648161434368702,-0.01990055257901106],[-0.18872536567663337,0.19047447067930862,0.2637850031167263,-0.3485984450159189,0.08452253288556026,-0.31606341093203655,-0.1527791108813243,-0.3150725261677295,0.06307720007130307,0.27612900595788753,0.2681342646847748,-0.056923785669604675,-0.42220513029896045,0.37795599611862796,-0.03011642392745766,0.5203998210087675],[0.0938505452790983,-0.35736738562822157,-0.019005671510442995,-0.031646826142108564,0.20667252900636454,0.10633407860653789,-0.15775806768803105,0.25224601966694526,-0.2311374592614586,0.1289527954361826,0.469422651325408,-0.13545161794801786,-0.11337804840696353,0.16166739451052953,-0.24084196749635756,0.09076127506336415],[0.1891215749006951,-0.25732329890582417,-0.3812995200065328,0.021391617940873714,-0.26704250189412154,-0.031882676241330773,-0.01982856463346277,-0.13037237342974656,-0.6310777811684324,0.20739597694749598,-0.3567943296412875,0.24114041177527462,0.0344782432661624,-0.7279163041365838,-0.07731108307308106,0.08559975661786538],[-0.33169769942629157,0.10684414614531076,0.1324508061117017,-0.16327955671761155,0.17636775179358452,0.2675653387889566,0.13960593378066755,-0.35256890816442804,-0.10542044490668241,0.4292987406110545,0.06473483052851223,0.2554168074363275,-0.3188218265326972,0.11176384703742777,0.11693839331182385,0.527034920916236],[0.22212642587216933,0.2091614323824772,-0.12225037313332042,-0.16284684301604038,0.2934791400543355,-0.08203355931204857,0.23760992691511698,-0.04665871106327899,0.11901754324266814,0.33116294699466126,-0.1840020787024723,0.18623221655477143,0.2280178314790076,-0.140736880836816,-0.12258007823206218,0.4435903755628855],[0.038509848863081626,-0.19439925824180462,-0.38875935664529937,-0.3984390105353282,0.3965591232296746,0.07909398597400802,-0.12451512503014062,-0.20652861997484234,-0.12570755026026045,0.26276881667019786,0.3075271024006976,0.14308916593412224,-0.24490290951619317,-0.15266708371370974,-0.025356023958985847,0.22126978184675047]],"lm_head":[[-0.04819027393008663,0.2775213795564763,0.4029355475336235,0.170722723247398,-0.11635332348158366,-0.18750435917974279,-0.015290657312024525,0.13873323990288022,-0.10665648819435136,0.36415277059420414,0.009479528464315806,0.06386535901505537,0.22452545636857038,-0.26251740393124956,-0.33208607926001593,0.2089204590113036],[0.503614511666776,-0.20651739688871482,-0.09544823865470509,-0.19168265073967045,0.5413877987802034,0.28739919973543526,-0.2410742980059909,-0.2922877856539956,0.4174338247188303,-0.22000126900839312,-0.11609928103916471,0.20737083214075472,-0.32308141298937754,0.22916749998703673,0.1317685641374908,-0.2512844495253333],[0.3454867714524571,-0.22997261155204182,0.288618803866437,0.1806264324221749,0.16386377560715368,0.0016194927259809365,-0.1661086794373922,-0.21858124293690792,0.11181754748213503,-0.05801110276193194,-0.1748642428399944,-0.21475339214581393,-0.3425908140985889,0.36446722446219887,0.07866687156749921,-0.3522672031438891],[0.17484966969423893,-0.1185619030417366,-0.3152129315234451,-0.47280506854239834,0.32309748339315414,-0.0289629318142168,-0.11429382256420463,-0.33004467668519416,0.21512487485656334,-0.3173459557376052,-0.17031895385760992,0.28821012467938234,-0.27168387073708444,0.49729317412200613,0.47427269077113077,-0.07936375440698777],[0.29613260107643247,-0.33723890967748416,-0.37564750634022614,0.011452831341104565,0.0763092375755527,0.08457759487364619,-0.03483708115054417,0.014479830260468741,-0.16550040938137503,-0.7071854732366863,-0.13380898473969366,0.14149369812069834,0.024435277457287154,-0.10406992830285047,0.16687120327182048,-0.25849154108195027],[-0.022190172200083836,0.06346675441997279,-0.14949112977857523,-0.13731924045250063,0.04851095925943096,0.10409120328931408,0.0684952743771256,0.07842386461147224,0.09306747785188378,-0.2703723622036382,0.16678264778271693,-0.03872790210131829,-0.13707022086341764,0.28976795963797514,-0.08302109063183671,0.016807856234647766],[0.14434966850226724,-0.1644378786831576,-0.1759853687418807,-0.2818956319844799,0.308675385490289,-0.05550671290976075,-0.11057259509010395,-0.2987277307995334,0.04030500493576483,-0.4122356833480285,-0.07568958095372937,-0.1537699017670314,-0.4169592415210147,0.4372590247156818,0.2509833535901655,-0.19995722157150533],[0.15570200836035128,-0.10762836220722295,-0.33915753388305897,-0.3476301534393228,0.36543617561286873,-0.05052013725708374,-0.0933730017589787,-0.3532413615904954,0.06849876618753499,-0.28379473048904735,-0.07839598341656039,0.07181188891848686,-0.46727967450972685,0.32705174892562555,0.3723130966286199,-0.13213039383761727],[0.132069464246227,0.2293602917221444,-0.41302735914703875,0.06797035863879379,0.14057705540713833,-0.18980685759639288,-0.23080662860658507,0.0035047285366286815,-0.0471992002351059,-0.3641719380020071,0.09048750831749823,-0.12091368247166642,0.13038011011482112,0.1261434361933628,-0.056734868607190916,0.13770278468246644],[0.031139576639932165,0.05104676612824803,-0.17776016338080627,-0.16474843265345607,0.09903058257996798,-0.13868715231253556,-0.10176191985383544,-0.35446364459147256,0.18069921895735597,0.005011647484283908,0.11291200170384798,0.12127617339961587,-0.005226674897474018,0.3840522093971523,0.16842105801281246,0.038401756013570126],[0.19179471322683617,-0.12106747383960499,0.17928538886364878,0.07438894534389305,-0.0657318197623318,0.21771619162812253,-0.06908160915564304,0.22447352134077608,0.33645300553733143,0.1702819893028146,-0.27236622476565214,-0.1669882086392696,-0.30234203560916223,-0.09004479568709918,0.055679173296413864,-0.1293970179221731],[0.06948057162006702,0.08049853978056067,-0.03242336629994849,0.2105594142439962,0.17794679890446513,-0.07605090605484598,0.19623574345632963,-0.036398832597567814,-0.12838697673448476,-0.04767633377759454,-0.07788960714489165,0.3361758335979258,-0.15842406276439314,0.08975284001491317,-0.19852689022430975,-0.091248177837223],[0.22861839915132287,-0.02332251724519273,-0.23657019845385893,-0.05448660032434104,-0.05879341524730973,-0.18784524812337364,0.09038632913009982,-0.13933923469353243,0.3895379004481128,-0.1399688238646245,0.0190725702669728,0.040459785668848426,-0.016596486067736352,0.3820835703983269,-0.14128172097467084,-0.06381884711623319],[0.13686904596977878,-0.04052623635478886,0.15107061452064732,-0.16748704363029387,-0.011925760530294649,-0.03927626727603597,-0.3136324077855485,-0.13354402293486872,-0.09907219431689264,0.10462792690825652,0.023445213156484575,0.0020716113167538095,-0.1912889840486656,-0.24691055471380488,0.24451128024603955,-0.2617618942982179],[0.378080612089545,-0.2465755312510754,-0.03279248544785152,-0.18935940859777456,0.11599179491616947,-0.1805481191398016,-0.28155390499877775,-0.05857757361614754,0.022174770273646113,0.2004512594849207,0.09245691508120857,0.101688016529819,-0.35100488731568896,0.13176843087418183,-0.09368827120403958,-0.11436149668103605],[0.17633543819367908,-0.1356021463275469,-0.13180833757548135,-0.2033588192035441,-0.06649379246556632,0.10374874616034353,-0.20988749599068296,-0.07497230740720691,0.08931247252495467,0.18734114445527342,0.3252542811753472,0.0007854008292658061,-0.1893113899091825,-0.11397326333577272,-0.05843131471629934,-0.09912399723421812],[0.271655964117745,0.15898019251209258,-0.07518715932336888,-0.20437338507023292,0.14000035395386418,-0.12566877863175427,-0.35354503654592745,-0.20206116918930198,0.15737367026183766,0.11740248510310312,-0.07602352918961498,-0.13711431167641402,-0.3437694465781283,0.11856003278118023,0.12091409456370163,-0.047128081054561],[0.17719582336895504,0.036584577344092685,-0.02882601911639031,-0.22165262327775462,0.028424133867763456,-0.15537032453104366,-0.3409486385059909,-0.1695343647735225,0.22031152721971922,0.04788875184694565,-0.0388457853569117,-0.15284630966383062,-0.24465030658664602,-0.04428206773876467,0.09044727526035122,-0.06264047097181728],[0.2360159384205133,0.0015500526846421625,-0.0912108256218639,-0.2539084609465781,-0.08460184828547954,-0.09784244601322004,-0.2353404837908928,-0.2076650749783632,0.09705959881260806,0.07676633003699927,-0.15027864073959948,-0.06986028677652184,-0.22657538428850552,-0.0623189740312228,0.18109906458061012,-0.08195405211462022],[0.3974344140384738,-0.12367007284829071,0.15485788581652368,-0.3182148670802091,-0.153779411331735,-0.11979060300109826,-0.011174156566591566,-0.24892264460321545,0.16706858827008284,0.07915272328318591,-0.23408226476775618,0.028292755665824215,-0.25597271861223386,0.04627374523139691,-0.08649008418616534,-0.08600613039515101],[0.2838690745303921,-0.001355931249848467,-0.1348350487646301,-0.27897013950020655,0.017918355228873688,-0.1698928462582913,-0.16145139550234672,-0.17424851663819999,0.1932671446288294,0.045187227794595546,0.1746333050163137,0.012572485091559185,-0.08468498888467818,-0.00613509785396718,0.25628496833112235,-0.01699987276250218],[0.19175239794371335,-0.22049756274386387,0.05871200627868195,-0.014865219997933585,0.020726897401008443,-0.27806896511592066,-0.1600032242644003,-0.2657104132778252,0.1825270938765109,0.007605912691675747,0.2669646559127234,-0.1529256263810202,-0.02820645706103361,-0.24507767374914963,0.055019897754982075,-0.12524662190173952],[0.16819070617710072,-0.07717374444084321,-0.1821319237520827,-0.24287431848651758,-0.045193980038727974,-0.24673746523185314,-0.16394129569684063,-0.28562024535270075,0.17281697986074426,0.022360552704908707,-0.118116740643426,0.0878766560870975,-0.2639581099053543,-0.12100529605442825,0.03206829896178727,0.027988820020527484],[-0.2473586915298947,0.004971786621268206,-0.07382599326188684,-0.01614162999897278,0.1383171080658755,-0.14074757292209314,0.11234630302900693,-0.14936697484269879,0.1362692481380744,-0.11948585955525617,0.16637414089643038,0.051951728960858555,-0.011112015524414109,0.4445641166516012,-0.1667622377227169,-0.1501667697037592],[-0.022905201990791248,-0.061647528182699016,-0.06569642608629786,-0.33178564747688816,0.2949372652974677,-0.09918045896912732,-0.24772354887300752,-0.37747864739813364,0.5106515175202218,-0.2229219875359163,-0.28609124945304687,0.26082291872290103,-0.11931110584989772,0.06178749701803984,0.3558557826668539,-0.3097861290982445],[0.09668066975806464,0.14535010682165128,-0.12576785809730415,0.1254596957831117,-0.1728111688684911,-0.28612549308935603,-0.18200698942263063,0.3002192678961711,0.029997748297007847,-0.06395835798452232,0.2986282848303038,-0.027111500921270886,0.1199772342077564,0.22054061122005572,0.23454113763013174,-0.0201791597751912],[0.09887178433367028,0.10547241929306608,-0.0025640104991645667,-0.2877887029417042,-0.10422040905153362,0.002521115294409118,0.06759835882040553,0.12405400607612013,-0.20634825068549897,-0.17057476687444642,-0.0866040090906924,-0.25868673433734835,-0.147379218313285,0.07793897018214313,0.26544325752483505,-0.17907518868043332],[0.3217023407768779,-0.06610109724035804,-0.05486664706096964,0.27725285470941735,0.12928736885540051,-0.23178144938364456,0.3246848723449929,0.14613239925316845,-0.2602005529072386,0.11468132629121272,0.17017249700165038,-0.11110980959417807,0.2039938106218628,0.05852090205876578,0.1562143515229566,-0.04605926702205333],[0.12370029902007869,0.16417681782111232,0.17790052317538865,0.09496002256208062,0.05457590774391027,-0.02619451413445353,0.21051170458238352,0.202781505562454,-0.22129403042897672,-0.16458772132244587,0.21455187797893652,-0.0017780101249288797,-0.22081291946464235,-0.2794685163415973,0.33247630541361844,-0.2182742663030379],[-0.19663530230142462,0.20714737152357815,0.04327900982148335,0.020149290214323858,-0.09804835730429491,-0.1091911228010732,0.06028748629875389,0.2158449677481606,0.16908602864767724,-0.03440429494603398,0.37494477587350244,-0.024478443524808637,0.07547016917821019,0.2364553336207709,-0.0712583767638708,-0.08807581366975097],[0.04370918269153136,-0.16625158798073233,-0.29163755291073634,0.04675037747572916,-0.11649579805670807,-0.21166130206796496,-0.08463624447454052,-0.18265760286244787,-0.17611588859526855,0.0415815316054584,0.06188660140686871,-0.30779707944822726,0.04494725933358337,0.16505201644467404,-0.15112814329154733,-0.19064203262976098],[0.16605924199753813,-0.0747396033134643,0.01731245672449451,-0.20730911693089693,-0.2722130695097779,0.05088768973517568,0.09128170482182386,-0.06200417254744906,-0.09709146240079788,-0.11732531092366826,0.06258429823094727,-0.20561333952800526,0.011094447459635323,0.25015481504930437,0.4415516426017332,-0.20304485401996886],[0.2961413727542644,0.24471766723554472,0.017573047466240155,-0.028415373348109004,0.09929593532401129,-0.1938358959501397,-0.2727907619698406,0.09867647053112384,-0.05516360685114821,-0.048981943623640604,-0.08241166998063765,-0.1863104943331497,0.3605866875068762,0.3502970863794542,0.30243205754340075,-0.12697056116396047],[-0.14062963634147407,0.08589165258600978,0.14220605166618502,0.05273035048385183,-0.2182979279946575,0.2995642570512917,0.13300389548115998,0.12190714406054934,-0.015428011749819249,0.18819596987444948,0.1555695096994679,-0.162813209447883,0.26523552064481803,0.07611297464288487,0.019063502485296233,-0.4301253722319293],[0.21571048924609074,-0.34528209716386626,-0.11526922174134298,-0.28222730185549494,0.2501497543689498,-0.2768483099416705,0.17954928921128893,0.09602246010030954,-0.1600517934001789,-0.12338109381317577,0.30697099239874415,-0.07213129933721632,-0.2639636075032863,0.018345831456759755,-0.038774576627174435,0.13613009282398078],[0.10951836980269561,0.08211898224042773,0.04358141607169546,-0.0702121288495274,-0.05172918719522853,-0.22401071604490883,-0.06586259977221064,0.22955646739554714,-0.04002675750704185,-0.15858935846065994,0.052722006527973604,0.05062370868750408,-0.16526742268976893,0.24382641966834856,0.0765390569244752,-0.21359489723686265],[-0.2154564381511551,0.10970076901532384,-0.02497240174099292,-0.08744844789160597,0.1123382633284057,0.010397612298680576,-0.05070101440344102,0.27155936325587043,-0.25888954233925426,0.00775773444584441,0.03906744941864014,-0.16419810071126478,-0.4403711933291262,0.2453448968244084,0.024132014717175666,-0.07099238215832393],[-0.13754419166986653,-0.23953068552062906,0.1891960593977243,0.10330097303528195,-0.24592030800659306,-0.18554343052983166,0.012567662597883831,0.038574089091266514,-0.014426816580860318,-0.0007435122937672231,-0.007689559562520868,-0.5566992316088913,-0.02687608355937934,0.04111920508137537,0.20515005544923715,0.3485698214277889],[-0.36654724539794664,0.1040843864963686,-0.12161622533567917,-0.298506692061347,-0.12422769034711857,-0.2938182264408484,0.07342352253763659,-0.07009515230514504,-0.3341026536150147,-0.05410737932158144,-0.11185079797862414,-0.15546155009005996,-0.1826946378787497,0.034559029885146426,0.09016350287459726,0.20595976575282968],[-0.21630779884415102,0.08182890668176578,-0.07833273582505691,0.1595851658443227,-0.20710998126783636,-0.06295152050187294,-0.1742594257333882,0.23018489555095575,-0.11683430237673437,0.021498054002622977,-0.08408268597177866,0.11496913261932722,0.010759257176944276,0.34541088334023934,0.04955104935409801,-0.22070258197953643],[0.2229115074699994,0.1181554937783504,0.131386956677953,0.15017762366169035,-0.09499285767557096,0.005268933853004746,0.24648097202211985,0.04241924961940877,-0.10237855934440244,0.01856752671797105,-0.08250015334943728,-0.41399467571236215,0.20674606797106873,-0.2792851835981918,0.318821890494544,0.06542749225957051],[-0.06247320297949937,0.058076910363492364,-0.44337302141259527,-0.24223724671271532,0.4055956439364183,-0.18204427487239863,0.11377066357711839,0.06933488725148701,0.036227132634088596,0.014378763231252385,-0.013106752102741195,-0.02485070029794353,-0.2022022461035254,0.07246321335735235,0.3872914131996499,-0.31172185585525675],[-0.16518843964353566,0.05437393287895262,-0.18723315764023823,0.1379967312184328,-0.07799689012017127,0.10500645934336207,-0.018858339638100532,0.04305158154953178,-0.33638334485975985,0.25696632158470284,-0.06483003115670542,-0.2272988852334856,0.10577487905972814,0.21437919729653684,0.18642194409254972,0.05383721532918869],[0.07142730533190254,-0.010189216043442272,-0.1362209811380587,0.1411402839830914,-0.21516875622536497,0.12951653526635765,0.2423633509860576,0.11998069657554071,-0.22022451938235094,-0.141482882751542,0.12075494995902165,-0.21617809915319613,-0.08348392045145409,0.3907391903944604,0.05836628750379507,0.056105811279185236],[0.08142419693908783,0.19055961800403776,-0.12687218232951508,0.025392598074374946,-0.20719899409245232,-0.23702197066086156,0.35190897539377336,0.07955107480339821,-0.2902244106793977,-0.028641109233462875,-0.10165879504305292,0.23812688296785764,-0.042064930820860415,0.10027920719194579,0.14759571230734822,-0.1735863823009791],[0.07421464685885434,-0.12047673410770073,-0.11925306938273829,0.06807977878996616,-0.16340463076666126,-0.14640555327282903,-0.12370086178048943,0.15555059151566047,-0.2639627168283514,-0.06520532711153665,0.20128457135117298,0.08810379757228484,-0.11095253520505349,0.13666984818402242,-0.025321131477165866,-0.022459060560993137],[-0.15989884756908418,-0.008376478872133247,-0.1991377127429028,-0.012352720532702987,-0.007193635479141031,-0.10906654012170715,-0.057228742931788715,0.10458248606422162,-0.15166358702057747,-0.06988190873947386,-0.007226706084921924,-0.0973505771820812,-0.10913889224175821,0.24509867808404015,-0.11776489220000537,0.03650589186793103],[0.030448136855438474,-0.006923534908813536,-0.25119014083549035,0.24864023393687432,-0.010351258437939952,0.060274386120986005,-0.0020765619127789993,-0.07177285673963782,-0.04063106597041772,0.09198693597829137,-0.055532607699251745,-0.4510698309146246,-0.2697542301070855,0.0587512205638708,0.229338112268304,-0.3928075660658511],[0.1315172661373288,-0.015510205024982085,-0.20237888119693015,0.036250332953290956,0.19655117530235286,-0.04449449415138199,0.06153104962728647,-0.42033820244818165,-0.31595719411371065,0.07952933610393044,-0.0189548997361253,-0.18532712021958886,-0.19773834754178224,-0.15420002311736872,0.06856957984642659,0.08387785690589745],[-0.176721411928638,0.2370660895596288,-0.1326298951589656,0.1709620310307505,-0.014383159267278255,0.38354340541551224,0.11331996093372614,0.08144523519651536,0.09470684135730596,0.2194563599392636,-0.20111580429077788,-0.05162197766199236,-0.3890222381898277,0.17685821573674404,0.14423968185472466,-0.08837587544633545],[-0.10728493046911729,-0.18125935117460099,-0.5221430649041957,-0.12642713498151908,-0.0527758674780785,0.060946468784784366,0.062150127979041445,0.34923165243617765,0.1829025945948909,-0.2805583096066678,-0.05317852746797824,-0.10261315152195057,0.11892797434503935,0.13243630943867754,0.17897859386595985,-0.03413894896404556],[-0.05324902825035863,-0.003589954577711332,-0.22437787779495347,-0.08322618077851753,0.2673572077007398,-0.12411231952824062,-0.14351679769665596,-0.10477612593069202,0.06464439994386727,-0.2628523779372411,0.018243097269509755,0.020399647614809484,-0.19092349101062944,0.45544347322257306,0.13425067011554714,0.03791806595627821],[-0.22239721465486367,-0.25926909612698423,0.2295539619213052,-0.037069343332029034,0.10058458618468911,0.23634523870952406,-0.5867081197823922,0.1438723206148618,0.20841242471180577,-0.3373155613481191,0.037687224600375824,0.15475674395044237,-0.023419467788753562,-0.08993655276462015,0.25095585177394714,0.09850482872021396],[0.05702669091966529,-0.040884219752825135,0.2171352114360569,-0.3328677801037454,0.3784954934956798,0.05839128675203449,-0.3036270202396673,-0.41361942540260904,0.4958332235072228,-0.28033871440578917,-0.17335429192252413,0.036792433916985834,-0.12790540401188763,0.04668009690509835,-0.014908987898190734,0.00684485267371068],[-0.1474580323726527,-0.20498072811497148,-0.1816555478784546,-0.6788242113702129,-0.07100290724447902,-0.014400468904978238,0.3064730206453125,-0.11470917618448835,0.0812435943614108,-0.2110601032032404,-0.23159438514646477,0.08892844055684772,-0.0321598199659131,-0.30923232381417054,-0.14603468047456766,-0.05199296499040686],[0.04715148408062345,-0.03194946063696202,0.10592101847853375,-0.41429031653752263,0.06746776293294007,0.26354062968442865,-0.1277906050555959,-0.5973478759506052,0.03757992739108347,-0.2117268169483368,-0.13102610504706141,0.319832009150252,-0.06493986557647616,-0.055532061299658,-0.24210159882181387,0.15828910567673285],[-0.1445125922267214,0.3196072304299354,-0.25100951274557637,0.16124730778613403,0.23856264875215055,0.3050601206393999,-0.09627440857059119,0.008226614694539705,0.3967151476549451,-0.24139616781213646,-0.09310093401781132,-0.04563138582202122,-0.014313629623390134,-0.27987490050356256,-0.22985617755242505,0.29048757701378053],[0.35027888830501985,-0.14543193832953757,-0.28183458119269605,0.09883919508343021,0.057248363990092165,0.12091264353988439,-0.02483236860727855,-0.16681315380862274,0.5196324721459226,-0.18360894327049224,-0.3099093866364213,-0.1393544780522322,0.12342364315979507,0.07450823793836288,-0.10251513669026037,0.242723814268304],[-0.22639641037647515,-0.5046871373523276,-0.012799029619777117,0.14016213140744477,0.2567131933695809,-0.0082639380105992,0.18973926458352708,-0.1918146865384963,0.08693283497135437,-0.13295287164539468,0.05075726011911198,0.4210309610021982,0.021755991947931555,-0.22484716999560955,0.20997689443214063,-0.21660409726412916],[-0.15180339107943347,0.17388782725502266,-0.20447861099553372,0.10114081332603221,0.6636145229109168,-0.0208184627121155,-0.31265524487953117,-0.11270077238796421,-0.0114475951339216,-0.1409551820860255,-0.12033449077017967,0.16404560429547635,0.26655497331201916,0.16202611365999847,0.13957381479857503,0.025941462377601893],[-0.14021945687663254,-0.46818530815793397,0.006364000921502608,0.23845475196534377,0.04959375220171585,0.5240977418391657,-0.05882115492873409,-0.26835485469325604,0.13843306306792125,-0.1494092696904824,0.09066114362968303,0.12018258049977594,0.07223600147072842,0.04065408651080781,-0.00911065896655244,0.2976295264280108],[0.15662989800538105,-0.15427212652510705,-0.46568987370688936,-0.48186714488423416,0.5180207753863211,0.037273479826604755,-0.09575301429433504,-0.29212898068859233,0.31502842866913716,-0.3940066686619523,-0.08169782023181746,0.012602359088893374,-0.2764620875206589,0.4752604313531908,0.38566320655944886,-0.15127231259471785],[-0.058225099516008724,-0.09164579282156152,-0.7628253561655147,0.20350660187156117,0.3409431554605521,0.30065735756560963,0.029248237035326054,-0.5097745339726182,0.3438742956966903,-0.47030851622100045,0.22430982720117706,0.1512683384026671,-0.051642359957269714,0.057193043888242805,-0.008390668250474088,-0.1885353407754136],[-0.19326055280906138,0.07925393886113358,0.04011778660209936,-0.3169877871925518,0.4783586778965981,0.2525598079250243,0.06672961469051053,-0.29493674857604246,0.25515026443645866,-0.203820747888478,-0.1748965532215143,0.04694682938684371,0.13973132340943123,0.23703944622186857,-0.1851121158746604,0.18670800600043827],[0.06243245765865496,-0.3552538706287393,0.05915710143241351,-0.09135556616791274,-0.1372886117638928,-0.17270492364567872,0.24549832556118462,-0.018767969734000023,-0.1333839224783659,-0.5472308844612079,-0.7229922059672317,0.1082660758078248,-0.12065150915901196,0.19919696845586582,-0.012872357855310488,0.17972039288855535],[-0.296016625979707,-0.08068827428613824,-0.021631685828825093,-0.49563180194887757,0.39683527359025883,-0.028235638438880207,0.08442114423165592,-0.03466559921407826,-0.16973077366986275,-0.42042295505001875,-0.028770517848472493,0.1989001155778449,0.09541035443003519,-0.0037495808359915834,-0.2711367702679725,0.1415781492557502],[-0.28515734132680487,0.1789674758243273,0.14190135426814926,0.18549622991910894,0.4217092306336843,-0.045243273400082974,-0.14202310473792398,-0.24943966055707037,0.2668577420852509,-0.5361358822422523,-0.2615526235090164,0.15819051016508506,-0.11629198123565651,-0.2951168870155034,0.2351432646945249,-0.019540689325624503],[-0.2917050180922329,-0.025537333720942825,-0.23720409395732162,-0.1949141216280189,-0.013838973364028367,0.033474878827264576,-0.13086008622994194,-0.2403915380676306,0.23556108433122655,-0.10037188978569604,-0.24999964225390167,0.04106554624573945,0.5425526820630375,-0.0144642642153181,-0.12473873536927348,-0.2914066304118088],[-0.10152306974716696,-0.35217336729558407,0.2219881252626454,-0.0590786618922565,0.45041887149922616,0.1295757142492249,-0.22849698209883335,0.24925100253669874,0.24754861425178382,-0.059217337276616114,-0.20242516681680506,0.14710583366652552,0.11598758449635765,0.17632689338295868,-0.2649516996230763,-0.12785188393598398],[0.30990527145363156,-0.43698379566926865,0.23154508759550999,-0.075538127109638,0.2009970298213484,-0.04607727816663943,0.2850350081251036,-0.15067440223280815,0.3128891493009534,-0.33165627439154965,-0.027456018506831718,0.19376771304166385,0.25811076189632987,-0.043796970497804066,-0.06431708636681358,0.03473574493494782],[0.17424938594923695,-0.07874869991995231,-0.46355884247385637,-0.18277738898810034,0.3651510797484411,0.272398397771835,0.10255216143921592,-0.2968625842170323,0.16043793342466803,-0.1432071316087701,-0.40463401815375766,0.049220322207565344,0.23745793457455908,-0.280154083522378,-0.14447270081253785,-0.013107670864894009],[-0.10700383346180971,-0.4012653800533098,-0.1796487828620444,0.24149096597667818,0.2013822415351421,0.0884937265166912,-0.2366006966647015,-0.10868980901042022,0.1673877644555884,-0.33557373832626874,-0.22921554472639313,0.027438633808331326,-0.18958949687156734,-0.03859742856549791,-0.34332911008079675,0.17005773682401437],[-0.19455875221273786,-0.09409480500852652,0.03133128026161276,-0.29779001440223096,0.27713899614034576,-0.27017564650606146,-0.13664324246519427,-0.37710618964419856,0.24508776586783537,-0.46448645696913093,-0.1811984284681141,-0.108066097292737,-0.24309846841718885,-0.03516882996771472,-0.1544707508399684,0.21366167275723003],[0.19415587311062246,-0.3234627325370845,-0.24876978175446954,-0.5647130429992625,0.4925710421247868,-0.07077952827997158,0.07650239881227452,0.13543483862621158,0.4789447346527789,0.06903925119266265,-0.37343107188823477,-0.2452861322546983,-0.026856049707566127,0.18663228427353543,-0.07936608332711831,-0.10780198076773723],[0.04086715448676755,-0.40713570180331343,-0.04736128383419327,-0.19426339460450542,0.3877690612553103,0.22482009715855628,-0.041135010769049074,-0.18003303215010572,-0.06773386655853661,-0.23905232084919334,-0.32229838879398254,0.16355297629049778,-0.2907844237911143,0.153192881888649,0.05501648700836749,0.14083727031839452],[-0.44629215802308614,-0.45773591362988264,-0.11629188320214628,-0.2655513950600743,0.5245434315157577,-0.05525983751279052,0.003292770026965036,-0.0504615114213148,0.48338767686703193,0.028369969489969168,-0.19971997635567137,-0.03857345579749517,-0.08269015155936636,-0.09852961481507999,0.2549048832073935,0.12199370062404953],[-0.052978238058734146,-0.3308140655967362,-0.20525661852761928,-0.3798786546913925,0.35603235366775937,-0.28065327644270194,0.172137957371145,-0.39414188370998426,0.01890248325877831,-0.40779040193156557,-0.1936902017326832,-0.1832459753515414,-0.11436580506333865,0.11792427876904502,0.04027600285702348,-0.17268791568162065],[0.30872695984755577,-0.4448030170579137,-0.22257939507919203,-0.11667572109883176,0.37338633107145636,0.08529067050633479,-0.061969465085832134,0.260787011713354,-0.021007069923057797,-0.2455993789055642,-0.018090004402835428,0.44139254480699386,0.0834089324616458,-0.25524895492369,0.07947268024369429,0.33529730618878273],[-0.18942300696136913,0.24118870018761435,0.22363303906219748,0.029327176723198244,-0.054383851092001834,-0.014212582442203994,0.08880244341871449,-0.25537246968907773,0.25436589710114865,0.3429733229518907,0.2325094374819366,0.24433379239185696,-0.20909702742168312,0.05406122419540534,-0.06480113322728426,0.1454923239536584]],"l0.wq":[[0.3046835505113554,0.33774104710564457,0.014048116896317056,-0.14747430463916333,-0.30851629790665125,-0.03870118082683004,0.4521313629509002,-0.09885757351244792,0.06825037775883237,-0.2378891136185275,-0.320819066208142,0.33511241535408925,0.18967131463547718,-0.2405388133120823,-0.27479343073276713,0.3962336199820545],[-0.1371678729412687,-0.029965667615223828,0.0816498564731402,-0.2051428066293868,-0.1004212327199501,0.16170278880667882,-0.23778154157689857,-0.23560956932566426,-0.22676610435151243,-0.29450087598452823,-0.17497700720862017,0.20447215013869458,0.3723252554471325,0.43494573161899547,0.23736070632415782,0.02043801850208074],[0.09130460571861991,-0.4742361688001471,0.03403298760809122,-0.23387026794252785,0.08791910026200671,-0.4544930964801693,0.320945049376064,0.01632985731993104,0.21983233568539587,-0.22590497957779512,-0.34547388007808155,0.19514756908034395,0.04235631214837969,0.14408897528901296,-0.06288034728474623,-0.14995289995033545],[-0.2397696577052665,0.1797702034258388,0.2739986202763045,-0.22236608546004838,-0.20252240779959912,0.12275377404622927,-0.5357131523817578,-0.22417689295572962,-0.21103452752848842,-0.08862500089947715,0.3108842120655674,0.35737027573285945,0.07573209445640791,0.24769981295727894,0.4601540490959658,0.18558213971584464],[0.12459662153695625,-0.13960266072910268,0.4967033603896241,0.10242777937397171,0.21484311222655356,0.15418410463080928,0.23664687336345616,0.40727186602545484,0.08705378345665793,0.04545647483540206,-0.4436360354943099,0.5968640457320676,0.04606615235299018,-0.4126020493843176,-0.06409051953535887,-0.2873194632243136],[-0.007491840803169569,0.10702355944788394,-0.3248563145072849,0.0201675250213426,-0.14446742073359553,-0.1194451939120402,0.07913916911772381,-0.04677984500093203,0.06776333038046246,0.24783956560467738,0.06130329094719274,-0.26696443320817054,-0.5354460838065522,-0.19904885468476854,0.2601480870524097,-0.05295029622260496],[0.23797934159292622,-0.41558678725333964,0.26603062621663087,-0.13818752194653863,-0.14649647733436486,-0.1210371100233478,0.34940599677213524,0.07440676552539195,-0.2465432348967312,-0.34589889162608634,-0.0021889335292760875,0.3830125640136278,-0.30320326229608163,-0.4710266780780119,0.10483271699354392,-0.20267254435840976],[0.17570093246962015,-0.6101527220538641,0.2135383714794907,0.0035082811620770274,-0.27741248122559803,0.2869689381610319,0.30615089724974043,-0.4249686530233784,-0.4582220894920759,0.07930445752200188,-0.014727756686929635,-0.05890889220060055,0.04265930164509986,-0.3704317282843439,0.009589719099987994,-0.0036630994142398876],[-0.2057090959438136,-0.39969640806401235,0.14530083733406113,0.24815723245034385,-0.06000144376330686,0.5520226051512054,0.1321111087659159,0.4344479968182151,0.20220314777975026,-0.57378120628133,0.07523766594304515,0.11042465003386864,-0.02878912281940495,-0.19802030792739722,0.47020714274150266,-0.5694589359713764],[-0.34303755686650317,0.17472785339238442,-0.1334062888222443,0.4715776046857933,-0.12821134215598487,0.6448417456463976,0.10787519182918293,-0.10215185715764655,-0.19816928174493834,-0.1859485559898778,-0.1820789270366161,-0.032413716238810904,-0.034802103136598095,0.009894395094780668,-0.6228746088340339,-0.5566916149764545],[-0.016500570348019234,-0.2188351765722658,-0.053222471913327636,-0.14357427538045342,0.4011681038723556,0.6213512829476942,-0.11669268365736701,0.6143565550113252,0.4247588179037906,-0.14743128104221648,-0.11953735462228647,-0.06770078453478044,0.1626071493415931,-0.2593487583802046,-0.13651716885031953,0.46830006972377924],[-0.15312123730333052,-0.36418428638724615,0.11621854511879193,0.31941765876405936,-0.4828426946464617,-0.4520451657393984,-0.09578809737625335,0.4603636251923923,-0.30840630364861005,-0.17180306582704952,0.2569994307794323,-0.7790656281348095,-0.4070566004498438,0.13791494760060363,-0.21994505528361402,-0.38467459824055145],[-0.4140470850674383,-0.39781704811603147,-0.5979503176414832,0.3122232042425265,0.33776845858196475,-0.355327708172535,0.03448585337093277,-0.07832397048195616,0.06276092737711204,-0.18860428828339612,-0.2315067255879149,-0.3253462051456586,0.07966122049489649,0.43288262852303366,0.0346186308592301,-0.2048132535505198],[-0.3312959607898105,-0.3919774568916337,-0.34972187095028195,0.4102840338098896,0.03616521740322364,0.0035387759072334313,-0.165242431879862,0.1068616499970993,0.13663629823600287,-0.18947117697781016,-0.20029884256773003,-0.22734642307727432,-0.11528029596795314,0.2631869340435041,-0.13916280791154595,-0.22283992036229977],[-0.10581906484406048,-0.19003799922155198,-0.8516587658274702,-0.22367995373269603,0.1187374585139092,0.5692899844388405,-0.0057283504390130266,-0.00783462805465191,0.28136164359282295,0.32673377296052436,-0.061192629204402736,0.04043652114551953,0.09055109529833823,0.12802737751583412,-0.06921311837255731,-0.04373822675373281],[-0.33241830495629043,0.3428257078903376,-0.9890836515180912,-0.35944693623314206,-0.07135446984346182,0.048448013546258085,-0.3583490715525983,-0.2590307134884012,-0.37055510441483397,-0.4653330075620425,0.2598844279618193,0.06210553234308826,-0.047784527937732496,0.26500760476667173,-0.3754998220025963,0.09720401769813171]],"l0.wk":[[0.06291544392627552,0.06169629660728191,-0.3180326515439577,0.2805252868572137,0.2912816794139255,-0.4129572634387169,-0.21832331434362837,-0.4759345812536445,-0.12550973222261141,-0.32917601765928445,-0.2389611880304823,0.3221544177835095,0.0010998961902973536,-0.29718189327550104,0.16037711653118072,-0.13100855727671196],[-0.5437166466665806,0.3145391278364756,-0.04261900453375918,0.2720120122844494,-0.06072723883394586,0.018924129247428666,-0.030594652399989687,0.3119262393251142,0.22631658183076955,-0.12981726311765063,-0.19927445817379955,0.1934648757341374,-0.25304600450942594,0.34485480110954425,-0.13147587686932835,0.12954585025688808],[-0.023178295219345616,0.13682336850245136,0.14869689998141233,0.2601550007016533,0.24539644004492195,0.4143229756826539,-0.03424823958376822,-0.1799508066866015,0.2581246220745004,-0.23270005748442849,-0.21757116257227116,0.04398576462891473,0.46924537310026465,-0.3195805446434969,-0.21597552782001136,-0.26391980019354394],[-0.4578780263147362,0.15798993519620386,-0.19111553095318254,-0.02011634528193191,-0.16662108108354504,-0.08944918400046613,-0.10354246297981716,0.12881172837886234,0.08600720225658394,0.2262945318149006,-0.08332989130033283,0.2451971168142763,-0.4098973396217573,0.6725517291619093,-0.27505087228468256,0.23385358346880405],[0.17864729426017203,-0.2603773381127198,-0.22309096964045744,-0.11393048291699337,0.15439932452117092,0.34191491380216804,-0.6876937374251809,-0.15007465038730364,0.10645399018792476,-0.08816303841519069,-0.013033886820459315,-0.40346578481837053,0.13218047441102035,-0.2210299023689429,-0.3453909652935287,-0.2345068551347834],[-0.19330892374655717,-0.011795453574339474,0.28267813972176054,-0.014439776162271779,0.030721026964029435,-0.7445739158119322,0.40155928410665065,-0.022723348474846115,0.24294732224823626,-0.0324014987950807,-0.04690037874104272,-0.12767643021115768,-0.2960452309699923,0.11305132958158866,0.25660790179263604,-0.14683692641755838],[0.8470335122837055,-0.22436107744404188,-0.27902519489797567,-0.34766919218376235,-0.04099251417884595,-0.08334481388538688,-0.2867056220909426,-0.11821760116288273,0.12877845778750918,-0.14510319534368077,-0.14529187387551723,-0.30507859918529784,0.06459130363568798,-0.06783684308702434,-0.021883564613708224,-0.3692080924263249],[0.8643571953086554,-0.22761739949083784,0.191706984019867,-0.3471180494570909,-0.29646151857451825,-0.25731887445790974,-0.42017961133363674,0.2088601074045077,0.015043197489828686,-0.05335667335974758,0.03127118001952518,0.10841865653724084,0.2647804763334356,0.10253777559410372,-0.32409757371377484,0.23844474232085205],[0.19904624888168396,-0.010385519424377654,-0.02087834976611157,0.34737252068901253,0.07641450478353695,-0.19222142978405926,0.22507497965330206,-0.37221931672588365,-0.20331536140900316,0.6524897605263764,0.5158952276052414,0.6562693243221087,-0.32682445544257,-0.284898318831412,0.20092118900581815,0.26710958271924884],[0.7046112582716516,-0.12192996019907795,-0.05803140199792571,-0.11926294891987897,-0.5233991188691328,-0.7032093445210704,0.25672334337292546,0.05993497890406989,0.08917423746941149,0.8351591675384987,0.18511334355619774,-0.046264346223505774,0.1756831771704112,0.06408230426649532,-0.029892005841303637,0.09187177705497698],[0.5365273593440436,0.25927037735063285,0.23515816658968933,0.2939492692489461,0.25228882535125685,0.3285928384758544,-0.21413026206550426,0.022827494053211703,0.09007478051047586,0.18382596230926226,0.019331547017262196,0.19233320656834008,0.3631572558088591,-0.007252178600149171,0.5789665472851353,-0.17262050342458973],[0.12330202292203409,-0.2170793665220749,-0.3005403154249696,-0.4423551430025846,0.03879806690293117,-0.8202895005598738,-0.5958354453245357,-0.10651618296094476,-0.042635850894492185,-0.16652840714023634,0.3452041881931904,-0.06461811413945232,-0.6578772998008091,-0.1363876930669507,0.26981785434242167,0.24024652318145176],[-0.4099647679829656,-0.01638603600413129,0.7496812183177916,0.06585467468046699,0.24331463011487106,0.8690532798350473,-0.37880509643914434,-0.2845088462515115,-0.08708871906918167,-0.4770291574180458,-0.05561343919519381,-0.13119173306440124,-0.415875950659695,0.004781302035335465,-0.02337939034068827,-0.22881718833701922],[-0.5050841326962675,-0.048056384110979664,0.3586744107554155,-0.11349159992682044,0.3873307511820379,0.5801449756944272,-0.24548819014570292,-0.15030441382244697,-0.07927954142070907,-0.3435513411977837,-0.26316381338658185,-0.1983346226501883,-0.0836531751464388,0.2322525901418024,0.12227226427312535,-0.26193770406506495],[-0.17830324162750966,-0.3681054124945119,0.834249911673788,0.14024117902862987,0.44973127166146903,0.02812619859100784,0.41052205671346736,-0.1177621644642986,-0.07125895317787889,-0.17819567422945704,-0.24274521759809875,0.0273083107403227,0.49269939721487405,0.13228689548887104,-0.37503515026137907,0.06381233948248581],[0.20815766456069643,0.24870243931758076,0.7086678875594954,0.0366947477927502,-0.21136764401198982,0.3320166719065417,0.002461785099714032,-0.037204864862884345,-0.27117104790350616,-0.12593356668809938,-0.177355922482541,-0.0166272124506628,0.5189508293492229,0.06500924588855446,-0.4138042151641702,-0.6832829019292126]],"l0.wv":[[-0.10951452548728201,-0.13646425097610482,0.10105227696031187,-0.3177901405818555,-0.0011158750264534392,0.4295357472381418,0.07872256083510973,-0.4509234170446712,0.10691470592240926,-0.157901508907365,-0.18411804268296933,0.23353106974808832,-0.05479376165357487,-0.1464150480859646,0.7867324863859622,0.07658749556497976],[-0.012837250490186225,-0.39764404467944064,0.3856840536489803,-0.3628897344386812,0.546831890619502,0.07063045598335932,-0.22379329694226194,0.021651452555158213,-0.00906166733683833,-0.21264021311590395,-0.48826176428571183,0.42195954227923194,0.06509978523722763,-0.013375849431855994,0.5328571688496004,0.10730863736880186],[0.07535932829785917,0.17533276431205075,-0.31130336038509515,0.15806033545494308,-0.5065607871662609,-0.2725180665052171,0.40463434708450113,-0.24396669309394098,0.37132898400354697,0.08904976207636618,0.16408350457563892,-0.14254353140707599,-0.19064816453891908,0.05153114434135345,0.17882031124173356,-0.3775037000899359],[0.1399438069335952,0.019198232140348884,0.5189200244155122,0.27397736943898293,0.07189141955381319,-0.41417084184629205,-0.36999869162359095,0.34579673420578355,-0.4047174714923444,0.22984982532171205,-0.01128138964248678,0.03755910159366323,0.13478188920715295,-0.3456635416805229,-0.48095177992964944,0.21121326345209235],[-0.24169973748088855,0.43561623224817814,-0.11752288742163758,0.25405859506605016,0.2637674678629982,-0.05554775562537445,0.11545881021282506,0.0569477545544508,-0.18145137804936112,0.169088572010926,0.2997298861248619,-0.22732848359719557,-0.15413691974964738,-0.15145758987148722,0.26899995830272255,0.06174967284522619],[0.01797835056531953,-0.6262061311298154,0.32068300239394637,-0.4040949005140407,0.1179861180261334,0.0779198813752842,0.028609373600154295,0.16346690035256958,0.22855182487984724,-0.04844387465233909,-0.09208558269654289,0.01447393219979871,0.06633224001272474,0.4070346049763013,-0.1042271098644039,0.18481014947070012],[-0.28905686344573567,-0.0883527439426448,0.4257478883793341,-0.32938222177649995,0.3323549167046154,0.0019275024481916075,-0.0703706951429065,-0.1828541239126747,0.42050552332787955,-0.3944633084656879,-0.20397154981345164,0.06090999170831713,0.10731717603659266,0.3548179222705192,-0.01712747037357688,-0.2363938240880714],[0.17916061986630338,0.4201525610807093,0.13321308255901973,0.0789951077053433,0.04503318073766297,-0.16891385750294274,-0.2193270550370564,0.026722715183737342,-0.15657615079952808,0.16344758163923698,0.6616682602254416,-0.07190988329394164,0.04729576127108921,-0.504440380402928,0.21547522429815655,0.29231590038883504],[0.14476432997846295,0.04198660037014137,-0.4100096979380142,0.031623568522661065,0.36296900564728335,-0.16696424413561653,-0.8322888563981046,0.02374579689279801,0.6066500558522645,-0.08687487229773146,0.011484816477175145,-0.18651229775822942,-0.06803762006134483,-0.07206464646707471,-0.48630160115786514,-0.37085307253084115],[0.7932787841894021,0.08921976233424153,-0.2940634123893765,0.46768079303295207,-0.15722595742109466,-0.3491954199183412,0.02719693455385784,-0.09022268787622624,0.20966201914663915,-0.08306597394048647,-0.42016640654000015,-0.08114389916823027,-0.0710197349690514,-0.5349663378764871,-0.13815837076670098,-0.025820699067270525],[-0.15121843170307975,0.2380629279108261,0.42682221059411346,0.16804067750854854,0.23191320440676919,-0.03379118248551576,-0.013946990165153161,0.4171950401420668,-0.20681307426863854,0.22795326258428225,0.1207286745579218,-0.3526346874369955,0.14825204313728207,0.4566749892141421,-0.18041277946047446,-0.1666424010678629],[-0.2837174178287254,0.3518315815528212,0.07039164961957914,0.13386726754197156,0.21443294987455438,-0.0831833365909494,-0.1363671476766526,0.3805886817551513,-0.1472735679166689,-0.02429233500754494,0.3529390390750422,0.1818610451132611,0.14053457064520802,-0.11259220535165097,-0.25211072898555176,0.5089632431579285],[0.19447645705771835,-0.23715993543485647,-0.04083514625118233,-0.27661778390825914,-0.1069819851395533,-0.13665973440561502,0.39353844741020727,-0.7729494952729672,0.05984355228852427,0.17868517915486576,-0.3057615340615989,0.0077775364229574415,-0.25187008162721464,0.30566642910410036,-0.002509611073162724,-0.07746061890058044],[-0.14094900270691219,0.2375543169114165,-0.2990388491652406,0.4160523855588311,0.1040691394878318,0.005970378273253695,-0.09864109518725388,-0.30245882047234984,0.7558370638493186,0.031016449649576852,0.7460979668981869,0.18583453012784157,-0.06683218205191978,-0.5347324194908352,-0.013002212264116632,-0.47208811593294],[0.06176076626335878,0.003015284317050698,0.09779685288553173,0.05695391941045154,-0.36031910336537615,-0.08192429776767872,0.27866407834703677,-0.3202237973915595,-0.17392403775005533,-0.15281011876347106,-0.2964020989780656,0.2792825081914153,-0.165198655757501,-0.3165955060290905,-0.3295552804499103,-0.17185780128195402],[-0.005878753923511147,-0.22361507650168838,0.16425432787847144,-0.4456626980227325,-0.1129875596254738,-0.1901589205835823,-0.02555562964618989,-0.12675962757497447,0.22921599836529624,-0.1993175498042113,-0.18866937435742806,0.6595437182146283,-0.07948687213547909,-0.3304041320190227,-0.09780914979073604,-0.01628075374381926]],"l0.wo":[[-0.03451181723348519,-0.258334685332047,0.38635840625367734,-0.3644710436180481,-0.04857318902681189,-0.0353506942851214,-0.4891490001002466,0.06441229071167122,0.5850510505354821,0.09084650800269359,0.26404989691149844,-0.2872444065182544,0.38838275922494875,-0.18622554014483336,-0.06508973509832952,-0.08152878339891947],[-0.5343533661601424,-0.04549450829753237,-0.2606805822484632,0.5403239919893268,0.43864018074105393,-0.36631189306681816,-0.17980106133032567,0.5954602624356988,-0.5672054775350046,0.012241579894107917,0.11074136486124972,-0.27690582305102723,0.05050641740385009,-0.026476878362432774,-0.2101829817442394,-0.5104100194273111],[-0.44527894523476114,-0.46919168814339607,0.05715812209203523,0.2853906367255393,-0.12962465774886034,0.17816657829946694,0.07014960467873635,-0.12970778686616488,-0.40839563633219345,-0.2050907245143074,0.2884761614487023,0.16078527157442027,0.19717056395717752,0.24413524836887346,-0.3744003142483825,-0.19714873579561107],[-0.23205811842190385,-0.25231882924988447,-0.006991553223265935,0.03279599344602096,0.11693087307622434,-0.04791090257674398,0.16904581208524866,-0.058011057067398855,-0.34757829629023124,0.6177837797991177,-0.2192633738022257,-0.2701764168652674,-0.23923404677900903,0.5399082964763634,-0.007924984743775246,0.10661038528243007],[-0.14528738109175077,0.2131240341191265,-0.18897896678285167,0.059305278130327044,-0.13791708547738155,0.2170974070622627,0.28923491752827224,0.15676955913705423,-0.015344389084365603,-0.0628727172436893,-0.0447724123205781,-0.34333613405908614,-0.3628605118864141,0.20368772098676188,-0.184083583156341,0.06611217580845366],[0.03458120023729615,0.6293519820666725,-0.3748136920285518,0.06859436927910398,-0.36745912908601647,0.4204421320315122,0.14508351256007815,-0.2458598132661295,0.11938756558883185,0.11548421042165188,-0.27690031087991396,-0.34157607895083114,-0.33864437560499805,-0.8876939673059693,-0.20304118270113328,-0.00772711941329048],[0.257215044196131,-0.15017296108369427,0.33256846835612996,-0.5788564615512098,0.1030294962886493,-0.16941721936386384,0.39076204972213263,-0.24494645635522855,-0.4414272120068267,-0.5067485073080142,0.029263684604926555,-0.2560723699385931,0.27753893109226957,-0.5029577099385383,0.11138011627831516,0.1498199700799396],[0.2631281032251689,0.2957731339534524,-0.333617373279044,0.31410009982603826,0.4364254711432657,-0.12184801758007109,-0.16503182357171836,0.1293976859970474,-0.21528999782285363,-0.33468285535748277,0.12001886236885112,0.35587846061878253,-0.519744306249103,-0.20889936747824872,-0.5534653584121912,-0.21055517263764711],[0.44821250826313136,0.48601739954510503,-0.23139968882693407,-0.2425712120024675,0.07033645882438536,0.24886891469032935,0.4125679908388202,0.20591800490701478,-0.32191100372947395,-0.24601620278466976,-0.12287336883745481,-0.09365840573634067,-0.0014773660002062473,0.4247112897662087,-0.2296068549950324,0.25403388359707074],[-0.28382746261992803,-0.3630007657035946,0.24475500806452483,0.20173358738218697,0.24066582813402615,-0.03224254330766274,-0.1215182646782099,0.08016453105676094,0.1803768787151488,-0.11402518218103622,0.5060651524231513,0.13989613689227925,0.2991497447899021,-0.06557532978239536,-0.08859666560764261,0.12436618985619395],[-0.10233787238511734,-0.24326442402733298,0.06172311091398682,-0.15341922440663014,0.06104469438815067,-0.26526622977209857,-0.0262352168255722,0.13833672636741323,0.07550381319374473,-0.014306781142028255,0.2605216723303934,0.007852065708011105,0.05712508098430309,0.176734401055019,0.17801808130001198,0.3285747031426573],[-0.2934459348930829,0.1377963600430931,-0.40364223503369934,0.10314612369042307,-0.25878407389083524,0.09625806047930688,-0.06099515378813291,-0.16334036872711885,0.029615379594242527,-0.06066843495080646,0.25899207107298666,-0.0663549226843145,0.20030583401141233,-0.10836814102591648,-0.16500377981120964,-0.06715591146931969],[0.01166099470394939,0.20829234302278388,-0.07051313638311718,-0.05681768645912522,0.09014998718123911,0.1028181069092778,-0.008434356557975163,0.18515792804855313,0.06694329392338375,-0.11631891519423265,-0.18886715598067622,-0.06119783869500681,0.12575681281372805,-0.31354226552104875,0.03339273272938102,0.5124233035222521],[-0.042328728783842966,-0.050239485043300475,0.0692315065155456,0.1054469044303845,0.13947600282160655,-0.126445466439819,0.08532231372469105,-0.26741223282412985,0.11357462746620167,0.382809602969103,-0.16949480502474282,0.12388645913197266,-0.12152533833696738,0.34537819200577524,-0.1402231292274866,-0.16810895229071693],[0.25664230226899026,0.039608215612011805,-0.16290567014321553,-0.42414965159676615,-0.08738285916796694,0.47947598818038994,0.40545333777963943,-0.40838388780834295,0.24482151941900696,-0.1958836669595605,-0.1295728021370414,0.1802169573593904,0.08060945714644693,-0.018848451611672246,0.3021720157007684,0.26419905576923125],[0.0929213588084988,0.40862101180781885,-0.17964809791237057,0.31413117769433113,0.16820573970395072,-0.023681500468741193,0.07320702814801121,-0.19266339709455746,-0.10451348273429249,-0.4308797806698489,0.14086939708997798,0.25936349795631736,0.001183188600070267,-0.023816940207586165,-0.17450915622936974,-0.15995205908771448]],"l0.fc1":[[-0.1597586535330913,0.277242150554709,0.15362425948107503,-0.13500279221195746,0.22304351531828767,0.11895463711382023,0.07347844112801533,-0.06849574830749693,0.19309323923373858,0.3868975830518851,-0.14263070224410815,-0.07342889762924686,-0.30474394898430734,-0.46928802413563453,-0.040353608481924305,0.017768326894031357],[0.2210671463835191,-0.3692178031764407,-0.37974768683568766,0.2562043717997681,-0.14990847773003957,0.40257345833612135,-0.4997044737441989,0.46312321253822347,-0.014381595891472776,-0.28669590813996415,0.4780700075927392,0.3065745443895353,0.04849937158915168,0.006789602997656558,0.287398900721129,0.016859632627288172],[-0.11221007399070804,-0.028817550466390597,0.08692062876718835,-0.6298064351699628,0.39451579522252744,0.20079451829180156,0.10477834303012139,0.29463029253073036,0.29016447330224265,-0.2726429168968399,-0.05067166231468523,-0.13548866203106535,0.2466554119993815,0.1302255587045977,-0.31027127574218893,0.2822527867490377],[0.004135333614232803,-0.025673084740417153,-0.008780440034742997,-0.17779169012354268,0.1549914266712891,0.04269042989394037,-0.7263345874775744,-0.10954980423035177,0.09912253433855597,0.23056436947508743,-0.0015371176894931316,-0.25788447656113106,0.055812082366645484,0.20427591899940575,-0.07126215647178051,-0.27827693197251946],[0.22532529408741353,-0.04459469017141473,-0.02257635944750591,0.44853627558657294,-0.017116861568250322,0.09010379310251734,-0.25695320018969636,0.46537283013969943,0.25884719149624447,0.1386291178792448,0.06669739324747602,0.17559449946528644,0.345896770362479,0.3374802345599567,0.08039197396670986,0.7261730165024083],[-0.23361774095955443,0.008650016041479115,0.06253034511440558,-0.02045068041986489,0.2927890673398957,-0.3623598988153596,-0.44503851802114663,0.14497897549646224,0.07034445929735483,-0.07018341353845746,-0.5117086814420682,0.37143772042824075,0.1710203605941059,0.11736511747752726,0.17333624361617603,-0.25166038160171045],[-0.13560283347604524,0.16842683042305054,0.2585440648864183,-0.06676296151943992,-0.24465623437935158,0.2540076017841744,0.25573987778209106,0.2335432382907354,0.12793690757803494,-0.24604680242121146,0.3470794322274472,-0.042384390388842536,-0.29260138152616294,-0.289721755758607,-0.2801605119240495,-0.323385685177602],[-0.34946611102050523,-0.22586351638739752,-0.01848452520628222,-0.2596696848484278,0.044425970418751806,0.03332360477346736,0.2451424116892769,0.21612403431471972,0.08207493913694072,0.3642078910992449,-0.37679116555827347,0.26770171232292905,0.037358687764743825,-0.2235961319796226,0.33135008391278553,0.11853871066867083],[0.04955813352017421,-0.1457863788188735,0.22121013766349,0.0841400892895894,0.22845999600108868,-0.008777920169031816,0.1644423086475051,0.23247352847164265,0.6647062402293556,0.11617722525321039,-0.2131009872993535,0.12333649125381486,0.3004044608030553,0.06119272454446154,0.6693838413976863,-0.1307250007014732],[0.16142661013317983,0.07498404996544841,-0.020490177600788403,0.008578556212635362,-0.08097423078505915,-0.36134506664687005,-0.10791130814698388,0.05481161064430127,0.48181010978356803,-0.07059045660254458,-0.16990584025916133,0.2528926878579583,0.13715988530801035,0.17761764857636564,-0.0032820737164679587,0.3505680676905275],[-0.3124051438680465,0.26124312843226677,-0.27081170994940607,-0.02974774963394571,0.16830143679158371,-0.06633025488012492,0.042467929467709636,0.38520523361453496,0.24060011874553813,-0.06589567467605477,0.07245228136085179,-0.25380624785448436,-0.14079428697040838,0.17300606868166324,0.4464509422175209,-0.09176999797022846],[-0.13727786983982082,-0.22987210216260515,-0.2592247015348831,0.08431185565439007,-0.004179258312645285,0.21169585909727423,-0.08758200742679426,0.18991880839302294,-0.014384694584646786,0.026343805016223226,0.14244360413104476,0.20456902502070173,0.07596084289212345,-0.002387347117557006,-0.3792441656291711,-0.1601030568612299],[-0.0899237447868193,-0.10298593828312369,-0.009902495472130455,-0.3650742153908967,0.03232468093457615,0.10835954001502157,-0.6812206958338981,0.3251866953353945,0.2591037691490317,-0.14048262032499267,-0.22677356701024726,-0.2987968834176788,0.07095850693802613,-0.10792318036698158,-0.11509376222537812,0.27623476642475475],[0.3768016229022858,-0.05484529067757607,0.04918063799323967,-0.4292297450690211,-0.22118011996979617,0.28990671450975625,-0.1973966159061315,0.12363945949961408,-0.2795821774164589,-0.04177755024630152,0.001608593753714867,-0.12795144848131376,-0.2794966837829053,-0.5648691428757829,-0.16369456668694576,0.43380991117757484],[0.3421288047779222,-0.10700759550180643,-0.3013446452124908,-0.44109819427760055,-0.36247678159015145,0.14758257944557734,