{"config":{"n_embd":32,"n_head":4,"n_layer":2,"block_size":32,"vocab_size":1371,"head_dim":8},"tokenizer":{"vocab":["!","#","$","&","'","(",")","*",",","-",".","/","00","000000000898684","000000049","0000001MASON","0000WARSAW","00026476","00036","001","00131359","002","00362517255","00517532","00573840","00WARSAW","012919","0155648900","0200448900","0207577","0209154","022819","028","03","031","032","032919","0337","035","036","0420776700","0430","043019","0485","05166","05505","060319","06139","06462","065101004276","06684","06737","06a4b6952","070608010902","071402000635","0828","083444004604","0998","0C6758Z53","0I5L77443","0aea0c857","1","1004","1007","101","101025","10446059932","10468083875","10525272490","10676201228","111","1161","1201","1226","124","13","1304","131520002703","1419","1425","1442","146","15","151","152","153","154","155","156","157","158","1615","1630","172309001918","1729210904","1729229550","1740","1746","1804","184502026402","1869","19","190506","190701","190802","190815","191208","191209","191213","191218","1949","1972","1ST","1X","2","20","200204","200305","200312","200614","200616","200708","200724","200727","200813","200820","200823","2009","200904","200IK0FG2","201028","201203","201204","201205","201224","2019","2020","203","2045","206721J52","207IJ8CB1","212","2121","2136","22","2289","2292","2457","2467","2535","256","260","2648","266","267","2677","269","27209881898","2732","278","283T258R2","2840L2UN1","2973","2999","2T37A34U1","3","301928","31","310","3196","32195","322","33","3312","3442","347963","348346","3554","37","372","38","3894","397","398","4","4029357733","402W03JL3","404314798","405","419","422","4257","4356","44047","44057","448","45010519","4557","4740","48266993","485","4968","4983","4OH10","4V6GO6QH3","5","5025","51461273","51461291","51500333","517","52064629","52232085","52529893","53147727","53202125","53202131","53532654","53532657","5397","54146428","54146434","54420676","54520917","54851017","55","55030526","5514855","55286654","5703","574","5N8FH1ID3","5WARSAW","5a1851b44","5dc2fb461","60541220102","6116","616141","62038","6252","6307","6313","6313FORT","643","648","6542","6729","6857","689KE9G33","7","7070","716","75fa0157a","7600","77","783","789","7PM","8","800","8004","8005426632B19021","8005426632B19050","8005426632B19078","8005426632B19109","8005426632B19140","8005426632B19170","8005426632B19200","8005426632B19231","8005426632B19262","8005426632B19294","8005426632B19323","8005426632B19353","8005426632B20020","8005426632B20050","8005426632B20079","8005426632B20111","8005426632B20140","8005426632B20171","8005426632B20202","8005426632B20232","8005426632B20265","8005426632B20293","8005426632B20324","8005426632B20356","8008","8009666546","816","820a506a2","82eb5b1f3","839","8411242698","8441177569","8444761140","8507619052","866","8666","8674558RICKERS","8674616COLISEUM","8674616COLISEUMPEFORT","872","8726481GOOD","877","8833196RICKERS","888","8PM","9230348443","9251","936","95","9521679892","9544","955","9560","9596136328","9681","973","98","99","9975787948","9X2BC5263",":",";","A","ACH","ADM","ADV","ADVNTRE","AEP","AF","AF1D86PT3","AGENCY","AIRLINES","AIRPORT","ALDI","AMAZON","AMC","AMER","AMERIC","AMERICA","AMERICAN","AMERICAN00106459628170","AMERICDIRECT","AMEX","AMZN","AN","AND","ANNE","ANTH","AOTAX","APPFOLIO","AR","ARBYS","ARULRAJ","ASSOC","AT","ATM","AUG","AUNTIE","AURORA","AUTH","AUTO","AUTOREPLENI","AV","AVI","AVIS","AW","AYRES","Aadhya","Account","Air","Alcohol","Amazon","America","Amusement","Auto","B","BA","BAAN","BAEKGAARD","BANK","BARGAIN","BELLEVUE","BENEFIT","BI","BILL","BIOMET","BIRYANI","BJ8MN3XK3","BK","BKG","BLM","BLUE","BLVD","BMV","BOLINGBROOK","BONUS","BOUGHT","BOUTIQUE","BP","BRADLEY","BREHANY","BROTHERS","BUFFET","BURCHECK","BURGER","BURLINGTON","BURLNGTON","BUYCRASH","BWW","Babysitter","Bank","Banking","Bars","Benefits","Bill","Bonus","Books","Business","Buy","CA","CAFE","CANYON","CAPGEMINI","CAPITAL","CAPITALONE","CAR","CARD","CARE","CASA","CASH","CASHBACK","CASHREWARD","CASTLE","CASTLETON","CAVE","CCDW","CENLAR","CENTER","CENTRAL","CH","CHARGE","CHASE","CHECK","CHEVRON","CHG","CHIC","CHICAGO","CHILDRENS","CHIROPRACTIC","CHOCOLATE","CI","CINEMA","CIRCUS","CIT","CITGO","CITI","CITY","CITYIN","CKF0","CLUB","CLYDE","CNTRL","CO","COCOLINI","COFFEE","COFFWINONA","COL","COLLECTIBLE","COLLISION","COLUMBIA","COM","COMCAST","COME","COMMUNITY","CONSERVAN","COOK","COSTCO","COX","CPPWDRAWAL","CRDACH","CREAM","CREDIT","CS","CT","CTS","CURRY","CVS","CYN","Camera","Canterbury","Car","Card","Care","Cash","Certification","Charge","Charges","Charity","Chase","Check","Clips","Clothing","Club","Coffee","Conf","Credit","D","DC","DEBIT","DEP","DEP190115","DEP190131","DEP190215","DEP190228","DEP190315","DEP190329","DEP190415","DEP190430","DEP190515","DEP190531","DEP190614","DEP190628","DEP190715","DEP190731","DEP190815","DEP190830","DEP191015","DEP191031","DEP191115","DEP191129","DEP191213","DEP191231","DEP200115","DEP200131","DEP200214","DEP200228","DEP200313","DEP200331","DEP200415","DEP200430","DEP200515","DEP200529","DEP200615","DEP200630","DEP200715","DEP200731","DEP200814","DEP200831","DEP200915","DEP200930","DEP201015","DEP201030","DEP201113","DEP201130","DEP201215","DEP201231","DEPOSIT","DEPOT","DEPT","DES","DESK","DF6PB4AR3","DFT010220","DFT013120","DFT022420","DFT030220","DFT040120","DFT050420","DFT060120","DFT062719","DFT070120","DFT072220","DFT072720","DFT072820","DFT072919","DFT080320","DFT082820","DFT090120","DFT092220","DFT093019","DFT100120","DFT102820","DFT103019","DFT110220","DFT112320","DFT112619","DFT120120","DFT123119","DIGITAL","DIRECT","DISCOVER","DISNEYPLUS","DOLLAR","DOM","DOMESTIC","DOMINO","DOMINOS","DON","DOR","DOSA","DR70B8PC3","DUNKIN","DVDs","Dance","Day","Daycare","Deposit","Di","Dining","DisneyPLUS","Dividend","Divine","Doctor","Dominos","Donations","Drive","E","EARNED","EBAY","EBAYXXXXXX7733","ECO","EDUCATION617","EGENCIA","EGENFEE","ELECT","ELECTRONIC","ELEVEN","ENTERPRISES","EPAYMENT","ESHIPGLOBAL","ESSENTIALS","EVENTCORE","EXC","EXCALIBUR","EXPRESS","EXT","EXXONMOBIL","Education","Egg","Electricity","Electronic","Entertainment","Expenses","Ext","F","FACT","FALLS","FALLSN","FALLSNY","FAMILYGUARD","FCU","FEE","FID","FIN","FINANCIAL","FINE","FIRE","FISHERS","FL","FLORIDA","FMSC","FOLLOW","FOODS","FOOT","FORT","FOX","FRANCISC","FREIGHT","FRESH","FRONT","FRONTIER","FSPAY20200","FSPAY20201","FT","FU","FUEL","FUN","Face","Farewell","Fast","Federal","Fee","Fees","Finance","Fireworks","Fish","Fitness","Food","Free","From","Ft","Funds","Furnishings","G","GAS","GATE","GEICO","GENERAL15525","GERBER","GLASS","GLOBAL","GO","GODAVARI","GOFUNDME","GOODYEAR","GOOGLE","GOSSIP","GOVINDAR","GOVINDARA","GOVINDARAJAN","GOWARSAW","GRADUATE","GRAND","GRILLE","GRNDCYNASSN","GROC","GROCERY","GUIDE","Garden","Gas","Gift","Gifts","Gr","Great","GreenWEB","Groceries","Gym","H","HALAL","HARBOR","HARMON","HARVARDBUS","HAUL","HELP","HERB","HERSHEYS","HIGH","HINDU","HK","HOLE","HOME","HONDA","HOUSE","HSBCBK","HTL","HURRICANE","HUT","Hair","Health","Hippo","Home","Hotel","I","I000","IAT","IC","ICE","ICI","ICON","ID","II","IKEA","IL","IN","IN102","IN116","INC","INDI","INDIA","INDIAN","INDIANA","INDIANAPOLIS","INDN","INN","INQ","INST","INSTACART","INSURANCE","INTAX","INTEREST","INTERNATIONAL","INTERNET","IPFW","IRS","IRVING","IS","IT40","ITALIANOFORT","ITELLER","IXL","Improvement","Inc","Income","Insurance","Interest","Internet","J","J07Y74Z63","JAMISON","JCPENNEY","JG81C0WD3","JLINGHUI","JOSEPH","JOYNER","JPMORGAN","JPMorgan","JUL","JUN","KALAHARI","KELAINEYS","KENMORE","KING","KINGS","KIOSK","KIRKLAND","KITCHEN","KOHL","KOHLS","KOSCIUSKO","KROGER","KUNG","LABS","LAKE","LANSI","LARW","LAS","LASSUS","LEARNING","LIGHT","LINE","LLC","LN","LOAN","LOCKBOX","LOT","LOWE","LTD","LUFTHANSA0000000000146","LUnch","LV","LYCAMOBILE","LYFT","Lawn","Lunch","M","M22KL6282","M40ZZ84Y1","M45Z15PD2","M491S0PW0","M74AI20Y0","M75LR1YS1","M75XF0GL1","MA","MACON","MACYS","MALLERS","MANAGEMEN","MANDALAY","MANDLA","MARATHON","MARFORT","MARHABA","MARKE","MARKET","MARKETPLACE","MART","MARTIN","MAVERIK","MAY","MB","MC","MCALISTER","MCCLURE","MEATS","MEDPRO","MEIJER","MEMBERSHIP","MENARDS","METH","MF23X85P1","MF5L66KU0","MF6U02J72","MF7AR8TY1","MF8DO4TT1","MI","MIDWAY","MILAAP","MINIMUM","MJ9KE2LH0","MK03F5CC2","MKTP","MM0HJ8MJ1","MM1WJ2U71","MM2UT8SV2","MM59H3JX2","MM5FR8SY2","MM9JM7KU2","MOBILE","MONEY","MONEYLINE","MOVER","MOVING","MPHASIS","MS8LT7M52","MU2KB6TQ2","MURPHY6726ATWALMART","MV3TK2AY1","MV4EA1VU0","MV6UM7IG2","MY73519M1","MYP","Mango","Mattress","Milk","Misc","Mktp","Mobile","Monitor","Mortgage","Movies","N","NA","NAME","NAPERVILLE","NAVY","NAWAAR","NET","NETFLIX","NEVADA","NEW","NIAGARA","NIPSCO","NON","NP","NV","NY","Naidu","OF","OH","OIL","OLD","OLLIES","ON","ONBOARD","ONE","ONEWARSAWIN","ONLINE","ONLINEPAY","OR","ORCHARD","ORCHARDS","ORDER","ORG","ORIG","ORPBOCA","OS","OSLO","OUTLET","Offer","Office","Online","Other","P","P2P","P365K52P3","P63XN80K3","PA","PAGE","PAIGES","PALACE","PANDA","PATEL","PAY","PAYMENT","PAYMNT","PAYOUT","PAYPAL","PAYROLL","PEKING","PETRO","PETRO117036","PETRO158840","PETRO175182","PETRO180182FORT","PETRO250571","PETRO255471","PETRO57034","PETROLEUM","PHAR","PHARMACY","PHIL","PHILADELPHIA","PHOENIX","PHYS","PHYSICIANS","PI","PIERCETON","PILOT","PIZZA","PMI","PMT","PMTS","PO","POPMONEY","POS5","POSTAL","POT","PP","PREARRANGE","PRIDE","PRIVACYCOM","PROPERTY","PURDUE","PWR","PY6T87223","PYMT","Paid","Pajamas","Pan","Park","Parking","Parts","Party","Pay","Paycheck","Payment","Personal","Pharmacy","Phone","Pizza","Prepayment","Promotion","Q01","Q07","QDOBA","QFORT","QUALITY","QuickPay","R","R05GK3HE3","RAIL","RAJESH","RATON","RAVI","RECEIVER","RED","REDEMPTION","REEF","REF","REFUND","REMARKABLE","RENT","REPLEN","RESERVATION","RESIDENTIAL","RESORT","RESTAURANT","RETAIL","RETURNED","REWARD","REWARDS","RIDE","RIFAAH","RIM","RO6BQ5DW3","ROANOKE","ROBINHOOD","ROCK","ROLL","ROLLER","ROYAL","RQ2NX7OH3","Range","Received","Redemption","Registration","Reimbursement","Rent","Rental","Restaurants","S","S02G006T3","S706D4S03","SAINT","SALESFORCE","SALSA","SAM","SAMS","SAMSCLUB","SAN","SARAGA","SAV","SBI","SC","SCHA","SCHAUMBURG","SCHOOL","SCIENCE","SCOTT","SE","SE2","SELFPARK","SERVICE","SG","SHARK","SHEET","SHELL","SHOP","SIMPLYAD","SIZZLING","SOURCE","SOUTH","SOUTHERN","SP","SPA","SPEEDWAY","SPICE","SPIRIT","SQ","SRI","SRV","SSA","SSIS","STAR","STARBUCKS","STATE","STATEMENT","STE","STOP","STORAGE","STORE","STORES","STORES872","STRS","SUBSCRIPTION","SUBWAY","SULEKHA","SUNOCO","SUNRISE","SUPER","SUPERCENTER","SUPERCENTERFORT","SUPERCENTERWARSAW","SUPPLY","SV","SVC","SWAT","Sam","Service","Services","Shipping","Shopping","Shops","Snacks","Sofa","Spending","Stay","Supplies","T","TABLEAU","TARGET","TAX","TEMPLE","THAI","THANK","THE","THEATER","THECHILDRENSPLACE","THU","THYME","TIME","TKTS","TM","TO","TOLLWAY","TONAWANDA","TOOLS","TRAN","TRANSFER","TRAVEL","TRAVELERS","TREAS","TREE","TRIP","TRNSFR","TRNSFR190719","TRNSFR190722","TRNSFR200204","TRNSFR200207","TRNSFR200228","TRNSFR200310","TRNSFR200430","TRNSFR200617","TRNSFR200722","TRNSFR200727","TRNSFR200820","TRNSFR200908","TRNSFR201015","TRNSFR201019","TRNSFR201028","TRNSFR201124","TST","TX","Tax","Taxes","Taxi","Thank","Toy","Toys","Transfer","Transport","Travel","Trnsfr201230","Tuition","U","U88EP6PI3","UBER","UDIPI","UH74V1R73","UMC","UNITED","UNUM","URGENT","US","US4QW8XV3","USA","USATAXPYMT","USATAXPYMT071020","USCIS","USPS","UT","UTIL","UTILITY","Uncategorized","Utilities","V","VALPARAISO","VEGAS","VENKATESWARA","VERA","VERKAMPS","VIA","VOICE","W","W052","W066","W176","W243","W381","W569","W724","W739","W761","W791","WA","WAL","WALMART","WAN","WANATAH","WANNAR","WARRANTY","WARS","WARSAW","WARSAWCSFOODSERVICE","WASHINGT","WAY","WAYFAIR","WAYN","WAYNE","WEB","WEBULL","WEBXFR","WEBXFRTRANSFER","WELCOME","WENDYS","WEST","WHSE","WINDS","WINONA","WIRE","WITH","WITHDRAW","WITHDRAWAL","WM","WOODCLAYPOOL","WORLD","WPY","WT2JN0Q43","WW15J7IZ3","WWW","WYZE","Waste","Water","Wayne","Web","Webull","Withdrawal","Wyze","X21","X32","X38","XFER","XFINITY","XXX","XXX6481GOOD","XXX7958","XXXX1993","XXXXX0001","XXXXX3266","XXXXXX0905","XXXXXX3239","XXXXXX3400","XXXXXX5006FORT","XXXXXX7733","XXXXXX9550","XXXXXXX0937","XXXXXXX5405","XXXXXXXX1796","XXXXXXXX2931","XXXXXXXX3772","XXXXXXXX6494","XXXXXXXX9255","Y98LU6DF3","YEXIGAN","YM","YMCA","YOU","YOUR","You","Z","ZELLE","ZIMMER","Zelle","amp","and","as","at","buffet","c65ffb06b","card","carters","check","chicken","com","e33967bca","e794a1047","ending","extender","farm","fee","fitness","for","from","in","masks","of","payment","pickle","range","refund","registartion","returns","s","supplies","t","to","tracker","with","|"],"BOS":1370},"labels":["ATM Fee","Air Travel","Alcohol & Bars","Amusement","Auto & Transport","Auto Insurance","Auto Payment","BMV","Babysitter & Daycare","Banking Fee","Bonus","Books & Supplies","Business Services","Buy","Cash Expenses","Charity","Check","Clothing","Coffee Shops","Credit Card Payment","Dance","Day Care","Divine and Donations","Doctor","Education","Electricity","Electricity & Gas","Entertainment","Fast Food","Federal Tax","Fees & Charges","Finance Charge","Food & Dining","Furnishings","Gas","Gifts & Donations","Groceries","Gym","Hair","Health & Fitness","Home","Home Improvement","Home Services","Home Supplies","Hotel","Income","Insurance","Insurance refund from Hippo","Interest Income","Internet","Lawn & Garden","Misc","Mobile Phone","Mortgage & Rent","Movies & DVDs","Naidu Gift","Office Supplies","Parking","Party & Farewell","Pay Benefits","Paycheck","Personal Care","Pharmacy","Phone","Prepayment","Registration","Reimbursement","Rent & Utilities","Rental Car & Taxi","Restaurants","Service & Parts","Shipping","Shopping","Snacks","Taxes","Toy for Aadhya","Toys","Transfer","Transfer for Cash Spending","Travel","Travel and Stay","Tuition","USCIS","Uncategorized","Utilities","Waste Water","Water","Webull"],"weights":{"wte":[[0.17631321327020316,0.018500322329984675,0.1923630163225913,0.2368331997820195,0.05483259104544543,-0.11015809530552127,0.21407754185000621,-0.1484666717631422,-0.16811106173229146,-0.2563728087170662,-0.252765779586832,-0.11509596295205946,0.20831234197784818,-0.06486856401238057,-0.2272942834965285,0.12650989786351416,-0.14324921277498115,-0.036299875978486655,0.03050182427690117,-0.015926245663906918,-0.06452233867093672,-0.10395544927940445,-0.06743054146776634,-0.2885970901333417,-0.03589832528869096,0.08862835956280632,-0.2308250519923889,-0.0382513406578746,0.0843352673995697,-0.14894487452300378,-0.11185922882671225,0.0316819059105474],[-0.05842870750629814,-0.03516029909603579,0.0735110029414008,-0.06283763644367957,-0.09955877425895351,-0.306007181162924,-0.05876257690991419,0.2139543812062041,0.19072000055918173,0.08088357678730163,0.0628119388227291,0.1381010659294452,-0.1230745770376679,-0.1541812785095115,-0.09864668442658785,0.19791810124571088,0.2275604015575964,-0.06629884288958478,0.061890228699328476,-0.29434563210614967,-0.02919992530191373,0.10012930110716439,0.2009504973573548,0.4189142459228688,-0.1503456488190933,0.018550546541283245,0.0081116084640661,0.21176768057745063,-0.23267272279134055,0.19750642578617505,-0.25509430192326915,0.024848011228427436],[-0.034827605155192454,0.009209696796147235,0.02728761052461484,-0.02290136196955915,0.04953765942808789,0.033254571043283145,-0.02099321366063561,0.23236259107486873,0.09366162780365493,0.04091738020521444,-0.10300147521523095,0.1722487215932157,-0.0948090063432124,-0.12385425007463777,0.07432157209134999,-0.19349118472284474,0.08860584961838538,0.07256003651129911,0.008900846587764594,-0.038350282301109866,0.037909142586048244,0.030238562548823317,0.028155014660395473,0.10853281564104703,0.009184325751237177,0.006420542972546202,0.04733880461616273,0.18715977084900634,-0.020802602292842205,0.07926094894834149,-0.014111989782483916,-0.010090338571055839],[0.14798386376416353,0.12087531678435154,-0.26656433404295216,-0.05560965526497342,-0.046346176353726114,-0.11978211754162706,0.20555317678541346,0.15147370100526789,0.18369165968681783,-0.09502565963721923,0.25213553935212485,0.15427193689945215,-0.026711766676149305,-0.04274209158284423,-0.1424420038271573,0.08760064135926837,0.05249691233081715,0.12404731479486072,-0.04875841317739072,0.0785732590996695,0.3133559714140744,-0.11665592361407263,0.036096532798740456,0.32208313535347377,0.1081468372348033,-0.08304075880507354,0.1924959325711878,-0.17098439809787697,0.33582255664458976,0.3124670556133693,-0.1093803114410969,-0.08894092643576774],[-0.26965097711702746,-0.17972659646253375,-0.3249699715170847,-0.18585903995388212,0.12999351520649294,-0.15792465795196872,0.22965246208073536,-0.007480529961047242,-0.2786237471074885,-0.10337861870981448,-0.021992659196843276,0.09895549383939292,0.20883912911064373,0.12406955807664999,0.012304127830064245,0.28532515683295817,2.3558978411286002e-06,-0.016091156166751205,-0.00823664192668082,0.03673143400166299,0.23718243015802593,0.20604400614290733,-0.04067186262917033,-0.014653635937997338,-0.3268261244234409,0.3819691145673618,0.32219697275248416,0.0834181365706897,0.37667070425410987,0.11602104989794398,-0.3941236064038526,0.30715305666242965],[-0.1490850329200642,0.11047249079138885,0.0652109434708875,-0.11100344286522752,0.0259051133085771,-0.04742254410418598,0.0862167771952749,0.18326126779084947,-0.06850898297625284,-0.015117436809309243,0.09500775479193549,-0.03977120583010593,-0.060077668675845505,-0.10187425091507761,0.09444269994174431,-0.01877953214108004,0.15765195153579484,0.2395385617315931,0.04037218454417124,0.23401052728483537,0.13646724393050094,-0.01860532565088961,-0.06921323684484708,0.17846257898262355,-0.060052440560865485,0.06996195331967088,0.0441964955324268,0.03756513990930809,-0.12163639280015827,-0.0501875442522147,-0.02288363476818476,0.15541958218089041],[0.0714266751145717,-0.07356424640820863,-0.011611663364947691,0.11526103455721012,-0.09491499692165245,0.08563370089065345,0.08609427221156293,-0.03126886607923962,0.08134264961712835,0.11441049729904518,0.09754635218542346,-0.0029024221342437147,-0.09569298528101038,-0.21924457582911389,-0.033709725377727,0.0005184330765895196,0.09493732943114139,0.34376857992121335,0.11087695039561393,0.0360194036513484,0.09270922101654348,0.09005824020612896,0.026197441419031877,0.09799330449603554,-0.06314776919331923,-0.11138265385106436,-0.017075337907482436,0.06678252688937847,0.1502126045419724,-0.10390620288815693,0.14964353447856585,-0.22347062102307036],[-0.1635604880189317,0.24233354064342744,-0.174118225113697,-0.0777120760476101,-0.3837519806589108,-0.038684488948285876,0.005121184255699901,0.23249043767868352,0.11648219531849388,-0.13183770462312153,0.4080357947260758,0.27750222104701067,-0.16913959785607896,0.11761739862796067,0.1688919818637862,0.1627612898628376,0.045515873577077495,0.19915561019845776,0.08193558944400287,-0.0866203994173652,0.05251514866216852,0.21981490134026135,-0.029954961470967365,0.24089649455153053,-0.02993210932555228,-0.005945631549918531,-0.08115521101876651,0.19633654364884232,0.14810505395829554,0.2316899957343859,-0.08156937294639283,0.31718784519541954],[-0.211062000247839,0.09036735576181093,0.12182004191110311,-0.18079317859029956,-0.21763830143185403,0.09358412930843217,-0.22715586338005894,-0.05209226091293404,-0.010786545864716049,0.0705386673496168,0.23402451582631054,0.08838234195415225,-0.055530974823304,0.017349227658995537,-0.07616739701605466,-0.12820195359162798,-0.11007946566360818,-0.09841735517404321,0.018545014173228132,-0.05315378250212821,-0.04962108684497782,0.02321257899341179,0.12860482084611416,0.12408791898113804,-0.11506069907499857,0.12174799828267148,0.24867533447619397,-0.019319309766527695,-0.11535497726074616,-0.1591367719376303,0.09524393045596499,0.08730577135383755],[-0.007282494692253575,0.03850473881344742,-0.006459502043030501,-0.2925159779387117,-0.16767823574002202,0.1395922883548887,-0.020530695496479623,-0.1605195553558648,0.055238530044396536,-0.04225169532355287,-0.03289778050270356,0.030836044108441003,-0.15585715103866565,-0.22228508933344046,0.1829570399215,0.06369768825877306,0.1521050817571968,0.10770175727984183,0.00040097575878002707,-0.11581617175403998,0.2623049928072492,-0.134788553220071,0.012465956307191167,0.24797043874732552,0.16421859984972403,0.03992652809731144,0.2195158398364199,0.11821910456451275,0.07038031508008061,-0.13354475680858444,0.07975853146614337,0.234348963573314],[-0.19838949034060044,0.02679393215370318,0.027933022707368794,0.07124050189328822,-0.06265246975377828,-0.015122474111914128,0.21852177674450476,0.1244245286516927,0.25786617442670323,0.04958157445527406,-0.23287267021879993,0.1645336550083564,-0.11858376926011643,-0.0688460671648167,0.05392102689621442,-0.13659065542396057,0.0667546465479715,0.2068667574212433,-0.08360656882501726,0.02472647231762413,0.15834136361137208,0.09537588442486596,0.07495551753654779,-0.09379652174081127,-0.11081666069103342,-0.05771816843532757,-0.0486359294022373,-0.167826198660064,-0.2818166536250089,-0.007688965525918144,-0.1822627419126794,0.05681374894248848],[0.024100758944041366,-0.03334412591474776,-0.14565192788102865,-0.2175369720559775,-0.017566201724219615,-0.0038593108121104556,0.06619281981444775,0.3095714736227526,0.0641211887449797,0.19092847606018867,-0.17753604579931592,0.21080347739021327,0.08185567773066077,-0.0021777557682197356,0.07773633972321828,0.10911385483426579,-0.04609856705690212,-0.15862152149108363,0.09571323481151427,0.0558140454604867,0.26765137897114966,0.08992188808785836,0.18137739607573597,-0.053686000862109576,0.01002622450011632,0.1214837553859233,0.04559062670542416,-0.012611467623281926,-0.10604645635349662,0.009579905445916033,-0.27943894314070045,0.18419170491812314],[-0.11680705941057412,0.06876128544917896,-0.0707273775045226,0.09589270468776753,-0.0024788691246729376,0.03119399855838166,-0.1257437732867156,0.08031395383041617,-0.03474428989355278,0.16297893052620194,0.08108381127850953,0.023042487821023114,-0.09849749629240048,0.011897936739972614,0.08834711573963128,0.0824424307094444,-0.038143769078599725,0.05174075960425474,0.07452394816844794,-0.04741040709841027,0.06549269873449592,0.15623358246357025,-0.01996607927637729,0.09886816861425995,0.09616283974814606,-0.014547582548654594,0.12064071832563125,0.00761408984313417,-0.22104570372744548,0.09596881248912531,0.07821008455617294,0.0036661696896196612],[0.01488777296812683,0.12020922544924603,0.16159054914119222,0.03760483502547938,0.23439795282464615,0.23983790387857967,0.06491607582369124,0.17112985344852033,0.17264339131010328,0.09911649801747528,-0.18385133403944504,-0.010565866979337679,0.10462073666001716,-0.051427664626541914,-0.07837417243615857,-0.2655537393361209,0.09810524841169792,-0.06290926183927897,0.08379010810715519,0.08555890500342436,0.14141473200493931,-0.023110425625508014,-0.1149195275578382,-0.030686139525052468,0.043089002185952435,0.11739703635035459,-0.045879304251287334,0.06900923555610551,-0.18954233647977128,-0.006439053795839353,0.030878796830324042,0.03615492618364467],[-0.13499883616117775,0.006088534901254091,-0.09685430838711273,0.16924144173122907,-0.15904119130266142,0.11933813373529824,0.05151019352035053,-0.031221449349294148,-0.1019054405520689,-0.11003782354416465,0.045319080234358884,-0.18866226360145594,0.06512143160940924,-0.040811334170643816,-0.14717173191216407,-0.0688257909837181,-0.07062229079654794,0.07213988449390064,0.14232083026281733,-0.028103303804647803,-0.010484597302152001,-0.139507843355399,0.008804527444690237,-0.13124569181888013,-0.21559539824551757,0.017368212967012832,0.03913298978946399,-0.10847797973697094,0.020248826500834066,0.10510956613878027,0.33712563899903875,0.1809975464988872],[-0.20138920623301174,-0.19169458101900777,-0.15787230982675027,-0.11229374771367971,-0.22620770638089674,0.033694821025761136,-0.10648392410064483,-0.1449190306819828,0.12312112302370945,0.21940146841807323,-0.13572211013598728,0.18801386082082505,0.17213929317521526,-0.10367744770096332,0.06310388103799253,0.21497354697712173,-0.30289213443759666,0.13725923286388322,-0.22780672424274148,-0.29738977414383394,0.09886815598932433,0.021066825386704357,-0.13753967158584202,0.20932425428839746,0.03480563469939068,-0.14968996210692959,-0.05648280119946361,-0.19084779981129826,0.015291614032754636,-0.12513806073852188,-0.11214378641928423,-0.1996436197732699],[-0.15499369188505183,-0.12836991578938914,-0.09904211801800011,-0.19099926498981978,0.13374240639139368,-0.03479780474184011,0.13450509227862636,-0.1866841334259547,0.0009045426803266038,0.11157532096416016,0.16674844250490914,0.2568256572419948,0.070412654367074,-0.14506809417601219,-0.15290584480448535,0.05340456072349524,-0.09661082954291285,-0.2677075334390699,0.0027629350440101443,-0.06104308042380923,-0.22221903631678064,-0.1596333866823533,0.16464292451958806,0.15993911593747745,-0.2572489465789118,0.2571684410006521,0.06981414361495235,-0.20218820102832039,-0.19489871103058198,-0.18098460817030024,0.30406650522394224,0.24780759476854172],[-0.19372303793105394,-0.07102924240377109,0.08815671396962439,0.07416811798147228,0.10180048626436658,0.013557394858432145,0.08608051105786596,0.0416610527901746,0.014953740720953361,0.027796479119949098,0.1483902421488581,-0.09629898637151044,0.01333531626627711,-0.08366410359134785,-0.03605219761007163,-0.09953137298786237,-0.020238814863506746,0.2234082004200663,0.002841076787686986,0.02873868568048699,0.031548250749169164,-0.08903796486061703,-0.2304989397015671,-0.14373420798547945,-0.08156950727074731,-0.09243527676001023,-0.06074502449080566,0.25767283687653664,0.08586784940801075,-0.08332578555868363,0.13722848411321298,-0.2599144729337628],[-0.005997101853419479,0.07691265893569608,-0.08866378115976523,0.07532997283623935,0.0028542224745699576,-0.02054561981917014,-0.054221821226030135,0.16187260774514864,0.11828724290661284,0.04791097383584863,-0.06415320534149817,-0.03348455753590292,0.03515646897859171,-0.005360697293565373,0.04837787315513195,0.025128305382259672,0.06972639432472326,-0.003702794214923377,0.1279867426182837,-0.012135030278113914,-0.049842290377559266,-0.05142100264267749,0.01679724223052598,0.12321181200601136,0.04594686786263748,-0.058266624982352765,-0.019145024194147903,0.13731382135070705,0.020399435341412055,0.12305108406274279,-0.09243395037569907,-0.018248287781246594],[-0.07035980474749293,0.04142162884224223,-0.003804330122117266,0.07182650145023406,0.03718223145539524,-0.0791794759472507,0.2491934082892606,-0.04789697166880115,-0.1719142164323478,-0.12401832255975458,0.12988107049264092,-0.02872028987137762,-0.10969743792389273,0.006760402313768449,0.04789390471230049,0.09146144294312093,0.13259580127045206,-0.10954735934267804,-0.2686007547125625,-0.04635425197934761,-0.16586788941509137,0.02983024191300054,-0.11458182281393793,0.008884891162307089,-0.22406577214603524,0.08762260254200999,-0.4057180350560814,-0.3289245850400695,0.07631424024201983,0.030152697476091974,-0.05287392376973807,-0.29325558417513836],[-0.07773001390027107,0.022220298632786406,-0.03263109686861549,-0.020615883186787174,0.08474955984849199,0.07003226534214267,-0.11038047193911499,-0.11159352642362318,-0.12975708427027935,-0.045017038959647836,0.14959392002658878,0.003728260553658898,0.07250991200301425,-0.1676698394248516,0.09865808901750199,-0.0847930599143386,0.10547626551343466,0.08706135955838015,-0.09142977148156803,0.07224532626779465,0.04518009404073088,-0.11254800998094677,-0.09693076473127751,-0.14358693652548132,0.021778141228969424,-0.09855678425432414,0.07547997574487354,0.2078141839115333,-0.1340160106127986,-0.016799486230144243,0.2041033191813838,-0.26980824179142154],[-0.14188211938933287,0.02766804008440696,-0.3538818191565583,-0.08823931885968542,-0.1788022810347273,0.0786692448942104,0.0896038816031981,-0.125949923056096,-0.27197874262673216,-0.2155241803876884,0.08927609623627791,0.13362982973093757,-0.13895893611752216,-0.050687276717984155,-0.006598069261305195,0.12247553731902824,0.1960851337669291,-0.1578837496380711,-0.0013552812172497343,-0.05291177056314714,-0.0954570222664889,-0.11442890917833543,0.12108329535243124,-0.3087942400125582,-0.17736448932715862,0.04399854135679665,-0.2458177397313216,-0.19871291001214123,-0.09394165365574529,0.24615985819755803,-0.16851213752498906,-0.14364974975108832],[-0.22043425150443094,0.08059573959965877,-0.011977757270740297,0.04054979200956533,-0.17095718594874457,0.18262713907019418,0.02692349498029621,-0.03658661522044595,0.05352667582505021,-0.03751429676867827,-0.02950620602216084,0.15706749196885186,0.10189553854224769,0.11236603843289807,0.0406470207921396,0.09476350306621456,0.0019108641679705907,-0.0887810763446102,-0.12194461740378633,-0.00480085946209559,-0.028786127683857018,-0.11552422087285165,-0.09716634220368658,0.07080194361359299,0.052011441592272535,-0.11959807924682374,-0.08349261035217373,-0.07873385301084046,-0.002398578108542873,-0.18259809498629867,0.14954471146385076,0.026415073978870024],[0.09219798710974231,0.1191724408625308,0.1363718277846909,0.19498709027658964,-0.04388603335701312,-0.01730257387080278,0.0415353112970478,-0.0021234572484841057,-0.0366269841939413,-0.17581151299342035,-0.0938716392094975,-0.16292505059924098,0.057928149770890655,-0.11608058311514002,-0.18369540362484318,0.014950889801161493,-0.09358211838592034,0.10660610282535259,-0.16429917185169063,0.310233759909714,-0.0830569688988897,-0.07601125923413196,-0.1786870587719935,-0.047831109327039774,-0.02392326351594995,-0.06029430422320591,0.2921762594904434,0.003591545771984636,0.2113287391217349,-0.14211307655355596,0.05551308007359081,0.03464530422355578],[-0.10234378071545011,0.0766312585401827,0.11053873085697086,0.02425958356814873,0.1185160538911586,0.14566456767598118,0.11452249646662604,-0.08122940604867467,-0.13791699943493052,-0.09196546912612258,-0.06424692160712815,-0.01677804350711785,0.0796302329388997,-0.16745113019697513,-0.03894092158743434,-0.03148230165893517,0.11032530674340725,0.023527987235360072,-0.017452744065825265,0.10959416934556016,-0.06562421047047524,-0.1897402778258762,0.09861322747620596,-0.05258053088360923,0.07476126648442004,-0.0478824209132902,-0.00817822676024146,0.036442692773691596,0.067057185827927,-0.007116614113823959,0.06785973005052343,-0.06600092389495875],[0.0006190474631141175,0.03478145243016271,0.07240259114631187,-0.14793858880816813,0.12732062612880618,-0.10575186344346112,0.08078521957624787,-0.16637626963668614,-0.03621259967116898,-0.05683858596993928,0.012267989677410935,0.07324517219816236,0.2514249860610136,0.0797945756897903,-0.03176695853565243,0.011394917354314457,-0.060200318845557814,-0.05522274382016422,-0.15179503985410467,0.017994325755610094,-0.1756312502014336,-0.02497343498459648,0.2600313021370289,-0.04810376006439469,-0.18189760204090544,0.2645229526672878,0.085394604526042,-0.06086016035388212,-0.14192748263906416,-0.1704338784080215,0.022281911218775628,-0.08821202814818149],[-0.014797334514116803,-0.12414729582695808,-0.07043267727062186,0.0831243052155182,0.1853156703548909,-0.14427802824645738,0.019807524283262268,-0.07880490645929189,-0.06591135312955138,-0.009792932462383393,-0.15160009363954335,-0.03047575046567405,0.0753173062661736,0.10135275623507257,-0.04024158780932352,0.2587708615066079,-0.1131063600836347,-0.10465040154099141,-0.11092959721257209,0.01943559401223389,-0.11095343650615574,0.034782539505044,0.05224447662573329,-0.10687148691208986,-0.006327531376984948,0.10002032822243563,-0.10582470809839141,-0.010662728817066378,0.07768365414751058,-0.18550879505962534,0.06271068322894975,0.08147094229479708],[-0.037114087840497405,-0.16654716506717163,0.10701148265697744,0.0618737652446477,-0.021503502063531195,0.20685886421871985,-0.039153657680838394,0.052659159595814006,-0.10477800202310457,-0.05428275847465873,-0.036636155547116654,0.06207997365889877,0.041020816095524236,0.14381733432193886,-8.277590135105896e-05,-0.0224768388997136,0.23675812263974264,-0.07748352618302104,-0.05562387157363586,0.053095107214721,-0.010435561804371551,0.08421630878849219,0.041741058382713546,-0.08606943481157833,0.14463332658421713,0.06705054425786246,0.18915654584657957,0.028826367907406208,0.13086251194074805,-0.03340601662793936,0.07200169241717094,-0.0586345813670513],[-0.13502204997698333,0.040995747192921594,-0.01610622854098998,0.01345430720073422,0.03121964038029517,-0.06445090922920588,0.02816729094639491,0.16313104711554202,0.12818674002527852,-0.05504625105301657,-0.13054288550870063,0.06814091556302536,0.051374269817915943,0.05488446038186922,-0.051822418113420365,0.13567019437983363,-0.008230981396422117,0.028155901678897,0.029873275124939005,-0.009444110108156073,0.16688458012169743,0.10720346163645253,0.009427101083276738,0.07835736286800336,0.20549744637886316,-0.2010562929439691,0.05694069421332237,-0.1428186111782441,0.033827591852392536,-0.04106922319513772,-0.12467845205605482,0.04080345108202498],[0.2063841313494724,0.007695557169144203,-0.12365931779104515,0.21537307133639053,-0.06506652982919207,-0.24757164342325733,0.1245094231838975,-0.1329874794306063,-0.1565221644217127,0.07714180501826658,0.019735029903111687,0.010291931180718408,-0.044811190275495065,0.06246562749326699,-0.028812824157588734,0.031772385515427375,0.09713280164647431,-0.1771275081137211,-0.18920104912819655,-0.016045898589408546,-0.06309254693352206,-0.027880308360369074,-0.05904917188423392,-0.04313767512449583,-0.17806733169076303,0.04231594630365107,-0.058828570720717135,-0.015639643482142144,0.1046171391841073,0.016792619216300934,0.028382720731903302,-0.021338206838242602],[0.14104646134770077,0.005439905483453133,0.0871164120154744,0.13262441102055805,0.055687242400171755,0.21661114363677178,-0.006407100567913606,0.07285127194524857,-0.07301967368443002,-0.21992867072963368,0.1155217823077942,-0.15636871770995833,0.15777292187959716,-0.16474923537455374,-0.13650480398344056,-0.21567864302349854,-0.10016028805361156,-0.11030951144683952,-0.22922242275549318,0.10313901478335452,0.09926811704580915,-0.06452430879168765,-0.18156302346055705,-0.09911272432144211,-0.02742120886397075,-0.17685763095712548,0.10790400844194094,0.13994314144360973,-0.09157462402524182,-0.0879286790515562,0.11357584457109861,-0.2735383492582788],[-0.04274374630179,-0.11801843165432749,-0.025076154309368468,0.05512618935732524,0.21163552663137072,-0.028630814686148504,0.01794584132290655,-0.021721662355019027,0.03824943328675073,-0.00638141323111073,-0.07052778984817427,-0.12057292311658925,0.13068886999104154,0.10094858189771827,0.01820129875340897,0.11489349991084846,0.14470103539041984,-0.10585150107096465,0.14739890127786262,0.10414789746808181,0.11381300001295351,-0.11652097244240527,0.16167216460086958,-0.05261825648745917,-0.10109195743608722,0.03362213800102075,-0.09677833179703241,-0.031961521884758655,0.10957568801683386,-0.12259186002445864,-0.06667419245845194,0.10078182996636266],[0.18713082035940334,0.146779618700707,-0.056774087322622575,-0.033983308580812804,-0.05622464794458484,-0.009799193565324956,-0.024605153145099295,-0.05360353105845703,0.14232565916802037,0.10959315095594267,0.0802171182603782,0.10695879314630814,-0.1525465178149775,-0.20095128241877508,0.1656280089085943,-0.02249314583893304,0.22975839089343889,0.039122687238191116,0.07887188876813131,-0.1345545834941018,0.09036416403178316,0.20377847548299854,0.041209927352817866,0.004474081368629763,0.11531298753971302,0.004486609281397407,-0.012305336494636094,0.11982398409360565,-0.0883438609873688,0.09418821950269084,-0.1503361673983486,-0.056336356494254926],[0.01514070461003421,0.019118082210037458,-0.038070651635249156,-0.12989453654441713,0.025646398627366195,-0.2496068459349216,0.1930548845519653,-0.056486344534108945,0.006303184545952022,-0.18989729592864188,-0.20615980336977954,-0.006678037320673746,-0.13135456120503106,0.10959739562998524,-0.10138823514730952,-0.00024182428359303406,0.06524578656684005,-0.19534975123204135,-0.018697953869990527,-0.13128271976168318,-0.05109933032322313,-0.0043966063324817365,0.20595220813131368,0.11985281672620016,-0.06647964758009946,-0.05706974766479843,0.05666913308898457,0.10390478588606467,-0.0207229516729137,0.055456317965353844,0.06450908539952122,-0.07265904568070247],[0.04114847775128901,0.04085552599501558,0.004218187491406462,-0.015359295416174642,-0.03149227394748315,0.09862617764438825,0.049918588648288166,0.010870095993281571,0.10810542396233284,-0.09633541536590622,0.043220787054043475,0.05935600867130301,-0.0068005296631953455,-0.3173100016292306,0.2727542484140218,-0.07570588182088797,0.20086044895114183,-0.01236775297662571,-0.026470036355999132,-0.16945712042575903,0.05732137774836615,0.26352944823229946,0.06477106460323226,0.110914023947912,0.1700321120457121,-0.042619819150379545,0.05215780217068435,0.1362702747847303,0.10128745735794648,0.09466117670577202,-0.0294032049984389,0.06574701669835868],[0.181281977408681,0.17409726058518998,-0.03451786102013553,-0.17803277588506586,0.04084188448912429,-0.03750171516861063,-0.06347946136738564,0.025396159548641686,0.07612312237288889,0.11642953270878949,0.10839662079960498,0.08455447104044975,0.03676218569357178,-0.05271495594563095,0.06904901764991431,0.03886766711451754,0.03270595764870374,-0.013407977722893169,0.025195166996874192,-0.03722256440524529,0.06270185692935851,0.20053881199537396,0.0742347444362008,0.10060362959493445,0.08088690675927797,-0.091142713872485,-0.002006202004532083,-0.0223393662579785,0.04762593926789357,-0.0030546130271426825,-0.055921744585765716,-0.0879636415902351],[0.013711977567973564,-0.19007641868887004,0.030761152829030948,0.1457364070322346,0.009830308303539512,0.11262154975602505,-0.0009632048777945384,-0.09208391853659958,-0.26712837347918256,0.09862483545268089,-0.16975808442131884,-0.19412062022446971,0.15796156059839583,0.2561833243191131,0.04495640673155727,0.11473844496710577,-0.022427384531685503,0.005250512692989753,0.0041707226296171605,0.014626001131642644,-0.05189885453293333,-0.06891771681106873,-0.12499562395705838,-0.0953838403506433,-0.082105833222984,0.06154499855012942,-0.15032245871871713,-0.1659764897579247,0.0819026987998125,0.05337891189620804,0.005418879300693283,-0.19063840473081645],[-0.049565307526046355,0.17843790519089897,0.0063799673228304874,-0.03377427043679035,0.012700481374176693,0.024972856605309682,-0.08338130672125174,-0.02435317448866211,0.02571811800109905,0.12781706718672436,-0.04104405190502254,0.13119610187573888,-0.07061253368280154,-0.05560164690686357,0.07168331022711606,0.2006725891994349,0.039782400420822504,0.06306697693233705,-0.0938628145892176,0.1368140976858455,0.03686836904890176,0.049450546414576024,0.03241813790766212,0.04452156965046275,-0.2144407054686626,0.08161291803681964,0.003427911036093352,-0.14629962365970883,-0.08720270791740325,0.17447873397021427,-0.12715469204085408,0.14438231368207963],[-0.020765905783315653,0.04399541432635595,-0.1250189700731767,0.11791065069743523,-0.17556865920806627,0.08758758684782303,0.0041887172321393926,0.07776023806850865,0.019838583872313388,0.051153604805724395,0.08020751600536835,0.03963545223449979,-0.01305188401616335,0.11329714074784974,0.030471788469603023,-0.14851793786009773,-0.0861700920856519,0.2807941493191856,-0.08579202646464582,0.04152279307553052,0.19868388789748437,0.04440310398858515,0.11990399244585476,0.2123457496334102,0.056035042740449556,-0.11307569289246573,0.012604809261262194,0.0014751013952678657,-0.11695652708495798,-0.0423934497899646,-0.07113325475385124,0.025200175763799893],[0.10655943396313712,-0.03215295654778374,0.02779065581154885,0.029892492896980646,-0.24606200528962796,0.09718833384571655,0.0849869544196406,-0.03168825015345377,0.18040900165360477,0.049074204947641926,0.03411173399152595,0.09985430843626025,0.020490939924900416,-0.05435580153909681,0.14011386659875427,-0.16111116600378245,0.10101677396591487,-0.0716686411988212,0.019849872823960557,-0.16606733879984995,0.02254784470499435,-0.01035060597031549,0.1448835795276966,0.12251977079661527,-0.05899318586322835,-0.11085055180319676,0.2007243334817838,0.07229033249964374,0.10765046493359433,0.12569298935615814,-0.030638322186287967,0.003980021062745167],[-0.10689719801523409,-0.009039650206532907,0.03696051401218411,0.022781482369006473,-0.06231130194614158,-0.12554545165856315,-0.062152604972732284,0.01815587371232094,-0.10141826821883336,-0.29613558992180505,0.012327095359129845,0.30461877153427047,0.025428602840898127,0.18365776174155996,0.10725167698370641,0.11342939022436728,0.07485810628964937,-0.03691808499538469,0.10813231049037546,-0.02796552548732986,-0.02855739172721625,0.18989722388393532,-0.017852425874125864,-0.08432223759816035,0.018126360407201197,-0.09754017453549463,-0.018089311577799874,0.10965827142112564,0.2112242474161338,0.16150217731504138,0.015269699013023922,0.04367979369262521],[0.23818492688891696,0.11177398485277958,0.08480788507701945,0.021551710985338427,0.03051925679807651,-0.23623892966096438,0.048691449380453146,-0.05198373142326302,-0.11047904522133992,-0.049619262270127897,-0.08468526028506289,-0.049802526327143395,0.11527460858664136,-0.045006982874637995,-0.2216566402853505,0.10366925135483883,-0.16175809661218668,0.011819096672615112,-0.09966130310138743,0.16793081340708596,-0.10802511202321408,0.041253362693195725,-0.061884242594846615,-0.12311254111462501,-0.0057654547357117655,0.09908409099784049,-0.19512261123765226,-0.0971373598150235,0.12658694159804712,-0.09947425861267419,-0.11692263157779356,-0.043110891030624716],[0.13827241364788587,-0.17906704698981454,-0.14598091559037585,0.13838534667956925,-0.045749526583069085,-0.07992593776121701,0.0001998325399017669,-0.20750586981981645,-0.025989027461926318,-0.009836537940047454,-0.10511484892088636,-0.26891636752414194,0.023845201326547313,0.09791820289011036,-0.18245718035781341,0.08595743153059539,-0.07165191327993471,-0.02348102710258349,-0.07184744639254187,-0.006895062716614122,0.03098560465427238,-0.06825453546553914,-0.07736497495212151,-0.14198700485929178,0.011377888344717799,-0.0027143923178307335,-0.08600000361037209,0.07131184611241492,-0.04474205272427429,-0.19554208000852863,0.18042656280455555,-0.08330754702526012],[0.031831045713607946,0.16030644877960332,0.021840959768487062,0.22166804753623726,0.13490900524248042,-0.12287112288430141,0.23854979997215187,-0.12764751777252328,-0.0402187762336719,0.03503615549050041,0.023838978334886823,0.03366001861846153,0.08488906284519576,0.002272599982631381,-0.05870444527766342,0.026954746805961112,0.23378845250488522,0.016332854870387437,-0.11289465664288675,0.08411869337821606,-0.1743460004068709,-0.17049614024750534,0.023488707287226133,-0.152362407190991,-0.13808909167767341,0.1125096358470626,0.12123076226541311,-0.042348536739455656,0.17350342341881128,-0.1374155754329716,-0.20554360220404266,0.018173499017965233],[-0.02271168354588461,-0.017021186532115436,0.09807206217627995,0.08524916074022726,-0.051610850266173236,0.12642138859582072,-0.047201200538665,0.2085778220275332,0.10323754385048932,0.20201165130605606,0.1751333103568223,0.13194537241774476,-0.12244608582793964,0.1733925779129948,0.12362959676192836,0.03213070200643001,-0.13122351865207452,-0.2601825640411413,0.12113229264838259,-0.1362689246000664,0.02547463358403963,0.12058521403565374,0.1899796991991722,0.22082772494404956,0.1091742924987341,-0.17901540118079132,0.09009106589682982,0.13681368623703785,0.035952749048784476,0.21391828294557513,-0.04955806918904871,0.08922858894784802],[-0.016663415537070857,0.0042810104804289805,-0.03152821236501889,-0.20158230839451885,-0.051867998021197445,-0.11636918467899715,0.026295188758442216,0.17008721000102653,0.04342470240240795,0.16367002048486345,0.21815088665900467,0.3113497854991054,0.101713423495597,0.4309539034884135,0.24740359893178643,-0.09130743667639386,-0.09030788215395721,-0.17250660177119287,0.25719312088758334,0.025688031769155323,0.17246186664084237,0.09080612743631747,0.05389162078046679,0.02661337347448154,-0.08006922472688947,0.031047177297041803,0.12946929356710177,0.21065817636206224,-0.26553827087256526,0.02908211105170093,0.10002173713368663,-0.25177975810024084],[0.06485561031760662,-0.06084033505868022,-0.001993909443714901,0.11724925457318912,0.05589393780716101,-0.03202963886872089,-0.002423598473115405,-0.10218735840796547,-0.009156494468663375,-0.09898712558034971,0.07550026751054334,-0.09759607023629166,0.08579915225039783,0.14021970269887266,-0.18154864917730879,-0.0746385658391352,-0.18995963332670357,0.037260763720118495,-0.1253575426004908,0.27136121448970085,-0.10714866724059852,-0.05190821269021637,0.056836051752748105,0.08633921416110318,0.22540897666920354,0.17090291314274536,0.009352090426618045,0.09573205527257918,0.1282035044633508,-0.1082090229656961,-0.12741877032989585,-0.06510853529311145],[-0.01705556063441279,0.06164606975903387,0.003019828374277686,0.04424341224985172,-0.09201287559103254,0.08867012963928815,-0.09415631733111537,0.06269489785351115,-0.03294083785595639,-0.06766479980656749,0.044114837763601505,-0.11986699762820612,0.056689606581568255,-0.054949354132313034,0.012911252810123631,0.07655896041959247,0.21000921557582977,0.05955135608126159,0.08463963929691065,-0.15321384778223546,-0.0029504035026283906,0.0892625969586978,0.2701801807062765,0.06331625493917784,-0.15090901830262665,-0.05465861376504764,0.053733205430861276,-0.13712847727383698,-0.021977440370656035,0.021138175655984935,-0.03835538952446772,-0.014264128043137604],[0.06654842562804371,-0.022019083056207013,-0.07278129154317853,-0.23363343782507526,0.03796537272220208,-0.05588909194499909,0.12203485509188575,-0.12044092914558412,-0.09173417537826672,0.05668629911261683,-0.06715090661426937,-0.0887535553217451,0.07633412824794805,0.10398961179939288,-0.07290438039465941,0.12879692021046713,-0.0880850386461799,-0.05484787530531826,0.014850322087020435,0.055280620184370466,0.023264315567866307,-0.15533342792554183,0.08746074123620422,-0.07981468366944297,-0.04713057920650987,-0.032913245877645804,-0.18788628485104752,-0.08313732501276284,0.1401495014085624,0.004970787182755384,-0.1699942563981378,0.04895070623450721],[-0.06008840372919236,0.013435691195142986,0.1090080903246221,-0.012173093404164314,0.08961694616576076,-0.2295847714076476,0.10849948063545578,-0.08665687148817387,-0.20214366613646412,0.005227386275898885,-0.13295000340130558,-0.14068331378928237,0.08529141709948694,0.19216422810730152,-0.15768589711379144,0.07538779558821695,-0.0017378386387500743,-0.03936668287266595,0.06323356979518525,0.03983697664489709,-0.11895896408094854,-0.05470255106393422,-0.0662642520043417,-0.29930465042053245,0.08924077966054748,0.1375738108556371,-0.2625285406512286,-0.1514154992053255,0.12444494225003871,0.10177628777328443,0.057094212917175244,-0.1258657684086233],[-0.06156357253762684,0.05674785041194165,-0.015665006199933756,-0.1255786711290999,-0.1549396212899289,-0.08093482562003777,-0.0315337241835829,0.16740291961524276,0.0731957575963952,-0.0399853647574825,0.06649700859128736,-0.09260150198262981,0.18987280198933532,0.05447316392963649,0.05279651783953248,0.3042031731238016,0.05030997925778579,-0.106046308757025,0.011063530409268055,0.031242907698874525,0.10445778145542997,-0.16778776137036647,0.15665776864414255,0.015171637283182266,0.0731431043817223,0.028253618464309713,0.0704990900457153,0.05337092380362715,0.07293873145257446,0.16280490607284676,-0.01430872374645345,-0.005425621076739422],[-0.19528103276450892,0.1621469218656899,0.057084796370358765,-0.1499392008121439,-0.12171723727545661,0.16539815922014775,0.1514467671063002,-0.20509925626032105,0.11378020481828414,0.08201042381083035,0.109105373108637,0.1575886812134967,-0.008567269527769587,0.03773686162892196,0.03253910380428553,0.036840687572446795,-0.023323367166966827,0.3214650759130311,-0.04579136972403141,0.03316150980059143,0.05549848480222006,-0.045959410978066856,-0.07775505084423527,-0.011730970830014302,0.14529502580035597,0.08244439285472781,-0.2087621848930136,0.2058890599930064,-0.0029314520811744653,-0.021145493935749736,-0.03482757447707915,0.04459541976682507],[0.007476230700155909,-0.09480945995087524,-0.10344483366818542,-0.06359966816581016,-0.008518575713958117,0.11337146718395849,-0.10702283025483744,0.020957390584769874,0.02526155302404426,0.006630620643777384,0.20953724652349992,0.05258085843815572,0.007331259913222472,0.09827368847963544,0.17556945661426943,-0.07239376432324156,-0.06546236635509034,0.023492821571378657,-0.047485978442749266,0.002369509530748208,-0.06595085817756757,0.17110818441623077,0.016293511607620582,0.0769693012170257,0.094767258387987,-0.09126007442095872,0.07226380811231053,-0.013437353561704573,-0.019996589648267164,-0.08446773957271862,0.0584089894904105,0.21693948656329962],[0.018218209801310475,-0.11274311979892124,0.12072692248382,0.1192483400174163,0.11633412036145117,-0.05588838068647055,0.1521022474764154,-0.034350633233191215,-0.07963213215256439,-0.13680621342778393,-0.05143530518275844,0.0442249726614439,0.08473385401772056,-0.07868849653690664,-0.008239286713655841,0.08314810152264461,-0.20788109448518471,0.06012787554661061,-0.029515742501482218,0.07692514130645565,-0.05556539631868856,-0.07212689161595572,-0.041235274273660645,-0.1238121412502876,0.13617742502256325,0.07099462571560136,0.10813502537591525,-0.050711801305451394,0.023660232202799003,-0.005198713150343383,-0.12398252507560216,-0.04675489685020857],[0.0789933727744232,0.21353724856847495,-0.09011968626025184,0.02411976466776322,0.0753003436749777,-0.12342200757798302,0.026264257293541482,-0.2179224846502745,-0.17774831592545104,-0.1707744595839889,-0.004387738393521977,0.0593804703490521,0.06484006503574574,0.05913777449053903,0.04354447736267676,0.1888367694505208,-0.1311785710594734,-0.0691088775012406,-0.014596427035504277,0.11799512327700304,-0.06476742228593578,-0.009832406370482804,-0.2646689414462067,-0.029442194524372304,-0.023443283797442482,-0.16451894791869298,-0.05592502882674791,0.13132767161248307,0.08112910208352818,-0.00633565202579305,0.10789105253399334,0.05137438096262756],[0.031004254705414125,-0.001821873546085158,0.004593806389002366,-0.22117714484331874,0.011448311679345664,-0.18359359749541626,0.1666097124290156,0.05679219086748517,0.055116559088446294,0.08344588541347092,0.08229127892407856,0.22833012014712942,-0.07740820671739856,-0.025301495659884096,-0.09014735103777628,-0.012283670047744218,0.02869466201475174,-0.005567335645755715,0.07309147138377331,-0.08682803928212214,-0.022102983430470468,-0.038952271505140384,-0.1151079956235323,0.054282816099832105,-0.006264439200213313,-0.06003485350231195,-0.02373893168266761,0.044698172349259054,0.03138494298938587,0.05985831755206637,-0.09512896011839027,0.04577718337447728],[0.07220137207131666,0.09951427746280825,0.07290492260289153,-0.08554441849949575,0.04709557497584371,-0.03880406894302901,0.029619073973224993,-0.08550137607663133,0.05657898106529679,-0.10312420936492231,-0.13029508721712846,-0.19372938011173235,-0.06762790062656708,-0.05626238778338635,0.07157656723456948,0.12541446728632294,-0.18727241056277566,-0.00966616299943247,-0.10630247363309121,0.08767251508565983,0.07370448356962292,-0.006267646789266167,-0.08682727020964327,-0.14496889446207295,-0.11134472062527781,0.026723618891712465,-0.07860956068833064,-0.1328884435417796,0.07457174023464921,-0.07413442399444839,-0.07374943017084373,-0.030512234063913513],[0.026861414844582005,-0.07052723979549597,0.029572749074740314,-0.002134046443681963,0.08378920734236286,-0.1018672397634585,-0.04626150380276246,0.046461172811294,-0.045233525503573506,0.026866513711503306,0.05839772383125969,-0.0226194131741086,-0.1315922887534408,-0.11103188374529135,-0.004109497291001817,0.1026897510752926,0.0167140426704783,-0.10314319640543673,0.06200013491798637,-0.08899417655240689,-0.013568541191376338,-0.2034301186321188,0.17726470178677362,0.019712994670383868,0.015259240973766042,-0.03395051312458842,-0.023132271070300664,0.023891363987797638,-0.004172644087180155,0.16097348291412392,-0.024250280915088043,0.03758257510122876],[0.16732715200829293,-0.0685268684920314,0.07418389089214521,0.07651380980054524,0.04483690126413468,0.009807187838831766,0.10920920022452894,-0.1385257378474726,0.05111726629627855,-0.19137451990185902,0.029297612303897567,0.034461038080893,-0.11704815110095787,0.019812675581505713,-0.1428186058797674,-0.016501501310869384,-0.0005442650151212245,-0.010558168076423262,0.13782791839267938,0.17559766198641175,-0.09928347575095976,-0.07264777198822829,-0.18567963941663557,-0.1359687000984061,0.016053441280237626,0.18105396183857517,-0.16511169307518597,-0.09922694795498727,0.05847850689993562,-0.05527324169174537,-0.012185757155597285,-0.02161711467638167],[-0.05365770372528798,-0.06729951309594143,0.10855636230775009,0.09843449785775571,0.03514147805488519,-0.08195426821959642,-0.05671103624831761,-0.12668764755646314,-0.08812233903412657,0.04930401074545544,-0.02379976829423677,-0.10316326050864942,0.12574885221044235,0.042610252767831966,0.14074967602214014,0.09590450272380979,-0.0750530598924631,-0.03648489154814365,-0.19195743918526872,-0.018686931548525337,-0.16295767822380505,-0.05486015843089838,0.06948487072729684,0.10296741585409805,-0.004509537718054315,0.09846799788330884,-0.1996208677386289,-0.10748157417703409,0.006474902831385132,-0.11939950961790514,-0.07386472735509418,-0.11492716637607937],[-0.13684189478703404,-0.02840515703825944,-0.10776291262693831,0.12126864920655206,0.06523925399187773,0.02706596473351325,-0.168869106990047,0.06901010956593001,0.14818950516215895,0.10301338559343667,0.0012579810728090834,0.13259792750431182,-0.01658124612322113,0.08314499324352385,0.1935990294506317,-0.20802725811970116,-0.07838877299497395,-0.065260530009812,0.10415064242194315,-0.012792903198589174,-0.06408967314711225,0.07189683227980598,0.11496164013421915,0.07547421615022999,0.029347160841259434,0.07598975991779922,0.06247482264112746,-0.10637970869162905,-0.010975832480339873,-0.10674311819247974,-0.04006676010637362,0.07444834365966839],[0.08498028446250727,-0.33752235415949594,-0.09707309001078637,0.3193583783367726,-0.3211181045729303,0.10856110140556435,-0.2230807116018125,-0.19587297797501682,0.13587762168683395,-0.18235922128861526,-0.31814229350752793,0.028319825036942227,0.09048539826840016,-0.1426377822761335,-0.2533446708681953,0.01045831772543764,0.23459253831869192,0.18797069705189515,-0.24056031429271935,-0.4667721611997592,0.3369718763236683,-0.04754332999663224,0.01093069158538233,-0.17979221989890556,0.11729278598750445,0.20200955617707594,-0.21057846403866867,0.053848666321754335,-0.3396120099780517,-0.1545524318587532,-0.19151358576951336,0.25200607573404277],[0.1850844967925712,0.11225800385197424,0.1257625801342949,0.16050318694879956,0.025494013333580284,0.0652162339069502,0.15504943298202323,0.06790911512272758,-0.0020521733226470914,-0.02757137235444985,-0.08226891750437294,-0.012577859507201685,0.07855556223629921,-0.038968644330049346,-0.08185201611432083,0.044824496249980805,-0.1492722251640271,0.03457522119024364,-0.004699258796060964,0.03647233330151885,-0.252569974402906,-0.06806554006785309,-0.07037725611894419,-0.14538006159912525,0.0408762777538805,0.18006985858330832,-0.22909789456553017,-0.1276979761504341,0.02499998363270773,-0.1650403758299222,0.08824268618809115,-0.13448636508007555],[0.012908389745228553,-0.2566328619996998,0.0932599275910132,0.005024972363135486,0.100607065584132,-0.07755374592857561,0.21539909005352886,-0.10929086193491387,-0.3395659613063279,-0.08270344630473321,0.14501808273474331,-0.0008738511943623339,0.050466239576002346,0.05799952824514023,-0.03419378596779501,0.017692291333661677,-0.05864240292414302,-0.058094603028653886,0.16128744670268855,0.3072560785679087,-0.04218095404652875,-0.1336847087990658,-0.0827157433526171,-0.2418140109003287,-0.05654202487157248,0.052245924066960665,-0.1435839335434515,-0.07019822633853766,0.0348996004442336,0.08884042242404967,-0.06214162222473518,-0.09957983517021972],[0.062387903798393055,-0.07354405165653125,0.09390949595197634,0.032449144427270954,0.04908135386665476,0.035083442861346924,-0.12072034878253629,-0.15048042975932532,-0.11539281636723732,-0.033039559569970414,-0.026578462090892145,-0.08432482031239155,0.1249790106092072,0.09418344757940014,-0.07803164573082016,-0.0958801040593115,-0.0845324119014315,-0.09776760897367158,-0.27462051404930465,0.0945830676043135,0.2134276278957846,-0.006513961180692447,0.12274362453802229,-0.009536946753708059,0.08473472036305503,0.04983116480728925,-0.15228621865272965,-0.09948177717394566,0.14906673282206306,0.16730761364821078,0.08850576816987948,-0.12776133645589105],[-0.12071650185437789,0.04592837492518404,-0.004752239899706539,-0.193319797409395,0.06167637600170519,-0.208732173332274,-0.14763279585767636,-0.11087008501864692,-0.12270195013408029,0.21233244465738949,0.039311666636592094,-0.06644101829661034,0.14222526110567654,-0.20645935417952838,0.19008605342100077,0.09401577890862704,-0.002549154949468338,0.014122322673941756,-0.22878598203155612,0.07896804171043975,-0.04742352985056498,-0.16806973514297524,-0.06094088319613467,-0.010456696798539777,-0.09105755310109258,0.09738882941120688,-0.11002504820056566,-0.058430789865259444,0.06949723751946492,0.09757787391088381,-0.1498156691974103,-0.0963761164487259],[-0.021414060342686704,-0.1287399713388842,-0.025050079470738756,0.03616875981852789,-0.10977911895033529,0.0008049240529889068,-0.12971508779045457,-0.038916743970894715,0.12281954501348334,-0.030275049207396303,-0.08228450055676169,-0.07689295064072087,-0.030434427785496963,-0.015373991399535384,-0.008436090833178226,-0.008189211161559923,0.13502104165795256,0.007729630683391515,-0.045123886209739214,-0.09165960231736872,-0.03561205052735908,0.018568736193958484,0.0353822433340329,-0.0711123621636168,0.07544318966787673,0.1890586945503418,-0.18105741300047312,-0.18135409225446636,-0.07805155839679426,0.04902370530564829,0.0811217915346018,-0.06505517654870555],[-0.12109092453709774,0.00853604932699249,-0.014570160836341373,0.043322512104239694,-0.1146587180503941,-0.05690714941173794,-0.04000580619594809,0.03284288536264301,-0.07756089451686643,-0.08582991976732769,-0.20791781126357414,-0.03630239981603639,0.002547376827865267,-0.11067492419841987,0.2052450813690115,0.09901249208555526,-0.09815727045141064,-0.02055623046911849,0.05165386745378405,-0.016758034510689346,0.06696070413850704,-0.06357469885163577,-0.0023600158677042674,-0.19774645418238332,-0.03433011409472161,0.025294586350231994,-0.013404212935201365,-0.11593580421920063,-0.12238419990164368,0.001614041780048471,0.03438271293583209,0.0614278691367452],[-0.051818609627707075,0.09696393140172153,0.13732223614566486,-0.016554700216177817,-0.10675006194668309,0.07169291361237207,0.013462668766565994,0.026476562581031392,-0.19385910079656588,0.03435622170541729,-0.2075875882007181,0.032960379297032036,-0.06641817283909095,-0.04328026458280796,-0.052387310616263394,-0.07177074011874753,0.19361972669706393,-0.012193818222594908,0.10651239544107127,-0.10503908099163208,-0.05750797998002841,-0.025847031613790112,-0.005809311577465859,0.12901250395783165,0.055908690829376766,0.08903364808776594,0.019320210159653874,-0.13363725093268347,-0.17232801980073822,0.06885075249421127,0.026949683028693685,-0.07305786789669029],[-0.11996342434405152,-0.1120016091593553,-0.08809511050106396,-0.024260034309811277,-0.03166510268347675,-0.1402880709419772,0.06248687807497612,-0.05951668243332398,-0.11109142196096203,-0.07976463774385238,0.06954545304555884,0.056312150860941525,0.06306296204088377,-0.14693929078222168,0.15313222972950905,0.0807322620180218,-0.038950620967439446,0.022513903448396443,0.0858392488231761,-0.1459306893041111,-0.19056325061920887,0.07458587902543527,-0.03612298830502511,-0.03548245592510235,-0.21233428993286016,0.17697440793753516,-0.17053081014484597,-0.042842189905262215,-0.09851509916550663,-0.07307843785525983,-0.08687177177537679,-0.0467784676031466],[-0.11284193480432567,0.011795987313964562,0.24030281715302446,-0.2647638171077857,-0.0067867502230660555,0.17418451074709226,0.045973295262013235,-0.168750673581351,0.10541259638063082,0.04808300579675989,-0.0465970998420078,0.25339695989745803,-0.030820787677865023,-0.14259471663490395,0.0028250062338087095,0.20084265328686332,-0.06281657092043876,0.041945395011558556,-0.35807498445655994,-0.10888990876366772,-0.023034373264495117,-0.00506424119147054,-0.004119881097212842,0.062002564328576454,0.15661159223988386,-0.06612984023390757,-0.26176622550244055,0.16635537683525056,-0.1960440370630049,-0.18594501575483402,0.1145889723817308,-0.05705934343426657],[0.005093099210236972,-0.023412952639341247,0.09350508603071456,0.0565004020462565,0.139405111197916,-0.19605395551089336,0.15109655310655745,-0.10203435595527724,-0.18055823023965267,-0.1704080871252826,0.08826198555288996,-0.12657332796287082,0.020037967696321084,0.262869341109086,-0.10315943312243564,-0.008326501883914244,-0.22897420971819063,-0.05211698555272891,0.3485312405280947,0.09048410922062963,-0.13944264196751524,-0.2387588523367877,-0.3405364762478216,-0.07249443620879122,0.16817346137227926,0.14060047735337908,-0.08915901714026597,-0.28086165970515453,0.1665459264123688,-0.07244664991563281,0.08556744030070637,0.005277365023691913],[0.05072196752603117,0.36593316912510576,0.13704949449797862,-0.1033575564495276,0.059103704316555664,0.10052477409236414,-0.11351786842613538,0.05783956114522507,0.08296727228124008,0.004941934967404515,0.05476492675910681,0.004421072564153162,0.16215553649687064,-0.049089624741711406,-0.1629170799623145,0.011541518633267614,-0.07561579808289873,0.16945368308875305,0.03683461505481114,0.12694539876184435,-0.1168239197969348,0.047593444021580555,-0.16698163618687265,0.08739859051632327,0.15156478242300783,0.06308512855326216,-0.12419375522431744,0.11358999591537734,-0.23837481074282052,-0.13642414964616537,0.07857898349665102,0.13805572389031376],[0.06813568185760366,0.01805529129498714,-0.03925031345494446,-0.15508527598241956,0.036225944376258416,-0.08560791132597208,0.0717278415659377,0.0678073951006006,-0.09394545740726665,0.1369460434875098,0.044802175635968985,0.010720965044354065,-0.033544499064766975,-0.09938657662215993,0.034217944190454916,-0.03319189689288296,0.17215762608778637,-0.040423656883711336,0.1946880308462526,-0.0004595370800565306,0.07555221560819349,0.08678954228787905,-0.05746216063596962,0.14981896040347367,-0.11569760493267502,-0.10914312226924129,-0.11522288572818402,0.12852130001266177,-0.07802128607913024,0.21842471385487347,0.015344815386936606,-0.07517483070423413],[-0.12602348097998722,0.16320225363729957,0.02817064157977373,-0.20621386233672442,-0.08633377773381204,0.11169805525117417,-0.011640429080104474,0.024969280955126207,0.029755931877390212,-0.13488724728454982,0.040649871873596165,0.1099401851635407,0.005062764357844736,0.0288559319544026,0.1374103297640167,0.03423896662746528,-0.09126360626377393,0.11090520797955768,-0.1962183630748497,0.04228631671972484,0.1256763149888266,0.053581809401282036,-0.21162904432195823,-0.03349757885033732,0.03685160811417301,-0.21121686932820685,-0.10080047307266747,0.02718934427561329,-0.06900968188012728,-0.08044616522563308,-0.020758375794289352,0.0007615342000061491],[-0.15729276117966007,0.07305489173443387,0.05836321062340601,-0.1142893902911214,0.04550918643464436,0.19704433853466025,-0.120764035843674,0.08597077695556,0.12245335619772785,-0.06443978945834808,0.12488610000640792,0.15615855625528088,-0.10698529936243736,-0.09235625663543219,0.18632612236110224,-0.003994079075715431,-0.054580832797677156,0.12142387749089609,0.050775990267635566,-0.023160409937930067,-0.012492451163592391,-0.006067261345832894,-0.12020641424464559,-0.10468749870288577,-0.018196379261061112,-0.049817738295001496,-0.05393464979300553,-0.028781134908778587,0.015318583086955643,-0.12784652468162533,0.14560045124626808,-0.04900931346514865],[0.154734118168075,0.0001204576765963617,0.12305927605105606,-0.058548339692948564,0.02055169356095468,-0.22964042410505542,-0.0906189463277712,-0.247554085152959,-0.05699672584759916,0.12408545512743355,-0.10847057747137674,-0.07184404163171601,-0.07823467514040863,-0.0005629823931484621,0.01787579578931084,0.07800472652797082,0.06227074636022352,-0.10793422247554883,-0.10765860107704917,-0.1155361142849224,0.012707786785378337,-0.07056576040591729,0.1042114431216873,0.05041955411535844,-0.030733555772409778,0.08965454897616504,0.14022570432564038,-0.09226597217615591,0.11644368086738782,0.12442581884135215,-0.26579314114337865,-0.19538041578541218],[0.010003309259389605,0.00919677901086369,-0.12148421255135897,0.06406625883159621,0.11549357313312832,-0.07708333772420199,0.14772848568739239,0.12951946492857708,-0.12430750643171345,-0.1724672729275543,-0.0422803643494763,-0.0034678447053057503,-0.0714210403938476,0.1797588790102676,-0.1664336958613149,0.11476492106331714,-0.10523601885420389,0.0772637185310514,0.0951075649309439,-0.09229610076648818,-0.10281205605633612,0.009661157879957532,-0.09160280481789886,-0.06482420329882072,0.0616314503950912,-0.09207846783262087,-0.06121031194146074,-0.11419244501665621,0.02058707473936855,0.050675295141822056,-0.03991921728115281,0.11678816568368923],[-0.13172017970378974,-0.041873095866269805,0.2796075469156799,-0.03502641748798365,-0.05719494425949075,0.32334793556600566,-0.16373329407325998,-0.14741350622190194,-0.05343782738258113,-0.2912994252827737,0.12370219625474554,0.08594693302810535,0.01696171075598226,-0.07522578489250159,0.10250235121320127,-0.11819236860244982,-0.03413583153582889,0.2584938250130331,-0.3584286575944991,0.10720899208607268,0.04054971874482559,-0.22716399528893066,-0.21817365523454935,-0.08479251484961847,0.3973448255842803,0.20042188662757035,0.0009231255669367082,0.22411821919084182,-0.07455471507342128,-0.14932229769097488,0.042187669990003084,0.009632361926738102],[0.24508661973738058,-0.2942634178828892,0.07006361334850116,-0.052939928985773675,0.0534969360735223,0.020653685157510218,0.1349058062219019,-0.06924314136332235,0.08685407930490743,0.2146999108268063,0.03577867878375319,0.07145777083658418,-0.10390533484555176,-0.07969751721682454,0.01461263790179245,0.07581600105145278,0.2474887656838272,0.0345515908920016,0.12307096361542298,0.00635110369623391,0.13790032351070952,0.22916477034170785,-0.09805725379566733,-0.14467924286140485,0.08293267066727457,0.04000778368949555,0.10469683275331607,0.05831861285145585,-0.057935030864937245,-0.03320281813539596,0.06358227111635283,-0.14369985415228614],[0.009569025170816139,-0.04709483707627162,-0.03575229758063631,0.1012143180664679,0.010134649247317362,-0.14071318367651234,-0.017018973121240843,-0.05885066446669362,-0.009697548192636522,-0.0999543003086125,-0.0652532487735092,-0.19517690288768666,0.027755096187685877,0.0739772146575901,0.11150952617469496,-0.022084947388732797,0.04895386963130982,-0.027805310155356484,0.019055216482204138,0.21626089256244388,-0.050083995944998086,-0.043383219262314136,-0.06850540689348132,0.014461222927902181,0.1316286564136607,-0.08233288282804725,-0.1836134137029845,-0.09395383576550624,0.01726767134197653,-0.08628325213134237,0.13834458871094052,-0.12351122166300925],[0.06152317021051768,-0.0927630577331953,0.11758373830907491,-0.11509287522744575,0.01590559673315178,0.08795711470079755,0.02997505719364297,-0.10385049632045654,-0.21097663891597854,-0.030635214957627162,-0.09807603855368686,-0.16919683056549856,0.008461555374313059,-0.08250899679766473,-0.11910762715630192,-0.241731411208435,0.013413335848839672,0.17827248905435916,-0.012325181571161548,-0.029186820292876482,-0.04788750233234075,-0.06010757643955588,-0.015905060583864893,-0.014711388866607325,0.0031882700113324276,0.01076893923062107,0.11215880888450479,0.18475015187531532,-0.02196588402485256,0.13291923186828844,0.060823203693486386,0.04731839873292013],[-0.08025204733528869,0.011963330387647388,0.22002713467025087,-0.05525828706288471,-0.1254769311510179,0.08044718592770751,0.05113210851670542,0.011500292392694685,0.1278242862760027,-0.050994332902986966,0.09247578697761125,0.18603985446946406,0.10473218594222346,0.08936449936687295,-0.11067577814731738,0.1476440188307155,0.02960917534429217,0.0938545142066862,-0.10830768714212641,0.02904062071817238,-0.11608011649689322,-0.1758154069840878,-0.13695428891585756,-0.02247470660254783,0.10775562162637069,-0.01868624797782461,-0.18146530442130748,0.1108789489744724,-0.053234289850190256,-0.008259034440044971,0.05809507354300899,0.15557576705785514],[-0.013848015345841208,0.00011971242256533804,0.07674725932680987,0.11927494625272105,-0.015276495773938555,-0.016251870375679545,0.12678474688121188,-0.1465041447997712,-0.03242884468444826,-0.18822045624126682,0.12389164925730628,-0.1690522663267318,0.1152846421393249,0.004967901268338349,-0.12967123356438062,0.08744074739017124,0.093367619734389,0.004822417000437377,-0.1541758150599392,-0.07517893613439378,0.10029765159335673,-0.18755063889593124,-0.0667560433514221,-0.09051015267629163,0.11410617087858234,0.02495240150033022,-0.08449137506535304,0.018624434901767746,0.11501767481321468,-0.03614070053445329,0.10236457215432052,-0.1982606624473736],[0.14082090678551698,0.008754486167990967,-0.05178864060157404,0.03829237837671074,0.038018719775936564,0.03565647664312703,0.055067558323411245,0.08806671209197724,0.11731586941956283,-0.16334463540326677,0.0834351305004951,0.05274203060430266,0.057097890092880646,0.009038019216885289,0.13235409905861636,0.0007547336160744441,0.056324049241602565,-0.0027067213862592377,-0.05242185457529326,-0.026982067925732336,-0.05562643708863718,0.040997683342302194,-0.09578821264353767,0.08777448495657328,0.013659374500214929,-0.141482439521069,0.07875435537648368,-0.1941607133062479,0.07814141978042852,0.005671312700726763,-0.020088545343802774,-0.042518652562201296],[0.17366466588545434,-0.10221298096207843,-0.07342113978704819,0.14828246725796537,0.10804351994734607,0.007191227681758563,0.11487250790512644,0.12562976383607397,-0.10698459292380397,-0.06969592504191506,0.003751665598569277,0.10876160966678287,-0.04404747689553011,-0.08255339908402866,0.14113273835360604,-0.15596475037489224,0.008897196201380823,-0.07884985404353619,0.21844592305708166,0.05419636895756767,0.09098867513418472,0.1400448871863873,-0.01574935993445991,0.14379887425679452,-0.1582882782058644,-0.03986106868204464,0.0528792211685533,-0.05352843351424576,0.010240012280941098,-0.04129876329971087,0.03783550324352811,0.09734758402605787],[-0.034026573028368125,0.011974535310960212,-0.033006531951045484,-0.053762453789462705,0.11257072355069253,0.009758151609185554,-0.12849985990044996,-0.07262169796144614,0.056984062638919114,-0.06025641405210199,0.008210072274435603,-0.027764115091345243,-0.031098185641355188,0.16579247131534897,0.025530451786791076,0.0023000939393546097,-0.14987124745482028,-0.105907366956416,0.09598312557141493,0.030739008052189792,-0.10798818216132312,-0.2021436771076598,0.03326990428374673,-0.1101389423072798,-0.14013334658471222,-0.017578624109101843,-0.02873432203537493,0.06687807974423121,0.05195904292035081,0.04583206305251735,-0.14590016165477418,-0.05561087275173241],[0.03197173377757482,-0.04938758998425875,-0.04644660252557388,-0.055584128277657796,-0.009299524869827961,0.02987412880029733,0.15533980310759427,-0.029329175640205252,0.07060308878701553,-0.17273609256789113,-0.10766454391180229,-0.08707388604686585,-0.04180963523768293,-0.16057246665711014,-0.04385647037116187,0.0030624276233151703,0.05550036190777636,0.10972228980511438,0.13230941506503235,-0.1326239481294287,0.09595926130196025,-0.17741383008212516,0.09099092667820421,-0.08712607030712845,0.09114850524270737,-0.151641585857188,0.05588084660915099,-0.06771674900924363,0.20734494554388194,-0.0409068297214312,0.04110359354569078,0.04094523343205518],[0.10179742712555669,0.10022384393331052,0.020343565439073293,-0.12832704794271324,0.04335473887724234,0.19038095415884293,-0.12185456207122809,-0.13746075610480096,-0.058595463573476565,0.23368445086324258,0.1378652476210866,-0.06304382278396795,0.012295845124040632,-0.05643372802776677,-0.1240153882366524,-0.18494076779515475,8.443901528513921e-05,0.003725308422166435,0.049596115734004353,0.09887842493487925,0.13716286073064393,0.008419481784534708,0.29918047121702,-0.04559175174093584,0.05287132457176017,-0.24628742513357063,0.14125561295636752,0.02430400901632228,0.0439033261055991,-0.06563482674380523,-0.1702030638819286,-0.09998488990534721],[-0.014621367639128472,-0.08846423297604451,-0.1309428451073001,-0.02417930328364513,-0.05884511464858182,-0.02324164227893422,0.009125740471372464,0.04772528971562938,0.03375138129673574,0.06552957353815136,0.12092949849027268,-0.02509125856262933,-0.12458357818398962,0.13756821712729794,-0.10866014524952902,0.1371490464899622,-0.049276480405197325,-0.0041224838198723815,0.011397224632799649,0.028388928342993978,0.07055008525114599,0.04392508047685887,0.03896207472313482,0.12621226340078534,-0.12349095814398384,-0.07334166562331769,0.08772048687351573,-0.03797197257579255,0.006536161858837921,0.0333311974616717,-0.06952582913965963,0.06835212512717465],[-0.07456492239145232,-0.22669820286890544,-0.04165738235749451,0.13220796031209833,-0.1250029107001466,-0.12837127283597138,-0.03885053482218571,0.0089913628670728,-0.12900602382770907,0.028550081013298423,-0.0946754814571912,-0.2717302313211709,0.15790784046387993,0.11568182891340051,-0.0531774744975609,0.4133634595415827,-0.26072666806194233,0.03914075970678684,0.06799741416417202,0.12474520294760279,-0.10081777889874731,-0.12900596225519528,-0.11829517772857473,-0.07310550359361805,-0.21032809782883471,0.16421453009181256,-0.13357945590319947,-0.18138788137307346,0.062030924850484746,0.0003045551754586702,-0.136408057515132,-0.07174150212440647],[-0.0851418687540564,0.14270224225160527,-0.04221448619554096,0.1036415067679987,-0.09394169499025502,0.0718570355016191,0.10981506879583698,0.1413675177472088,-0.036497653018601826,-0.04106289319826769,-0.033436771697460746,0.06942152761483626,-0.029341475368004376,-0.0027596525958954684,0.056893405292093156,-0.030791996343184223,0.02568482830027717,0.10299044416519827,0.1715935629026242,-0.12292955291904696,0.003246138501414813,0.1647916181077363,0.17072201154183295,0.18071419427606628,-0.1508549877601652,-0.10933444467457644,-0.05086664200182326,0.010392721722625077,0.05028294951788186,0.04427434641721761,0.0019056143451925839,0.055364838695924457],[-0.029264972510228422,-0.17154601940413156,-0.08367220228089017,-0.15733566322358197,0.058712150317947236,-0.21309351157546097,0.1615574656044066,-0.022460025727758858,-0.03424555159821651,0.039918353244880495,-0.12051952326428587,0.05976137501562432,0.15275178418023966,0.06235418825441979,0.0003213235875918722,-0.020166274102184974,-0.11472083913817016,-0.11519461997935186,-0.08167764744713334,-0.0035073473293955495,0.1395471424110763,-0.10160155425608135,0.05475732904191069,-0.12548698168599334,-0.2305349478263361,0.10707056362836297,-0.23302798656131318,-0.09086073703978267,-0.029225663553042163,0.13248395988395703,0.01417394277780045,-0.07879154273332765],[0.16769057655153052,-0.1367723702231736,-0.026563053619644998,0.06495769579981424,0.09133668456637875,0.033281061524301936,-0.0016445719215163101,-0.04472804512024492,-0.20417443459816334,-0.14717439778147404,-0.07335754817009375,-0.05635122096220624,0.001977339581418737,0.25758507316485874,0.05648759626746346,0.12592765409502382,-0.0706173043690174,-0.08004991020352169,-0.14002184685994792,0.08250433619788919,0.07111773124729202,-0.18111419738373025,-0.016220072460018924,-0.10131514470936365,-0.09259550926998786,0.007135326048486139,-0.10346892638327523,0.21054094337144025,0.1163148557788388,-0.17191472658843018,-0.02250501107154736,-0.18638346314411527],[-0.02105607624205223,-0.07673493887974739,0.09748062366289914,0.006062026339525051,-0.10202653764750504,-0.03300210053925842,-0.09238589861899381,-0.010977870782154347,-0.08159874125807244,-0.177691851378623,0.0414923862585725,0.14403689227627073,0.18742508177533018,-0.11712198819975793,0.009112136632152788,0.18958383273412432,-0.20902205198380255,0.0371652499573222,-0.06792261835112978,-0.03446825324416158,0.07048614515636088,-0.09212072942701857,-0.3072153104593447,-0.05050128489762366,0.05308346212477574,-0.1893704109574385,-0.10165237291460232,0.11827740242799992,-0.1018763230088091,-0.09967369898987107,0.03776419868201911,0.08367645960460277],[0.015883561103539855,0.11140625751766595,0.04581123680972742,-0.077539409387369,0.11388574126854219,-0.07445810011996833,0.06341946868742382,-0.04508908850822186,0.08079010405082601,0.11400772218454437,-0.12829026008086564,0.04059260329871695,0.004059791645519233,0.03561446502264014,0.16371487910622098,-0.002368730160984855,-0.11344514914567762,0.11260852734052451,-0.11550006211274143,-0.013353467748945533,-0.07291085074598688,-0.12491965402577128,-0.10214248596051319,-0.12922807754415072,-0.026047660036549188,0.1013233546085515,0.04193072516137782,0.028439645543935986,0.03567291660017555,-0.03919910493139726,-0.00020562669773182903,0.16445714705373385],[0.07897264771066004,0.02910092534472007,-0.08227511775616797,0.24722271060277198,0.14506352575911416,-0.05092828516925104,-0.02515267323717654,-0.10233206015207269,0.010788614844958213,-0.08930772010893412,-0.0729938604839049,-0.15017745340024632,0.026731766411413598,0.03137843496968875,-0.09578790159733062,0.1767402687681426,-0.2275349455266354,0.010838752171226644,-0.05584121821167634,0.1606296677963505,-0.06058860578901282,-0.03879980090467345,-0.1064231354456254,0.03329841369475245,0.11362825682193367,0.14356869970897915,-0.0900236044328836,-0.04081279084177233,0.016055666826903774,0.06733095838037732,0.0891488970761544,0.0032533992862441444],[-0.009514260230089576,-0.009809318024956321,-0.09865128618555681,0.12467165799662823,0.10560139125162236,-0.237142103689545,-0.08169074841492054,-0.11850547681203731,-0.10549211564369565,-0.19779727084776666,0.12265309738257502,-0.032415986560939004,-0.10835106063443609,-0.06563984450892439,0.004429839140045767,0.22210785658508414,-0.09535993621938386,-0.12183089355336126,0.023161462504367184,0.06470819377109066,-0.055573247063197294,-0.015118844172652721,-0.18559235012919684,0.09661079197624743,0.0171306855752241,0.02447060025362481,-0.09454237202438631,-0.03850314047899566,-0.044575754871374634,0.03165660720666992,-0.026718352623705092,0.0007513690601619043],[-0.029952416365390613,0.01695107578132461,0.14452639963517175,-0.12015566307015846,-0.028964870851150768,-0.08325224605995989,-0.06179382376276683,-0.028774152113755322,0.12960867326619283,0.05298734039099173,-0.0011458083545212122,0.030579532883034628,0.09841513462401574,0.03451480704504767,0.16035448139075562,-0.046908741009731504,-0.33073481693738055,0.07145090002618402,-0.06596590934950652,-0.09174326927990964,-0.20367571216351904,0.023386051275279846,0.0029117969032270968,0.08111511826145949,0.05672817778217344,-0.06389750429492272,-0.13689450890436697,0.04038741386460235,-0.1533480545274222,-0.24351280221395274,0.05005372831168863,0.029150478214284094],[0.05479699379947303,-0.025754661881641074,-0.023091112022669738,0.12830361335976684,-0.027528930429181496,-0.014377689718774862,-0.07947500027512075,-0.1447015391248138,-0.1939699997262613,-0.13396190410326633,0.007090342796663588,-0.04553919552111585,0.14874054088998895,0.13336413855986828,-0.17367630263666428,0.04719933227034393,-0.12451669457416598,0.008939977030370888,-0.003406567124328552,0.1454303386757278,-0.010267279600162865,0.04649324319138856,-0.08406858830022047,-0.036486408864690886,0.22291598907601196,0.019181222175427424,-0.19893500063720132,-0.2580459663344155,0.15050086843104044,-0.21723237545214136,0.07668774819799248,-0.04245897668704256],[-0.219156230220461,0.16311162798307138,0.23873457296727219,0.021200718306905116,-0.32035246712448334,0.1122663810149933,-0.07349196513410224,-0.18356351047295483,0.12264464757669391,-0.20043690569433706,0.1337136175576672,0.06659719668930221,0.3632155731900026,0.18137475406375111,0.2665243078041471,0.29807389263262424,-0.2660623924890459,0.17868254910629522,-0.35037651048168644,0.24767935766269353,-0.21127029961964444,-0.16586571272089903,-0.12186443618908108,-0.08616514815093486,0.340653371250487,0.09051817284389158,-0.24416972446921706,0.19700219941913633,-0.026589454661172667,-0.18242047892279062,0.160002407511308,-0.03957135714367049],[-0.12674924909890772,0.2752166549313154,-0.02220413896739927,0.09759796564606053,0.045711905283144415,-0.010930099533146876,0.11706972834842029,0.19391122834607047,-0.08381072479747544,0.32279104900573813,-0.2468995822622987,0.004406707648842836,0.02673128524946723,0.13939771190528347,-0.05049759946178306,-0.16519614199299834,0.12711244397225693,-0.2687951484608605,-0.056212305114540125,0.10567475618920336,0.15502859734073504,0.192319863714977,0.011971313895145682,-0.11285037166295185,-0.1162615646068644,0.08167287057414226,0.17190472859912384,0.24559385568604933,-0.13642072818864967,-0.1190178828421994,0.03718647353748652,0.16947275210501989],[0.12261939557070396,0.2651588201844455,-0.02908364842789155,0.06555920547567473,0.07837686934588714,0.020014664747540076,0.06088186192639728,-0.11845418087932354,-0.011421405736498469,-0.0313829345251513,-0.1447673507597405,0.027443827398130723,0.16298995306310102,0.07872042792500737,-0.08170732216491038,0.11707754108041303,-0.10452366980078087,-0.09345371686710001,-0.1421701202602145,0.12844189610366294,-0.1987382486454753,0.05340784359653569,-0.08754223192114247,-0.09425659330683908,-0.15417477188183384,0.04876709220600424,0.020198787948565708,-0.25690668609584116,0.16751574245099338,-0.08391857584926503,-0.027377976611659083,-0.17682486362994287],[0.07578818664747577,-0.02278786362319404,-0.146818538572673,0.15018344913848486,0.08572408955716053,-0.13348062230461574,0.07641027521346659,-0.14031678959885274,0.029916776637513336,0.026656716447099885,-0.01833689557220426,-0.03033400647065603,0.2004071279368705,0.058732113798759,-0.1553751100079071,0.09453958580727924,0.10893402733462187,-0.13930099647065813,-0.08804020758823496,0.09230789538698535,-0.05989266506891392,-0.13725244516629778,0.030979068558665484,0.126850865853046,-0.042641086588965156,-0.00504053636492869,-0.18286520800760658,-0.03908872695958781,0.14700072642253592,0.10115353720603866,0.05807257697042908,-0.11271749036771685],[-0.017286154244723725,0.11298098648518727,-0.0006238028167071503,-0.052306771455124905,0.19217069442990625,-0.027082864517789722,0.16489343707793291,-0.20440893718337388,-0.18846228490999398,-0.07891817039417391,-0.021157448505638998,0.07221033622005418,0.021681783839046523,0.043816267632752905,-0.1506390220310753,0.17869546086140065,-0.13632917208768613,0.05782552356016776,-0.07066241531937749,0.0986067803178793,-0.00384125690307792,-0.07290758942078344,-0.11600336849642837,-0.08867234883208192,-0.040646742700509074,0.0771270415929287,-0.16471462031951753,-0.07803690702516176,0.07840830486853927,-0.22406005984706573,-0.06961304530816968,-0.14481636183117585],[0.0017660001169663186,-0.22956222018831646,-0.11921677445912503,-0.01488891449775518,0.036807374526392246,0.0633871810899695,0.04844029730000611,-0.06440491884859689,-0.06195459578890081,-0.083616712619563,-0.0994482367682211,-0.18855829777653846,0.20931225268907472,0.23668171405511992,-0.17615818656783744,0.011549446844006515,0.07198312044838212,-0.16690940581083213,-0.05397006156355434,0.03607144165534722,0.10663095954433799,0.002137214120405128,-0.007715363016353698,-0.011463089331865217,0.06394605805879243,0.04935318033241272,-0.1559551386753737,-0.08362541929988393,0.1617189216790154,-0.08286873136884962,-0.15559748097686704,-0.15720101971401582],[0.058254809951749996,-0.07065204467250923,0.21729992829671083,-0.03710788542556779,0.10359599701858274,0.059853811635224276,0.15395048325543678,-0.09412362428402235,-0.02518040912651562,-0.023474248105279125,-0.07736194561087371,-0.0727785148782539,0.09816757634462482,-0.13309172562945148,-0.00841017464777172,0.07368996366682783,-0.07925131224437816,0.09707477236104607,-0.11536236636913491,0.04943768612428065,0.10020720859480058,-0.12663095102293148,-0.10559623337638356,-0.07341448418966844,0.12905726243888832,0.08245895644424185,-0.16926019422901198,-0.10365419643050588,0.015087807949173956,-0.09886409278967642,-0.01872840169056513,-0.029358666237831135],[-0.20007715951500638,0.027345587784563984,0.07769364752165082,0.1686499995491347,0.09521587809023754,0.029657333418637685,0.09527468627213145,0.04969692336622579,-0.017289615905969728,-0.06756963026956145,0.2388310916230788,0.012306349015596215,0.10511912175739589,-0.03871210037429149,-0.15951405631845378,0.0834974066341079,0.06648990413733027,-0.10670899797820663,-0.04584979694778145,0.07255553311799237,0.11205499058346385,-0.14903755772018307,0.04433977031144114,-0.12254524729903359,-0.08782369974133775,-0.08797235446727966,-0.09735489961446674,-0.15884239331927144,0.04821107491177178,-0.10095546014991628,-0.175813302471175,0.10570128690724444],[0.04194977641536897,-0.08992854746991863,0.05525951667225362,-0.03448081329502062,0.1961117712260496,0.08912076265852288,0.07433304173510173,0.01920976101163202,-0.0473200346709255,-0.1686873965335409,-0.0905184941590382,-0.047373984726436925,0.029619128899276224,0.039171778227360114,-0.0666453003301925,0.056809087468948104,-0.0563328159719355,-0.14425285225562073,-0.11439174812646064,-0.04335069194852817,0.12153543286569261,-0.23247696332243256,0.02149098121130877,0.050059224976746655,0.03186523091876272,-0.14665832835318163,-0.09097218092381044,-0.06879965109422628,-0.01867444821504608,-0.09460502747117977,0.15007179513452146,-0.011856211166028731],[-0.13205459393897337,-0.19240595298973828,0.024340815988088637,0.044202165864669685,0.10579123120589437,-0.11108669858143233,0.0026061137092889715,0.08765073326844655,-0.0013975038953736342,-0.07101782053641112,-0.07428282879931519,-0.08819364887111297,0.15891565058877488,0.013233809779768829,-0.06060185173893443,0.06884739950154686,0.019763361810218885,-0.17214764768595053,0.0835096469475011,0.07133088764589834,0.014330263227163636,-0.1090227738275227,0.0374848529325542,-0.13351645936126585,0.04409539209953209,-0.1964699701654506,-0.027502062945189216,-0.02493715074378893,0.0025388346667349787,-0.026971813656408716,0.15014962263383122,-0.23976499431912143],[-0.05472791015147721,-0.10465901138676746,0.009187598070767484,0.035169697464070754,0.02113375414582394,-0.00899856792997272,0.012691805198824315,0.06962524177037396,-0.05018267607875007,0.010643287529994284,0.027544912525640695,0.24704205121445685,-0.09733806707617497,-0.1978602654218061,0.1443355847171586,0.20600148184000816,-0.040597950431545106,-0.16247576428927998,0.07537737535501586,0.08161875711761347,-0.05393553091942892,0.09394133192069529,-0.02669167175749294,-0.11331480091256604,0.026578106477967857,0.004387323090653973,0.07492350895109211,0.0255382536798582,-0.06815473010538725,-0.02533444617509752,-0.14089754189113415,-0.027248365145690644],[0.0579124592984016,0.2221674661777258,-0.01994865112488326,-0.056770947997530505,0.05044015133096924,0.010870330241400383,-0.04023253076856892,-0.1843199519690287,0.03287806228079098,-0.047082681895641514,-0.18138172168880554,0.11363107392202106,0.14711668204095202,0.02522064967279686,-0.017126700873423644,0.2542588609475762,-0.06771576901223779,0.12544878428001408,0.013738037060756478,0.05233436554558018,-0.1160151559267651,-0.09794696551932441,-0.20606318879549437,0.07538809289009854,0.06709826337396409,-0.019977888445892808,-0.17404908186082269,-0.07924887305829585,0.14440376575274,-0.10046214317197656,0.16899791766566707,-0.1245503596226289],[-0.07043225031109476,0.08975457880603908,-0.13972076759877403,-0.08680907324322311,0.11162743730814244,-0.034224641393178996,-0.061394624104538685,0.03179711521209004,0.18674565089345863,-0.24255091675311422,0.06517914796588463,0.048584754155985024,-0.06508045183132202,0.007673027982841461,0.09947794518881296,0.04108251613298106,-0.16684395551582934,-0.11825748182360529,0.08513047782278316,0.028797710563222004,0.04336228067703218,-0.06621482713696114,-0.13320050678138165,0.11994176981445209,-0.10527026060664603,-0.06292091277260642,0.06420210395669138,-0.0433496665377947,0.034122129835247456,-0.07916288339988639,0.012468793153393186,0.031650957757973074],[-0.1658470601027925,0.06517209811366013,0.13473192542577647,0.10053835128077651,-0.05857258058321352,-0.06069759179614669,-0.07018384192601333,-0.02181091867814658,0.06438794148365463,-0.0017444471486616293,-0.09579586943163851,0.15021471046761886,-0.051841688272084914,0.035958015862631615,-0.04278777891124197,-0.0769640026161477,-0.08196786392377074,0.023191790381385656,0.1084133619618756,0.051240885579992373,-0.11504616085921289,-0.042010168274765745,-0.0385818153946734,-0.005219585499641045,-0.1129867541696537,0.010996845121036793,-0.10698270116073834,0.08780223248228172,-0.03763588537987569,-0.02655406733257145,-0.06823059907988195,-0.0520206151819374],[0.1204747888952258,-0.1256261043929567,0.015458576603608772,0.15888848251919746,0.1396924894978778,-0.16568070962505071,0.09619409639057253,-0.0930609489972474,-0.10391637932879368,-0.3131457802779463,0.09641620238869161,0.05242891268333466,0.07247388096639719,0.03727077377740783,-0.06827248342674026,0.12217533891554115,-0.0013775354909819043,-0.20827841134532504,0.03667196924599089,0.1697564848427157,-0.07982690062478322,-0.0739885752700159,-0.011567031386515407,-0.045256236204323834,-0.18369638895449808,0.14432809333815647,-0.12153466386854787,-0.08923690545847755,0.12518317520239333,-0.045879029005721515,0.19191513064701213,-0.11913097743794367],[-0.12333632421218786,0.032297299794825735,0.06782012598521667,0.064315241721002,-0.017434564151937847,0.013803568637892144,0.25736685522286135,-0.04060915130700749,0.13662236608279738,0.10948351905245186,0.13952798093436902,-0.016730333670788237,-0.024719371291511118,0.05150815934925865,-0.026549989467123003,-0.04155865888948751,-0.028573780199169098,0.06009616110656008,0.09408066923988875,-0.052118789109695175,0.09963500258620606,0.23810132201158135,-0.17870462506176674,-0.1370387432321233,-0.031415759857738444,-0.09335287794464187,0.07994044310459847,0.042153541473729725,-0.08658769585259435,0.024808711273607325,-0.028274034620034867,0.016433299985233192],[0.057905665613930124,-0.200490098977255,0.10682648014745333,0.03901121931543476,0.2960158148543558,0.13874280181325613,0.018608615467085386,-0.05429800641910256,0.02130570138331378,0.025917331897489012,-0.19076070145638957,-0.18359407100646258,0.017141110624740854,0.0852809186606955,0.0028046113511988892,0.12459897165416221,-0.12623210061279344,-0.2204900646263067,0.04871409232170315,0.018638582431003716,-0.19270400763158058,-0.01980117581003074,0.03159526041983968,-0.05730531840742045,-0.06029851940882214,0.01584314787028286,-0.06520507862155542,-0.14065071925871933,-0.013092625424757226,0.0652908235836436,-0.002498310205103157,-0.03187723093211832],[0.0015223594584703182,-0.06625646075139535,-0.13956263965853247,0.09084287169761308,0.18616616219400048,-0.18179178403281238,0.02485865941749975,-0.04109602112991512,0.00808054551522293,-0.11494851411947384,-0.10439331886243328,-0.2630364974297684,0.06923491217050642,0.22987378239927778,-0.04847611737344711,0.0627701954823895,-0.015260229452488384,-0.06537577065771405,-0.04255284322138326,0.1226305839783551,-0.049096742293215506,-0.0752473064065725,-0.13519814316759698,0.0018967425476341248,-0.02670761973303996,0.009743247448327653,-0.033044913106588567,-0.10551734561097825,0.031161598265015154,-0.14005073193424375,-0.17268490320641416,-0.045116187191937565],[-0.14453276138317483,0.01978986819330736,-0.16812706686993867,0.11483995633041523,0.0991962856159187,-0.15007880416352554,-0.08281268189155451,-0.17313585890313077,-0.08343029832422304,-0.10225056117112197,-0.08132272742127744,-0.185664687498309,0.12279230662924806,0.22287860868792939,0.04575211121318382,0.08677662088040049,-0.002449524018983124,-0.13917290377809655,-0.026938658370707438,0.09387155253636073,-0.12784841481613865,-0.10264318623061794,-0.17313987091573324,-0.20196709660327386,-0.23309400814359302,-0.006041755768907067,-0.14109767143278046,-0.10840813861328007,0.050256906764718876,-0.0782187042043784,0.000811696389148653,-0.27876971782868915],[-0.005819223826200877,0.007368819381053928,-0.018148923790237147,0.09222545187245723,-0.009330115126298522,-0.05020144237896156,-0.041077835834354925,-0.201354682411134,-0.08963226976836465,-0.06845359923068187,0.022818972632885112,-0.1523088240215593,0.03995251608320836,0.08129758657234673,-0.06046740905340158,0.07324053367923751,0.0032890631685552852,0.035301949802215106,-0.15143881083457228,-0.013181969997985203,0.1516478353707038,-0.01900519187662454,0.03932557565383315,-0.10029490056777676,0.025447736403071575,-0.1652729902765094,-0.13630376802109007,-0.08943481840045127,0.15668402653051397,-0.028395780065089898,-0.020178496945420895,-0.08258555621313088],[0.04594846638573573,-0.12343949953603713,-0.02378748625340114,-0.01394658291552183,0.20930299568241678,-0.01436705127165946,0.16074384343968856,-0.10606211518724146,-0.09711920819232056,-0.21310407332365755,-0.12121326491675553,-0.04352202206673825,0.17486480856071437,0.0007706909744179102,-0.10557400505923244,0.09368261426973475,-0.176012773085711,-0.02398414966740893,-0.1436657711436782,0.06711829002267727,-0.11382859278246456,-0.13177593663704604,-0.0806156709894813,-0.10045327233434964,0.0775985109017794,-0.0913594680863344,-0.02889797324285747,0.19850846769197145,0.08550988398919505,-0.017884873012697644,-0.15215521642704696,-0.06615000138879534],[-0.0022892029756075454,-0.19767482473521888,-0.03259528813557598,0.19080895522774072,0.1496324259803713,-0.038571538246355785,-0.15691991901757202,-0.07914581280462045,-0.050829608374536144,-0.09717682701597091,-0.04028000441436135,-0.14802978656981347,0.06314514956271272,0.1601527928302518,-0.2578925910838824,0.06531218395388352,-0.049501556898448214,0.06912515934108655,0.11232161960257804,0.14337771620960274,-0.12770003757030327,-0.216398338225427,-0.09025732161627147,0.004378037846586437,0.17558630032766256,0.14596301864084132,-0.04008329235134191,-0.05370079868497431,0.037700448590763255,-0.012121025895399547,0.09672813456437199,-0.13887045322015357],[0.2292118042976531,-0.12384655485814094,0.012974875972529042,-0.02295139731356568,0.14427120236795402,-0.149551085344419,-0.03545880750376054,-0.0706259979113312,-0.018360280868238422,-0.160086122253036,-0.2171359639934881,-0.08269382040438768,0.07338165956303705,0.13754743328781377,0.004676022788898724,0.09381640984313688,0.077764567324047,-0.07580556413219261,-0.006989057660449813,-0.14971957541151992,0.011915199833942161,-0.12374388484541285,0.04540315179448236,-0.05972910909844912,-0.1507568553673434,0.11277738048817992,-0.04033784501835544,0.19864397947742066,0.16562122063772447,-0.039191573371607225,-0.02010123087380964,-0.0675501766487666],[0.16667734669177273,-0.17402993697179378,-0.08865908393867816,0.004744438347673549,0.09583651636682292,0.03511203671306759,0.016208602491575137,-0.25383661678847763,-0.09878191954297429,0.006939490923923434,-0.029865857929485862,0.08874955488861846,0.04547560831341451,-0.03483722473418311,0.10183797427343509,-0.005549877161346831,0.26235049712859787,-0.017289856111868424,-0.11431971157370326,0.01819880943608251,0.06344252297223385,-0.08093808424059697,0.038518585523261026,-0.04980515774047874,-0.11940415900216396,0.21496892849161292,-0.058396585630266375,-0.029969474623006264,0.016440748865515786,0.11859446686354345,0.09178487586993501,-0.21949069285035558],[0.07987533341586942,0.015250466498914143,-0.10415044834515022,-0.0025855539284303478,0.10942436875637124,-0.06505462204793494,0.11219062527185596,-0.0363346282961087,-0.042887455829043415,0.031059243749675985,-0.04203192132703645,-0.16998442189090335,0.19005675931849045,0.21607040412351686,0.17248780804471278,-0.05270654200936923,0.10531916372689884,-0.24077655574337314,-0.042425132016964864,0.04400331020282442,0.19950273671237873,-0.14821222134344167,-0.2141661099579308,-0.12394303764979821,-0.2273147746620583,0.09301019392533433,-0.2411723078514709,-0.07715084699860257,-0.08259705287650365,-0.11305748025462067,0.21806851852220333,-0.05900831070776001],[-0.003979673004258005,-0.0703914409788786,0.06653040955735222,0.09817244164825652,-0.017621329443855846,-0.033133178896298236,-0.15558731621993496,-0.02511140455737163,-0.11352703041695385,-0.0493066442332496,-0.06870624359603367,-0.18026210402483228,-0.10240568416072374,0.0834220880595802,0.04028441031054162,0.020352150379626812,0.013194958388030906,-0.012401653013145013,0.015346441462299715,0.05768041125168106,0.10403278390653012,-0.1889126887601149,-0.09876707429502163,-0.004240208035466714,-0.101297400126969,0.0390468623723768,-0.014332907874621013,-0.08393570394408698,0.19839662366549962,-0.0019271848692701003,-0.0016011622005161334,-0.18403551016385444],[-0.062396952646189295,-0.2769805226607621,-0.05026980481000741,0.14818713053791374,0.09271996285708044,-0.07653630353266504,0.006502397496971263,-0.1326665372525072,-0.048018698539017114,-0.017314330080644834,-0.1085827776150936,-0.022323037276867776,0.11383367655977521,0.047589381748296015,0.002362854866102307,0.2741063210415189,-0.06384624542006302,-0.024054843669675228,-0.09120242192446434,0.044673707374851816,0.0011312321611234406,-0.028363757580102816,-0.11055453309462068,-0.06252949551658384,0.13469035730387158,0.06738336522612959,0.026361031350864202,-0.07861764103582199,0.13317406509409188,-0.010060336287467447,-0.10579609316182509,-0.00581712643751022],[-0.23106921726989507,0.17522622002165386,0.1087807157067386,-0.08499549881889266,-0.2738098749215473,0.24272704785139246,0.07919893427860276,-0.1526884905487998,-0.12321849091190687,-0.08185173689775047,-0.1530100281928815,0.09744503809371773,0.1375899041098474,-0.3005434900827999,0.14478906108154246,0.1290235691994841,-0.16352725328119835,0.15324460162281348,-0.08487204669121566,-0.05819154250396963,-0.15683992854571877,0.0045549672147564245,-0.049596309206342885,0.022870988892848193,0.225376793221458,0.0068359573730591644,-0.21132229220129622,0.2508724701129987,-0.17117347642979258,-0.09833183805082589,0.2617747896539424,0.011802640898357029],[0.1376148297984472,-0.1455575237096938,-0.1044019468979177,0.08274694539540844,-0.03822761316929287,-0.13804182085503836,0.14110859313070273,-0.0005595160141902522,-0.09652459534776751,-0.07029853079499082,-0.1082256559319172,0.026885226512655562,0.049298043687604126,0.10145824941443381,0.17940423709865963,0.02068102946316356,0.07985752870489168,-0.19853566299436598,0.03811388759877269,0.061230130616842945,-0.055315715492311755,-0.22843592653308847,-0.09761468137928614,-0.1702222615769916,-0.08091184761792596,0.0759606041097133,0.011260135488120236,0.11194061795275617,0.1065992999005541,-0.1757154673762976,-0.14192471536114448,0.0627297257040186],[0.013979475335092995,0.1895339803165199,0.03709644306527066,0.06478992046441297,0.14998323167183916,0.032081572194901965,0.08401835105396187,-0.09412226485713963,-0.07224754512671851,-0.048755082095836365,0.006548331222540145,-0.06233790566150716,0.11589748835302636,0.19839531717598213,-0.025077071382919165,0.08923503146692939,-0.1857248956539816,-0.27770104383077954,-0.031110042792921257,0.05763406752660491,-0.1030115651248024,-0.04542381607572342,-0.06608257020445736,0.022527479790854153,0.0268433652100913,0.010793392304352473,0.00867347619607047,-0.08051749314850597,0.10703477521931136,-0.10716431829854392,-0.11350499992451539,-0.06095683719502548],[0.1053720290576805,0.004772928900693493,0.0416716749669429,-0.12455149005575517,0.07685841583453976,-0.010545667534746988,-0.008250674344693176,-0.037445070805097354,-0.024265478616251265,