{"config":{"n_embd":16,"n_head":4,"n_layer":2,"block_size":64,"vocab_size":79,"head_dim":4},"tokenizer":{"uchars":[" ","!","#","$","&","'","(",")","*",",","-",".","/","0","1","2","3","4","5","6","7","8","9",":",";","A","B","C","D","E","F","G","H","I","J","K","L","M","N","O","P","Q","R","S","T","U","V","W","X","Y","Z","_","a","b","c","d","e","f","g","h","i","j","k","l","m","n","o","p","r","s","t","u","v","w","x","y","z","|"],"BOS":78},"labels":["ATM Fee","Air Travel","Alcohol & Bars","Amusement","Auto & Transport","Auto Insurance","Auto Payment","BMV","Babysitter & Daycare","Banking Fee","Bonus","Books & Supplies","Business Services","Buy","Cash Expenses","Charity","Check","Clothing","Coffee Shops","Credit Card Payment","Dance","Day Care","Divine and Donations","Doctor","Education","Electricity","Electricity & Gas","Entertainment","Fast Food","Federal Tax","Fees & Charges","Finance Charge","Food & Dining","Furnishings","Gas","Gifts & Donations","Groceries","Gym","Hair","Health & Fitness","Home","Home Improvement","Home Services","Home Supplies","Hotel","Income","Insurance","Insurance refund from Hippo","Interest Income","Internet","Lawn & Garden","Misc","Mobile Phone","Mortgage & Rent","Movies & DVDs","Naidu Gift","Office Supplies","Parking","Party & Farewell","Pay Benefits","Paycheck","Personal Care","Pharmacy","Phone","Prepayment","Registration","Reimbursement","Rent & Utilities","Rental Car & Taxi","Restaurants","Service & Parts","Shipping","Shopping","Snacks","Taxes","Toy for Aadhya","Toys","Transfer","Transfer for Cash Spending","Travel","Travel and Stay","Tuition","USCIS","Uncategorized","Utilities","Waste Water","Water","Webull"],"weights":{"wte":[[0.40710943471523287,-0.1277706673065998,0.01774744122028219,0.41594819516233045,-0.14347741790158358,-0.0005003644819408745,0.11594496834803593,0.15462297130445185,-0.06468610878961006,-0.010252092279692043,-0.006762072494176407,-0.3501765652891255,0.13351577047948684,-0.34316696053915036,-0.24596385032091675,-0.3878357667892175],[-0.2779184188036309,0.39522655498424386,-0.0201707071082475,-0.21100229099093484,-0.02826061578709445,0.07964431177275451,-0.03962696510627366,-0.06504981851597884,0.31802317037937944,0.2628977144334496,0.1453585746781115,0.13587299435041045,-0.3826820140097507,-0.006285587306349308,-0.042802526662944755,0.22933149397452054],[0.5395785668484036,-0.2692082169782312,0.32316402604977773,-0.7279245908755444,0.16455214138351806,-0.8616328204793929,-0.6627038917745165,0.046946812614345516,0.2406098933678529,0.863267775052847,0.04063017572291419,-0.31971106211065164,-0.4297381623844347,-0.4782611849323874,-0.7380649864081161,0.2725099358963025],[0.10044148387646562,-0.1912733589686937,-0.08677986690963654,-0.0777167137469962,0.02968945318870751,-0.009404365623061104,0.050179807927251636,-0.03730523641653067,-0.002476755646300559,-0.12433643763100725,-0.0833168873301581,0.025946535427014382,-0.04274600462156446,-0.0498131951625691,0.021355424498457884,-0.011017144587748577],[0.23999360761632854,0.3724828272832083,-0.0025613640944521267,-0.12460354156724075,-0.6149060932157837,-0.4882544050589502,0.2662843264744034,0.2704784065024604,0.375776358078238,0.6084985808900754,-0.7809474125132846,0.8409588938187368,0.5435941997936854,-0.35693012185121525,0.5392099978056205,0.4745385370328536],[-0.3845841205114183,0.02865337906076032,-0.22842355528587782,0.4160774950471054,-0.75479237127287,0.5166804640237748,0.7963541897850418,0.3225621086002048,-0.5226099099955934,0.12362191654073974,0.511134846508167,-0.16816350764612023,-0.31454660219494845,0.36138529280555537,0.001393796355808482,0.23249368094521133],[0.16961358529672782,-0.14067064182572214,-0.06510228182993212,-0.08568503975408787,-0.10878417578788808,0.11144150115447841,0.08386963128212739,-0.19236388942979965,0.04033561641909136,-0.14501765918177262,0.015160175050966349,-0.10139884753847753,0.053787599245179354,-0.009638545720454542,-0.2050979881805336,-0.14193610052971548],[0.1461633619755454,0.34476639808422177,0.17431395210689377,-0.046669003583059594,-0.014045199888029367,-0.12455311246081097,-0.06048348056144732,-0.059810643508921284,0.1351635116309237,0.11197461213283985,0.11591808727594388,-0.0407737617145733,-0.06967491902841301,0.015177410145647437,-0.25508334522585124,0.06357866662420159],[-0.1737239335701426,-0.0033303822467827446,-0.4647487810083302,0.05861687825112829,-0.3356700768168075,-0.3134771539472676,-0.1639882771265945,-0.011813610411801949,0.13394086615661452,0.002547281578492142,0.1835024984280683,-0.45879800735838283,-0.3710508623956192,0.1741634815471966,-0.19108058558398477,-0.034119582970990464],[0.37575358193715647,0.2545975336527488,0.132693054469156,-0.3877096622594933,0.08057095735929493,-0.3596109721131574,-0.03918823614763042,0.3973953536516248,0.2482384017679248,0.24734284852391394,-0.6110126629226384,0.3846086020059728,0.48852993871438327,-0.37828297726633425,-0.5069905916941118,0.6513700682637797],[0.08561706962455219,0.02404169574860579,0.47325478898704376,-0.1877843699743423,0.0873693740262885,-0.05241242817572371,0.25384857921871284,0.3770374656360393,-0.05503671284198874,0.18395134824951567,-0.21000925794758438,-0.26238541276058275,0.01540330890631236,-0.4105917123702699,0.052858993965822304,0.23965471138841654],[0.06376140120553761,-0.1325577262517624,-0.17635831210477598,0.2691533663187245,0.30242202897026776,-0.4060310601358372,0.41702732811693205,0.12315507387204296,-0.16286432564624473,-0.02159477851302784,0.17305009396356974,0.053357103247659805,-0.019966161808157044,-0.11172983895167661,-0.1452444262218139,-0.08612964666780752],[0.04696106183796051,-0.23687280863992624,-0.003692166296938824,0.1010088128491489,-0.22557383726468266,0.16661676316555807,0.21461978607579227,0.21744696830704938,-0.05059948095748377,-0.017347441154598877,-0.07278003712026965,-0.01848528377588847,-0.05775344000970553,0.023203607464657584,0.14572914222181743,0.007901791762191166],[0.3607271444101378,0.08779741922324208,-0.11970575102646641,-0.1828546294748968,0.406178876110326,-0.031801314462954644,-0.4090887627682855,-0.20258489165557164,0.13981596630395643,0.22232415800394761,0.018548717683924222,-0.10186996156926753,-0.4206257970727001,-0.47311185483394624,0.4290906199021568,-0.21556902773498507],[0.36235715765966103,0.07430012996155591,0.0337638652223194,-0.23845313876173574,-0.09050040776488767,-0.13673399019441465,-0.21125076352047834,-0.2013420069242912,0.13337079492549786,0.015699699894999832,0.18426630355099155,-0.15917143364418823,-0.5385594157520774,-0.30532847236337685,-0.11246523676796295,0.014028025235339036],[0.27705419052407954,-0.022712114800516187,0.17819580403636745,-0.28714433777351084,-0.32691812523208114,-0.16503471567922112,-0.2786959471633727,-0.427498853598148,-0.1344745591121934,0.19188028925584139,0.062100998761077206,-0.030277227659076363,-0.23705442255157097,-0.25826106081400174,0.26855702005701765,-0.3365637539007674],[0.3958853817896179,-0.021850693630552177,0.14524453612313423,-0.3018142783554678,0.02143801694613583,-0.13827020547363011,-0.8027800392239595,-0.21561977412866717,-0.05252340943839852,0.287990806218416,0.4147623144792906,0.0014914518864275982,-0.032648422023274636,-0.24325893118511202,-0.11339315887210877,0.24608341270584896],[0.15660483232162628,-0.06083373406107451,0.06549565146560621,-0.06611872961689597,0.08918731838650326,-0.3230861328287651,-0.1818964942925954,-0.22456342340369168,0.24835860692704143,0.17522930614121865,0.23196827538259004,-0.12634394859917464,0.035222370948245735,-0.3060161493657826,0.10268035659527812,-0.046750052684643606],[0.19888784107233284,0.014793091962119063,-0.06412193057850715,-0.17002014220794048,0.058753310278596316,-0.008625447530070017,-0.12670891710204465,-0.09043221840772146,0.11901287727936288,0.09491392336562725,0.08559224316490806,-0.11901744081777968,-0.17389847992041543,-0.12230461736462506,0.04873880012684356,-0.033130810540803315],[0.46492179216159224,-0.12702393282182084,-0.07119201883976457,-0.36214124325820995,0.13471097110763638,0.03379526509822759,-0.2382624561894725,-0.06213097335696782,0.1713843413187337,0.1454248511372443,0.18147624012217248,-0.05200611780414714,-0.15039127039693942,-0.06865987603510915,0.1409920668646111,0.06579966004371081],[0.29807028094825705,0.0045150091742361355,-0.10890360682015453,-0.035786741832562224,-0.0003436100208138557,-0.28358575375185074,-0.2876595792301402,-0.05198134432970956,0.29361102107982984,0.4445951624882049,0.27794047765442453,-0.05435393601516985,-0.2456065613046004,-0.3032247233653794,0.20957131135916854,-0.04347939186274191],[0.18167872573781535,-0.1517381628676678,-0.1549423614449282,-0.13718596106194528,-0.0980501799586038,-0.1630535318578175,-0.0906521256277858,-0.2645233755262959,0.1432021494386098,0.3704058595979363,0.09196412471782256,0.0027342390246223496,-0.22435393761521874,-0.1600136471390223,0.3738799918850359,0.0928172834479865],[0.4379036051327225,0.11658857463261016,0.048601523096889185,-0.24687935677222556,-0.006447961553243876,-0.3556731222284535,-0.15796396590580247,-0.1768505311559147,0.17234105203788266,0.26172131416868016,0.18823806383817127,-0.028325856111056754,-0.06624710383902861,-0.21242411483647664,0.1880163716145052,0.03232757295663748],[0.029600986205897746,0.028826326464840134,0.7618748068215156,0.3794432877198409,-0.15994363567878372,-0.007962793894950726,0.23073368886717863,0.1914566974157476,0.04465342415558186,0.30422439652725236,0.06466221741284535,-0.27556193976485716,0.3093978380910427,-0.44771379004405604,-0.3270442748333718,-0.2424034691435431],[-0.3077304862466247,0.3479459356771332,0.3473266361016208,0.03763467946284682,-0.35082525514244794,0.08567519166337481,-0.1486563618963685,-0.15841495536313296,0.11712102153060266,0.36231109743447376,0.4250501089398025,0.0319672870459318,-0.49024619481082216,0.1661617338646368,-0.039794597583353686,0.27031900002604137],[-0.25949512973923433,0.05903174213073666,-0.2484349687514797,0.19098408875108094,-0.10611870188362817,0.21524230815870782,0.11811182301457396,-0.057138683921623065,-0.22661407472527004,0.40188723636320817,-0.19677595227061098,-0.4089861033312072,-0.4769060982533299,0.2284384690430882,0.21695458558934838,0.15734281644732676],[0.031104550781806156,0.24879756330205835,0.04450719453577365,0.17034698854410668,-0.39676500659842345,0.08327947356832581,-0.043981962337419314,0.09365999174208033,-0.013641390564604205,0.389288959761236,0.26971689882585603,-0.14607028087037394,0.12405958699135224,0.14168084740076176,-0.06050759060399906,-0.3375956173281464],[-0.19642403881074663,0.1928021454272293,0.37766195132292685,0.06913055232583075,0.0831396602329673,-0.4560955621704719,-0.3303516183794993,0.231404866879406,-0.012568642430758281,-0.07555479024401088,-0.3377152890902833,0.13984877870283768,0.0036491105187896017,0.39424114754214823,0.36332321369766823,-0.4816526101494099],[-0.1287282643398351,-0.0052718873355132,0.025424872860072324,0.13194325750801683,-0.07949683541048551,0.3324668514171029,-0.11545609433822047,0.008995235134552543,0.03292680629284568,-0.2170922416295538,0.306177914491799,-0.2243121869158748,0.23585511212446167,-0.07305710630446234,-0.2143766214753992,-0.12430989088767243],[-0.2902907073016629,0.12353050474981418,0.2162499960639299,-0.0992309232468428,-0.05205152661576688,0.02099701975741815,0.2985928455747138,-0.3486209964034279,-0.5342333882526588,0.35525032636083353,0.035199904295396565,-0.16174413865906087,0.3309224898359855,0.298965890640123,0.15683851220418898,0.19700986880667298],[-0.4153244516418062,-0.057304050534630745,-0.6197887748775832,0.6069442914146115,-0.5359720821545884,-0.4377818589235153,-0.1332627442702828,0.11833400874196585,-0.20357404921291092,0.10902058755992376,-0.0978547238516288,0.40319359941234567,-0.2804948526968154,0.030514137909045193,0.39976289932171166,-0.17784202564339918],[-0.6404818651464349,0.2187601062495417,0.0842966072942426,-0.06619854920923154,0.08050635913670806,0.07309199576483182,-0.5889957443208897,0.8698597484923712,0.24494084332051144,-0.27121928987234245,0.09969648533685974,-0.3229982904135692,0.49445989529976786,0.5947623884389215,-0.3465388663561802,0.11716385371383031],[-0.39497385938541846,0.38440107012973157,-0.012072037707289653,0.46690663184741765,-0.601989920805964,-0.14304998052920825,0.13437067128331953,0.2819381413520484,0.052616539154090765,-0.0275273549971005,0.2668734549187562,0.1224026830424761,-0.08438013349587012,0.0829655075767806,-0.317403786365353,-0.1456143752770753],[-0.3261990072356473,0.11035138825432182,0.15775611494805133,-0.41376433252755396,0.19824473918659372,-0.6152263741606399,0.21422328960272816,0.27489228309457825,-0.6314925443805092,-0.01781203503812099,0.1961509436497285,-0.018558405773412542,-0.194214484779439,0.30760646265786395,0.383192119839929,0.4350967418381964],[-0.3161561112704597,-0.10333351081123807,-0.20303310782760361,0.11316878873342824,0.11751939435161067,-0.2409417863732449,0.03543125694278373,0.03547579153864965,0.0740474454567942,-0.11386586642282384,0.3315483567979388,0.06097828491620582,-0.06865383367085937,0.03791293326826538,0.25199147418763385,-0.1021317741355184],[-0.2180348000598607,0.47574354952923953,0.1460035462315854,0.0006822501570215798,-0.3681808689326239,0.22033711174329118,-0.1832329840380809,-0.11000369537914693,0.014014947123950594,0.2552837801287232,0.3921839194032884,0.2710302988131457,0.31984358705131727,0.08799020523019338,-0.07298774639123494,-0.43554479175115557],[-0.10265161532104448,-0.04838775061264576,0.13443401458047594,0.27466666298039105,-0.3104036806575857,-0.05487262768074996,-0.1696545424890737,0.4676297238140767,0.03668449586585138,0.15992548165176987,0.4969345102873413,0.12232293918882184,-0.5277652292309428,-0.014158244505447679,-0.15083307294432088,-0.08482140989837313],[-0.11832754770052761,-0.039677726641546916,-0.11746998810147241,0.17565414872232243,-0.15793578824511817,-0.20924166985228712,0.20798182820557837,-0.07351354150046659,0.21336421307561462,-0.3371823836534826,0.2782994850167976,-0.07862175497915941,0.10867853188121913,0.2178597289204183,-0.1034837036101349,-0.18948817432880335],[-0.23023912934955865,0.2297151676373952,0.19089825961062507,-0.20433825060129618,-0.0911309455929979,-0.16675257189874815,0.5347512110180114,0.0462805706207846,-0.0011343929565389688,0.0822882316555528,0.4580163831032484,0.47955951753043113,-0.1504840873761389,0.20732510292452752,0.02991396845514843,-0.27208350024210604],[0.07186107994999061,-0.18273042496146538,-0.004526194514484184,-0.32911324123197777,-0.19597641478479028,0.05880727516088218,-0.08259286965364593,0.058365058334418164,-0.4628737003190714,-0.0676384309647063,-0.25201502286014904,-0.5343363288049899,0.17186240801830535,0.4687221874441487,-0.08229868866714632,0.017753564079066437],[-0.18243838750367558,0.09602251540621203,0.025455753318994016,-0.10877180840846158,-0.06388350103391342,0.09024637734600507,-0.5050081242894101,0.2629494538293954,0.16625290348261534,-0.09583377928020642,0.32737333212588027,-0.010776802967648427,-0.007830689263553951,0.09429180667875937,0.5477659624845618,0.007683617953122769],[-0.27110157253126616,-0.22439196936546907,0.19298398987152046,-0.04585659843458016,0.5315932379611162,0.24258262964984614,-0.3101601679185601,-0.3098338031856681,-0.294235775850534,-0.29901068584536145,0.08587652669454099,0.2911935450835903,-0.9079714856166101,-0.23507964999953565,-0.7716551046668361,-0.17414693024877093],[-0.08419287510689853,0.4984572618704557,-0.23686897683943214,0.1036075279212549,-0.4554586375249144,0.3417533362289778,0.0801462844484426,0.18604901177045122,-0.09422850857151643,-0.32757781918364737,0.003983135597785242,0.1113760060383106,-0.04052962218514977,0.20230778415390155,-0.10450053942155098,0.0044121132487776014],[0.14819754824284218,0.35436236352762124,-0.3979857745163166,0.2492277524291791,-0.09544805818477287,-0.48355437893454034,0.1394837254927655,-0.04081231753853499,-0.19738184670562545,0.08978900174561014,0.3253992863828776,0.21767957938136193,0.2008418669598533,0.22061712222885208,-0.18774920196263176,-0.07705013863702774],[-0.1567048461030432,0.2442359207094358,0.2251574307066648,0.5353146320486198,0.24418911156220754,-0.031162732358950646,-0.047642993473619326,0.20977718701406312,-0.00024995405758566826,0.3910470708135869,-0.05739251546653241,0.03405536495658232,0.36453373263671784,0.15166357171758413,-0.32807219410810395,0.17355079031195486],[0.08132537716609191,0.10257919661238447,-0.11611825329247977,-0.1480906281104822,-0.17605517717828084,0.3814060473222656,0.18082022255231148,-0.21663017824446162,-0.04446828342468293,-0.18483540969325887,-0.1852593850928221,-0.29616225772232907,-0.1549612015753441,0.22337604642153203,0.214236559645231,-0.1696892175559502],[-0.007639518775949363,0.05848098341747631,0.02559525728790679,0.08515233483944762,-0.3713773865358467,0.07633983557131818,-0.003964394762824866,0.11029575109594163,0.18989856153853668,0.05740052339137021,0.4740216625099176,0.01337901215366354,0.13933752950472728,0.08925311867526588,-0.12368122035833669,-0.2335644941413488],[0.594155000650843,0.0746219169776239,-0.6102913495551029,0.3356021796537845,-0.28479260177320875,-0.345580670344131,-0.6752811268810419,0.5434135597057191,0.8919652735747824,0.14956354233104677,0.8681202155058504,0.2049114787800046,0.47738515656140873,0.19017472157316898,0.5688277153226541,0.99025836595419],[0.30383199995736765,-0.09311035283910055,-0.006243259166276016,0.053273810113107896,0.12308955277604727,0.19171700374436904,0.21083078716364334,-0.3433399235278122,-0.499997773550862,0.08759205924557659,0.026472770656764164,-0.30485071662684254,-0.23582706757988572,-0.13312274469683383,0.12053633514933046,0.14870494059971248],[-0.3519779518167955,0.14227340689549847,-0.03138108748636305,0.08006224134296337,-0.33726898716844933,-0.5133862685615015,-0.2072856143281599,-0.15982323890077857,-0.24834246768228213,-0.32825418721019567,-0.011955280850788407,-0.30788890873255564,-0.06455544385217472,-0.05287719569315413,0.1500042488351266,0.509007692839035],[-0.28835055595568326,0.30348353967160696,-0.5813627827348874,-0.2671794082838711,-0.32255613855986137,0.2989846712897554,0.12293681281151259,-0.16535200992046617,0.08032206072308759,-0.4686905197373647,-0.08875339494304721,-0.2631850919347041,0.10317655948420733,-0.21612562595319107,0.187653905192663,-0.042307203975888066],[-0.05375589028568431,-0.14904166251763562,-0.06179702608851146,-0.10483082084127017,-0.06440544201764378,0.07248833598350987,0.18479257390889728,-0.019307244396505132,-0.013801604675833027,0.08682050702307274,-0.032383283932523405,0.026433033376840945,-0.12310000576197577,0.023469910344416152,-0.05383843889272276,-0.32280453033500417],[-0.4187889283724161,-0.4605830509087313,-0.06010628481066168,-0.2672644383615937,0.592264363209017,-0.145419446717086,0.22669362138367014,-0.30451767963186943,0.056528399196569296,0.07721869950802057,-0.20217790086663306,-0.08570973088428055,-0.16225545194972887,0.2543172385474787,-0.20637669937755207,-0.02539509946780488],[-0.3163935103282652,-0.09702712526791774,0.25128065992838616,-0.06437273024000312,0.1400412310152245,0.07193805976336941,0.035352592948538035,-0.2600962775931747,0.08771666738866607,0.10611537020191836,0.3022958380290977,-0.07756189637083072,-0.2575936159320956,0.14727965040291366,-0.10754103402080868,0.04446617568712307],[-0.41248242876630786,0.23736957100726644,-0.6449808694335745,0.5015303958170053,0.8344833072034036,0.48981145211320254,-0.5755141605581537,-0.6175203032843436,-0.07130612975098542,-0.38531585505698074,0.36050601621252704,0.0774626457495162,0.13188570470230185,-0.0468367975098883,0.2781751246267764,-0.4135417035757511],[0.08410220626284365,-0.012610054690839288,0.5337985016845864,0.38659286550805116,0.11107337041530126,0.5579798200800645,0.2856982029798661,0.17034084173378047,0.2101755681343008,0.1512296896287463,0.013042902311751358,0.5014778814328453,0.5489771748683018,0.10073439885562231,0.04169126421298785,0.4494621141700889],[0.07665734776372639,-0.2085006005305146,0.28020690071274607,-0.4409654591458448,0.09150561555225531,0.057723067853764534,0.013080373650873965,0.0827601746701575,0.13511771636162676,-0.06617805814569308,-0.25549120849286105,0.19982815926616507,0.257395803873758,0.2549528983156731,-0.07129019295907653,0.028641523524679153],[0.0010726276053627717,0.08523821985888579,-0.17630427455612555,0.2089352862768603,0.35600918520287655,0.35579027253710427,-0.3591884051664862,0.015731987266920287,0.3524670493546822,-0.3367722181443141,-0.46014500065272607,-0.2604440972024893,0.056080146410625364,-0.21420034932920864,-0.4846324127864008,-0.016023986421918865],[0.4267544967739203,-0.025176621370840747,0.10189799748636401,0.32745502897548356,-0.10220570687395907,-0.336986899732158,-0.12757803717772753,0.3056331044409312,-0.1253175684278247,-0.015151187562436325,0.1580290177087728,0.2152653467551264,0.2865049271275012,-0.2013690746392869,0.2351402467739207,0.41456033168633316],[-0.3169834796660897,0.021603951632160272,0.048449949628664474,-0.17887888974290692,-0.16695173342375116,0.21534769609316262,-0.3501227265306743,-0.30619089306926156,-0.0956446859772979,-0.21827294702041034,-0.21176805772794266,0.8405551606631748,0.13366385814398615,-0.38500295152636427,-0.02061731476803847,0.2913074582043092],[-0.013344165618192492,0.35121416996747246,-0.13320208518131604,-0.25715472528093386,0.42283477169798345,0.2189061301633736,0.4762937521175034,-0.2695588826115538,-0.025537822142404073,-0.13115321940307023,-0.26543704395263656,-0.09562244715038604,0.0061402348686740126,-0.2919515853127731,-0.34752695552693735,0.15558476542657093],[0.054213821110020516,-0.21943027352831626,-0.1007345367129904,0.03291518595177981,-0.028400617072896508,0.008905436804881947,-0.16816487546532816,0.02101465301912729,-0.02514788157308349,-0.055392604930707315,0.14604742096022777,0.09695317562224605,-0.05927164867069757,-0.08888080778698566,-0.07352725959686884,-0.13832199907676868],[0.79609980803947,-0.37490816663085436,0.3403130933519105,-0.16026548112309447,0.1850431496861438,0.28781187165732086,0.33867433203245567,0.076795618621185,0.25814115614725214,0.20309986394704085,-0.20061467965638255,0.22260116212497064,0.20070492416967864,-0.42731612865882684,0.7476707471353671,0.2767602997473384],[-0.042352896955397984,0.06577253090650331,-0.10586532086439283,0.25108663513024804,0.3566356945751293,0.11988086446426258,0.16996040431128065,-0.08193146532660613,0.1075505739568463,-0.208920533555536,-0.1881231831375385,0.13917094318514667,0.10968743042017852,-0.2514849353106221,-0.2741884866784268,0.49911876870045957],[-0.05252127580786079,0.4008230025082147,-0.11791290503446125,0.11968793496221149,-0.4235079000179529,-0.017683238318246353,-0.4346990190714834,-0.19902521517584593,0.1199418819400011,0.003843673797655283,-0.09899172657982376,-0.15397017492377324,-0.02638842827568273,-0.5420930802037381,-0.4206368087384869,0.19780201705578546],[0.05131796572338467,-0.031939882086842855,0.15974782714487662,0.04550362774587258,0.0006735205979879962,0.3964784549636682,0.2423478470385479,-0.48281008820984084,0.3913393439279524,0.06418308282346293,-0.12978541502952792,0.1545009383804521,-0.14400920091885197,-0.08551082122266744,-0.301975481978049,-0.39875133624352194],[0.08163173586770492,0.07624296136169864,0.2203280913347961,-0.13776367268290882,0.061340155047282637,-0.6087695370704789,0.08528386359407791,-0.24925678380625252,-0.04143547186644718,-0.33007476135798697,-0.47920000795045675,0.1201958222265586,0.005612927589033556,-0.08159335615753928,-0.3467524249655034,-0.01995857137982133],[-0.4449779446584465,-0.27228371171902116,0.35241090046401535,0.15246409233542593,-0.1931121952357805,0.03274531525706327,0.053100611952384524,-0.3345726122448944,0.48217351529183405,-0.3749411119425492,-0.45491166318734677,0.4930143424884854,0.2255465305472841,-0.12901160504117548,0.11942904992118085,-0.30018833586896015],[0.009621500125507103,-0.10112416492659493,0.11210743609323591,-0.14051100781758885,-0.2420854334151847,0.025728292578557282,-0.019910668342358225,-0.1826966804428283,-0.19280675290724136,-0.35206428555845226,0.19410132136943287,0.3014903695620927,-0.0744319034789834,-0.5304729192854887,0.2646354683405423,0.1566102028748364],[0.458509535635761,-0.07751205090488768,-0.23978098087422164,0.11858587566842971,0.3168697628341499,0.06581196537259275,-0.11830472352543542,-0.14942516718639315,0.07918518169824838,0.16053663592286546,0.12056169796285608,-0.13184400588674156,0.287858508850129,0.05182133560816853,-0.04014219521529348,0.5651915128479164],[0.2797154559623178,0.27447759334311406,0.18800296462666055,0.22850559572738163,0.4513036577462133,-0.28931795352110723,-0.18757361864619918,0.037712035065130815,-0.07178726879976213,0.004482728410165228,0.09587775528009362,0.5029392156703335,0.6990658843137211,-0.2907855798492336,0.0756733258450048,0.3539147913700454],[-0.14906328114026038,-0.38293205093054256,0.4117318286624304,0.026506747225776034,0.27922500924915017,0.348299232909197,0.14596997778165594,-0.0048819829294881,0.07817800109285848,0.06668393297354411,-0.1797490551190075,0.0525917209708571,0.34832605953376655,0.05436072194998409,-0.25508274365833156,-0.05234270917124947],[-0.16878954357546028,-0.13464223181090645,0.06667333662441126,0.5283392348400953,-0.05818525794293627,0.6831176008047151,-0.14335892396433367,-0.15152511393512835,-0.01602516058610332,0.08599322882388288,-0.20902697833558742,-0.2926824372657872,0.45787668586098557,0.3504734969994109,-0.31002754986549,0.07253095432320614],[-0.17058378898497167,-0.2255802944700394,0.6542310194997335,0.08211925921987817,-0.1678631364374996,0.6101355979052198,-0.24899625098981426,-0.1919423730776399,-0.2614482876164018,-0.583944135993655,-0.22951587787920502,0.22181327755019595,0.36998509853261036,0.07584717503134128,0.4987877656576997,0.2342591405400279],[-0.11503598710124413,-0.2905541676509745,0.02712437670091243,0.11079278933846162,-0.006099872717644369,0.21150237510593825,0.19872688329239413,-0.2778607926839618,-0.07554043387267063,-0.06239077037611756,0.09105382364611452,0.05134651192614576,0.1752157484188617,0.054985612966926084,0.04337503823587658,0.238910775213882],[0.3340042351958554,-0.368250497221012,0.0005485216473569231,-0.23451733418718468,-0.49048538144506987,-0.37595308622660195,0.5561254294007101,0.24085213279312695,-0.32004936242191756,0.07993174306196243,-0.9187297401102279,0.23359912330778537,-0.09496631839895546,0.1902814018730536,-0.31826452289637697,0.43147673929474545],[-0.2842707602512243,0.16446857502995071,-0.035336866879936396,0.42996955070159504,-0.02606876917572876,0.018530735801373856,-0.017934796138516677,-0.3935482811410605,-0.12437034248936556,-0.26084707348621655,-0.22179644342825086,0.10511641517197998,-0.10976508583070359,-0.034714761987352794,0.20050783643541892,-0.23974948197911905],[-0.0281756269474649,0.2402951551726138,-0.2875000534986984,0.4135432580330937,0.19487433738954132,-0.22140809491502284,0.33225717715332587,0.5145127583810957,-0.19257270570345436,0.3846433999065498,0.36016451073460015,-0.6336767491995181,-0.34922838980472565,-0.10798738299481202,0.3207299758683821,-0.3942529483067173],[0.14155591889681818,-0.06120206996513875,-0.05271887578216794,0.03992659596591092,-0.27312867440159055,0.028040727449800917,0.09502005738371061,-0.09826927970296262,0.03324783786809717,-0.01412605019563981,0.03187075883692833,-0.07416822234041354,0.1182449985242931,0.011020129463271328,0.14052252993394282,-0.13668753994260813]],"wpe":[[0.13640191187644451,-0.04982757802124674,-0.08808737926722043,-0.09906833227998535,-0.1724722184030558,0.09700365587883027,0.08411134763338887,0.04723305146490771,-0.18794297425272571,-0.07296024692050741,0.18531952329593568,-0.05836934303660451,0.2591252087210933,0.03640512530182824,0.11278597985743441,-0.08776296963245905],[-0.03295027062723431,-0.13583359229957606,0.18330218121276817,-0.08894595960072257,0.41804594162286657,0.08127100695444174,-0.223715227509165,-0.17362601944059308,-0.04405529838775293,-0.36046668365582374,-0.14706046252237112,0.29180973906540214,0.05515878455707583,-0.22044938831249625,-0.3528435532751773,-0.06319996278283006],[0.12426535002478997,0.02887037567423884,0.3161879680432255,0.2877031895554343,0.053452122351576564,-0.12293862679374908,0.1830304490821115,-0.35718160409459776,0.2910892004272559,-0.023822746901507985,-0.19554621321524268,-0.033071455677293624,-0.021701139346742088,-0.05686269874075768,0.42933833342325195,-0.26087241135039185],[0.07129638843202672,0.07879677175038477,-0.47513745178087546,-0.28503314938285823,-0.40923753307225275,-0.2230875840793262,0.11645682337213167,-0.275634021966953,0.12887496077101815,-0.10771530775392205,-0.036287959314530924,0.21441748024334792,0.048478713744068765,-0.18919522170472686,-0.28265826495317664,0.015440076390797483],[-0.22987963326408314,0.08864537346048554,0.3367078359367337,0.2630196667264449,-0.12726115272481234,0.08645339694555275,0.027420504570046373,0.11920721885994534,-0.18523771709218145,0.13244647195121204,-0.05772335563986186,-0.060164133832779,0.4199831938720731,0.13091737480562082,0.18891422623055418,0.36820527645979295],[-0.025060715742192746,-0.2831128292138003,-0.2911855617833589,0.1498421427359451,-0.2608773528010917,-0.01098090178163284,-0.16309993304654555,0.009517038603079274,0.05156422910184849,-0.12340163428585284,-0.2416694551081352,-0.23374131923234798,-0.027943359806126153,0.3099709554634065,-0.39301606720381477,0.048610541473122375],[-0.15193681730052663,0.004160570306455233,0.16994952415980744,0.25492546494146334,-0.11273646179511279,0.06912512674287766,0.254324136400127,0.07492081274453849,-0.10711077582594174,-0.24554476681558035,0.020431852849588327,0.214395616691261,-0.13846120947802656,-0.20875804037581366,0.03269252354821382,0.12983064903853744],[-0.2886637840729258,0.11947827460233214,-0.2575646059186406,0.32374370036559963,0.21564621734849446,0.18097440721052935,0.2409509088970721,0.10435930455343527,0.2772869201151868,-0.13160433669018207,0.11054308305827502,0.1477358100913102,-0.04999548089208037,0.00969791354603383,0.08403427934105857,-0.3706570484939736],[0.25460433588799436,0.02743065170893226,0.15526725509396347,0.09489205245639319,-0.05570481888099058,-0.043668966618696736,0.1478290564940328,-0.004758689248626841,-0.33210391071605805,-0.033870193648985025,-0.0007441378998807135,0.22648527547130654,0.05971584307340632,0.24374835042094553,-0.008418238500773919,0.27966264728669527],[0.08334317922605344,-0.02150413037018559,-0.23887613700143756,0.07725873530333002,0.21201365193271593,0.1848222419653513,-0.31930744299602215,0.16261981064309208,-0.2102828139797638,-0.10922404750613701,-0.021942072953695824,0.2222555260604146,0.15122106562261672,0.13120208062309052,0.09062030756919903,-0.4470344574055485],[-0.09377404775289895,-0.01514437795580137,0.23628587378243956,-0.1216424897503185,-0.13292080840624723,-0.14550596555877648,0.06087151943155937,-0.06441897803319725,0.20100347348339673,-0.08674904342142933,0.08867325737749096,-0.1384822335829042,0.02617932619342851,0.13907308932404444,-0.17289407533816195,0.016311898329428354],[-0.04924538600613943,-0.1652576758029193,-0.23601266639671636,-0.23639318016718638,0.016891907461755583,0.05511357617409778,-0.058337012294980395,0.06642822751941943,0.07431779395547732,-0.10154459347563358,0.02966063762325002,-0.05101097375091705,0.009676189136505779,0.05488296622898898,0.24472651861875944,-0.10301497710381928],[-0.0964698248901397,-0.0589733351888738,0.1573384886840142,-0.004909145854790303,-0.039539836458907365,-0.24390066542664304,0.15907067492860671,-0.012880131076899946,-0.20137937956492885,-0.13956434537196083,0.14530235544201728,-0.2703905641571055,0.07673406104184509,-0.0907359003221244,0.29337234166846465,-0.10705351830613034],[0.18436564734368177,-0.03870872500698268,0.22317170745200088,-0.042292075344711424,-0.048920935751575766,0.2734588052837887,0.07225683698961598,0.029550025866366778,0.026957161727563815,-0.22671834960991244,0.19673198067993874,-0.08566186082656368,0.04404006045774312,0.06718321766663868,-0.35109720784340587,-0.08144480457099221],[-0.26225588157459273,0.02898326496450401,-0.00016658541299621673,0.10772377318671175,0.0386777616042139,0.07361746388789044,0.08875355203009713,0.09238775308055779,0.08710625028004039,0.17399566311419168,0.18115774165926402,-0.24430283292060848,0.006676614040188468,-0.13099981057812668,-0.03513533366280651,0.23934134640090285],[0.2400513818361997,-0.019843778517110538,-0.03049702797525969,0.2130639035553562,0.05002038573345368,0.10196332033586894,-0.10607044053882003,0.09455632986711857,-0.19514661055389065,0.018479547229952827,-0.08989948141759864,0.09995953311698985,-0.16148306231503148,0.1340719798759128,-0.014884408772701871,0.08540635658282635],[-0.010986907853892522,0.13625765897235959,-0.19092626489162054,-0.21346604035887817,0.18659522552084504,0.19663817860540833,-0.09466086250935293,0.349790422333567,0.07382532821572511,0.20902635037777675,0.04167218437394085,0.025766997539609735,0.037377793723129944,-0.1324473848203075,-0.1609861785396595,-0.11004084553551455],[-0.15128186470536087,-0.2293376782035563,0.10809539657989421,-0.14810436140428357,0.024895266167184495,-0.0318886782261761,-0.05022246094751384,0.029395158844283783,-0.25972156140815644,0.16878006891817232,-0.050743746662368194,0.09281528038672283,0.03990738134568104,-0.043347119606422096,-0.12448845661651158,-0.050229135714982824],[0.13210742581918053,0.208242005633416,-0.0035696138693861123,-0.03672545156739465,0.09660645538736844,-0.3663592458239693,-0.003835159431204645,0.005455680085823258,0.08346793205201307,0.0800455196872731,-0.2577192051698255,-0.1470838110833629,0.07884422527969495,0.18273580986742674,-0.03183094380402941,-0.08293430207509116],[0.13608190970506606,0.07444761094964807,0.2085906836467978,-0.06756206840968286,-0.2820596492130905,0.13828842804961367,-0.037730702483369405,0.15272427887112763,-0.3516079524072183,-0.046115226131696885,0.4346929320302933,-0.007299911158366537,0.17769185301689566,0.005003732732550208,-0.27603039432476306,0.17495508435484733],[0.33005195806928594,0.1667797610633083,0.23562805646628365,-0.010905410201432283,-0.2651499243625182,0.08352886587964639,-0.02676928868046905,-0.11996226960277828,0.24708304902678718,0.18994924013024944,0.05531729695209072,-0.25984498089268776,0.06276124663780809,0.4227584745219731,-0.13521281429946236,-0.07167133268140059],[0.252669010799861,0.39727463576260996,-0.08676642912742386,-0.11602622565598236,-0.07187105022709611,-0.016591344375551344,-0.0827214532353612,0.032107207028181504,0.0827002500609957,-0.04979018509999764,0.1269351592000977,-0.28351868576904776,0.15099168970142762,0.06419809149514569,-0.03519400637115134,0.12680735229233003],[-0.020807873715433956,-0.04179715902627683,0.02624532508710709,0.05965230209101515,0.0006082889805898435,-0.12971116218404674,0.014852525415423097,-0.044187806042903434,0.08202641716275715,0.05352814251811287,0.06289542085540652,0.15253814647045502,-0.19109952336315847,0.26106378977406924,0.14558639277085236,0.06487992444212921],[0.004281776673633137,-0.04558917960601113,-0.13871698149760192,0.007309330614748964,-0.09244094048980328,-0.07021455121006007,-0.01780820994385503,0.06706630397670804,-0.05147912778544701,0.1410069782242408,-0.10732706751178109,-0.07446434155632405,-0.03336582384243264,0.1488046814911993,-0.23742447913441814,-0.04117214244879053],[0.13524727444452594,0.20792062869344582,0.06461682510726473,0.03476355751427168,0.06707605703427406,0.07055552912411239,-0.07258612668517107,0.0039622923285595035,0.022200887217348173,0.15839144652328815,0.059973962009449835,0.0473836765631393,0.04567086209715784,0.07705980434725829,-0.03185225641633889,0.144005121216069],[0.002791769197576936,0.13713028378921885,-0.00807631291997127,0.13791310400564746,0.05695821790857872,-0.08142498073194777,0.00899341203015446,-0.1361691588512356,0.011829161468332638,-0.030210319504251466,0.13430814687221648,-0.11408245622680946,0.036941428756370916,0.08868959130264688,-0.07848982939485578,-0.07939211433214917],[0.18763388631862224,0.23996974637973983,-0.0029756657416574865,-0.12294224275691062,0.08145937068240222,-0.120455784297616,-0.11620295167734024,0.02666924902067245,-0.1289768377426943,-0.11552151581982983,0.10773669495954846,-0.2560244776539735,0.051017730051956124,-0.03082444492882934,0.06730100781002603,0.017961828320423496],[-0.01794241534096189,0.06895592164749878,0.0033870735511647553,0.06692501906269777,-0.3302325983610813,0.22505690565155356,-0.08455013684407833,-0.05727608029689715,0.04080717701728537,0.17110910799073112,0.09475169137182564,0.021758302868288507,-0.004818489021254747,0.005212933429122873,0.03912898729250832,0.1271271660823638],[-0.06097049429536655,0.0011717977606161823,-0.14768112547989085,0.09589987194328913,-0.180030531748621,-0.11968733355838551,0.06500345156668462,0.023923744230012232,0.03334790573716977,0.12793885495763122,-0.08117637597388778,0.07897067218192126,-0.03752620685763418,0.016209400799439003,-0.022152637318182997,0.11230923876556047],[-0.21771039251489266,0.2598304843470077,-0.16344738047385202,0.13596071043090413,0.023846006143782118,-0.3035719043539887,-0.2443389529348322,-0.14734679562565695,0.11325739104826878,-0.06450830701474665,0.0452343903463476,-0.06273047820964515,0.0664152852385934,0.16744928556529529,0.0568534245569719,-0.11318490336728197],[0.007331196798060146,-0.024600086254119795,0.13510106983841447,-0.005004022001539737,-0.1858205714438604,-0.1756747301486192,-0.21828531387167502,0.08180865928069878,0.039735477541855295,-0.027140681364879665,0.16262298787062965,0.042050321846913236,-0.16056595989713138,-0.08905773906337842,0.04670262155459862,0.006133501359137413],[-0.23217092908281514,0.04529699392125219,0.001862909890482721,-0.10955505893467166,-0.16437136781416303,-0.2858198257748441,0.3310853920554139,-0.006674974725632613,0.05539549845444103,0.19868063431846902,0.20839146638888062,0.037197690793255224,-0.009976187059851326,0.1450022445590753,0.02485788128269864,0.07970235795244084],[-0.1450437170213518,0.12729201431241138,-0.2720847087132785,0.288329553328392,-0.10276708616242508,0.007796728711403888,0.023513822671119455,-0.21781148447699336,-0.11699783584923425,0.1867968740998209,-0.0005427999955946564,-0.14512005260683197,0.14425823374797656,0.080990531508708,-0.05815872363106387,0.17383761994579586],[-0.05288438846113053,0.17749488049624965,0.007312716387779453,0.22134139786957427,-0.10312043778453975,-0.03964386175369105,-0.06447260235744644,-0.0765260338681643,-0.01669970935837016,0.028280696722216028,0.10917695117365026,-0.12666270448462935,-0.1263962158360723,-0.17375694985928178,0.24037774998086286,0.10774046251871695],[-0.03994217797212971,-0.05995132388667459,-0.017250697714423086,0.10618006042749745,0.050848558772648475,-0.1351777520784102,0.023797161920275468,-0.013545033368058616,-0.0967946472704662,0.037525598783216256,0.16896216079052587,-0.14224772593560583,-0.035036708027758934,-0.04696095386303637,-0.11339050315538184,0.12212382261570519],[0.16855423923729596,0.337097933652161,0.015516872903661685,0.13616598637875577,0.015835780554844192,0.03772423913398706,0.05999970758654569,-0.2281063955696157,0.009731785386351471,0.023463198768915887,-0.11129639603708444,-0.023391711664271314,-0.14765584355607056,-0.25520733169088056,0.17815801317713648,-0.1958643329027677],[-0.07035301483155036,0.083724047314282,-0.20366294206396388,0.20363480453304236,-0.22640723340226976,0.01499958474010477,0.04557325803507975,-0.05496575195222114,-0.045085744943006614,0.29848818597051424,-0.08844298393340615,0.09885512873041583,-0.05841189234104366,-0.28603042488062475,-0.2147379432164724,0.15460989875995143],[0.019597019487315088,0.04618386416178893,-0.22066805930041677,0.07141403994973836,-0.3420670946176371,-0.061429639111768575,0.06751621580245536,-0.023926381102224878,0.33204465881635026,0.10004168418406192,-0.11045907265490873,0.1286552432675749,-0.1568369790963884,0.0826085183868402,0.13182893110174967,0.177124175810402],[-0.029880827672291863,-0.020290908104733937,0.14071009191379358,-0.16630230920693514,0.038060734454691575,-0.20850905419930058,-0.20976172668177104,-0.07015455319443263,0.18674839508860108,-0.03643972697922121,0.09214028066836524,0.07609928579879735,-0.23173543765342924,0.1161359868521793,0.09735864891194933,0.046660466354734594],[0.1653295607145605,0.33261534153991745,0.07501373560692215,0.04100561797070607,0.056332068239301133,-0.2525107171851198,0.018171410746205343,-0.0804168785902542,-0.0691637452697472,-0.008745692113271102,0.0023421163153095363,0.12323269606924653,0.027885723907145516,-0.25930875695123895,0.29704572060668577,-0.15588630325284988],[0.09282908591666025,-0.024739113364764788,-0.08150583416675446,-0.2573692653973987,0.00721882709866207,-0.24765979784421338,0.1054722918600385,-0.049223648153042455,-0.16455720255904702,0.1119825261649363,-0.020389593702537526,0.032337050757744026,-0.0012246362996254849,0.07593845122618507,0.009239507050557394,0.047864010601538234],[-0.2114716853182462,0.5806515340577173,-0.07191752988310227,-0.07822210658935617,-0.25695026674315713,0.10266635682127126,-0.14045144989464775,-0.20870815463097062,0.41191370663334387,0.5038619259107824,0.13984954773466354,0.14508368161421198,-0.12218004626588468,-0.06525676833500949,0.35354681015572786,0.12815621352323622],[-0.11781488986832532,0.1439131950184125,0.15695311587442773,0.15434721160374493,-0.06237859858380706,-0.1517202156705228,0.04164947549802086,-0.41630309568259466,0.044128228606116766,-0.18818583826044855,0.7725733161960748,-0.10438956027542827,-0.244120560684025,-0.1778026360362415,0.24866550151657055,0.16839401204790763],[-0.02022665740818394,0.1390515685008959,-0.04049734670492868,-0.034859546423180565,-0.19311574849593843,0.06807885790161347,-0.19382284893542692,-0.08838412466424257,-0.1524837015058005,-0.06126504844638294,0.18943551080880477,-0.05587057349968113,-0.014486537073002395,-0.15316644971176066,-0.03168710253621631,-0.03697588678342598],[-0.13255133465749075,0.31369366438793467,0.24786679006440335,-0.4367083489327838,-0.42652387558158633,-0.009807381542549013,-0.023965874856525973,-0.08549981502720598,-0.11505196648214819,0.11257067030307033,-0.023105598498221674,0.13718262989408844,0.2693207009901331,-0.18296738149470565,0.2605581724251182,0.1702081556442875],[-0.03088424886639709,-0.16550668921863212,-0.1265520726782615,0.05599773569377956,0.11940845616490464,0.07661124398870126,-0.14261017399349,-0.15054975283785227,-0.011113201442468468,0.31142494912774726,0.18336516222728338,0.05428715536145052,-0.3904761571775968,0.11532998538053184,-0.2119344829632359,0.05735687163534278],[-0.09435961778618641,0.33557455891396115,0.2412283537793058,-0.05584447774384579,0.11172946749228672,-0.11814643938216407,-0.25923140204453765,-0.17883942292684255,-0.049736709255344125,-0.07067387982871477,-0.12388818233385535,0.20469481575253543,0.08085045960296966,-0.300933057471677,-0.018298296657770437,-0.006258776482846334],[-0.028564214045369053,-0.13564186136803866,-0.15465926531223617,0.03847915726006695,0.03344627995587903,-0.165334843914275,0.08011305345145071,0.06280171148679116,-0.4285121967359811,0.18483421878612596,0.4633852596040038,0.4257483153529842,-0.32939754815997413,-0.13293050859579025,-0.1698901264497848,-0.27539122388350246],[0.14416276152168325,-0.014893314860236689,-0.24037618133853336,0.06909612254235006,-0.018026011047668277,-0.09183879703743383,-0.05946915013746152,-0.4899701674040624,0.27759328388331045,0.4323378274132026,0.3073343745630992,0.05611541119087852,-0.3014239994874201,0.15769062562215116,0.034760005564576965,-0.17726718472252068],[-0.3790623040165503,-0.3471088244155811,0.25651368849076656,-0.12591176180248256,-0.13903200339750668,0.2031310115553857,-0.2280952593667884,-0.49357437552594857,-0.0818041265651723,0.14399650168512437,0.5917412604293857,0.12601203545260542,-0.2855135425073771,0.2645029557541418,-0.02142904351752973,0.14983671992805686],[-0.0760191253394223,0.025209471838937757,0.015731191028616743,-0.34362772619351467,0.24651462098819338,0.04698065107119716,-0.12191792106006995,-0.03801513424996059,-0.07517542992877085,-0.08655221474573987,0.09458414387599962,-0.13858495328471027,-0.2512371696153256,0.04490598336533831,0.1462527074519199,0.021854924765874056],[-0.18396265286831637,0.1402222492196693,-0.12042980856456151,-0.16567518293412464,-0.46582375957300753,-0.06961426226348169,0.261166654185247,0.11819424609760057,0.3695085677196163,0.594430337435596,0.34600298424190445,0.35060171312108734,-0.21136177081640545,-0.012230747099531498,-0.27802277883021914,-0.17209410291917326],[-0.39243427835088995,0.20449228854124965,0.2564796899642202,-0.21272455301214804,-0.29768499687800976,0.3678580016073119,0.057779739466190104,-0.044297614430742156,-0.2916527422515997,-0.00485084830804259,0.7073408799964593,0.31715955043330496,-0.43406153585839236,0.10928960997713144,0.41201927878046796,-0.14781087531186732],[0.18878555079141776,-0.411954930365492,-0.46638756364621514,-0.23727026760870676,0.3955079596145208,0.011267178331620435,-0.18784075085000213,-0.21687335296887317,-0.14582736970945148,0.27574068043069194,0.14343173520221397,-0.06718559782389531,-0.04485868622000937,-0.09737519177289836,-0.3759089436695515,0.21012067086514533],[-0.11586380571413601,0.5002149657544659,-0.18149073544844596,-0.13503938877557736,-0.389983920149443,0.07944036766661608,0.10578843437223538,-0.07239196210166216,-0.1755723582885158,0.17883178492302768,0.22831554964718115,0.43613000499510163,-0.011646072702196359,-0.061931678627115225,0.2603787069982732,0.03237365927970422],[0.2257973673795563,-0.170877663673198,-0.17624801795744582,-0.34179815273791975,0.08439344973984016,-0.08326713459177425,-0.3762406126223391,-0.19153373886950875,-0.5601474051615447,0.18336740432139184,0.3110812525084089,0.13728463916998676,-0.18590278141004857,-0.42088050073858074,0.0636549001369225,-0.5557774892430414],[-0.01093184378059386,0.11791674714997832,0.0692238576178548,-0.13657391331697016,0.08839743645822534,-0.2290648976775222,0.17951156929873854,-0.2024282190899813,-0.11863664297735592,-0.042286418362829106,0.17285247697276615,0.240837796787294,-0.22456534835563607,0.08084966698959575,-0.06903842294295742,0.18650971497239197],[-0.10451566686208218,-0.1095038095725469,0.032540982094187966,-0.09083329215208147,0.14462966098805208,0.35372226082942554,-0.4154210406655481,-0.21171613876457948,-0.39691524877188983,0.2373654305309857,0.024028125513947847,0.12136222452407229,-0.16709415038727932,-0.13272053811665413,0.1664816143436875,-0.019900552579010893],[-0.18872536567663356,0.1904744706793079,0.2637850031167251,-0.34859844501591947,0.08452253288556069,-0.3160634109320369,-0.15277911088132487,-0.31507252616772863,0.06307720007130366,0.27612900595788714,0.2681342646847749,-0.056923785669605056,-0.42220513029896134,0.3779559961186286,-0.03011642392745631,0.5203998210087677],[0.09385054527909852,-0.35736738562822185,-0.019005671510443085,-0.03164682614210801,0.20667252900636388,0.10633407860653768,-0.15775806768803088,0.2522460196669458,-0.23113745926145873,0.12895279543618304,0.46942265132540784,-0.13545161794801847,-0.11337804840696358,0.16166739451052878,-0.24084196749635783,0.09076127506336405],[0.18912157490069473,-0.2573232989058243,-0.3812995200065337,0.021391617940873537,-0.26704250189412226,-0.03188267624133071,-0.01982856463346314,-0.1303723734297474,-0.6310777811684323,0.2073959769474969,-0.3567943296412868,0.2411404117752743,0.03447824326616335,-0.727916304136583,-0.07731108307308027,0.08559975661786508],[-0.33169769942629235,0.10684414614531187,0.132450806111703,-0.16327955671761107,0.1763677517935836,0.2675653387889554,0.13960593378066777,-0.35256890816442715,-0.10542044490668294,0.4292987406110544,0.06473483052851249,0.25541680743632533,-0.31882182653269814,0.11176384703742935,0.11693839331182423,0.5270349209162359],[0.22212642587216966,0.20916143238247664,-0.12225037313332067,-0.16284684301603933,0.2934791400543347,-0.0820335593120478,0.2376099269151151,-0.04665871106327879,0.11901754324266797,0.33116294699466137,-0.18400207870247193,0.18623221655477054,0.22801783147900698,-0.14073688083681504,-0.12258007823206177,0.44359037556288444],[0.03850984886308128,-0.1943992582418044,-0.38875935664529937,-0.398439010535328,0.396559123229675,0.079093985974008,-0.12451512503014076,-0.20652861997484273,-0.12570755026026031,0.26276881667019836,0.307527102400697,0.1430891659341229,-0.24490290951619265,-0.15266708371371016,-0.025356023958985466,0.22126978184675022]],"lm_head":[[-0.048190273930087534,0.2775213795564764,0.402935547533623,0.1707227232473981,-0.11635332348158363,-0.187504359179743,-0.01529065731202422,0.1387332399028803,-0.10665648819435097,0.3641527705942045,0.009479528464315955,0.06386535901505534,0.2245254563685702,-0.26251740393124917,-0.33208607926001615,0.20892045901130404],[0.5036145116667763,-0.2065173968887149,-0.09544823865470498,-0.1916826507396708,0.5413877987802033,0.28739919973543576,-0.24107429800599,-0.29228778565399677,0.41743382471883106,-0.22000126900839267,-0.11609928103916804,0.20737083214075436,-0.32308141298937804,0.22916749998703653,0.13176856413749097,-0.25128444952533247],[0.3454867714524574,-0.22997261155204074,0.2886188038664368,0.1806264324221752,0.16386377560715304,0.0016194927259818306,-0.16610867943739263,-0.21858124293690762,0.11181754748213577,-0.0580111027619328,-0.1748642428399931,-0.2147533921458143,-0.34259081409859077,0.3644672244621995,0.07866687156749971,-0.35226720314388754],[0.17484966969423954,-0.11856190304173676,-0.31521293152344504,-0.47280506854239834,0.32309748339315414,-0.028962931814216747,-0.1142938225642048,-0.33004467668519377,0.21512487485656412,-0.3173459557376053,-0.17031895385761053,0.28821012467938284,-0.2716838707370845,0.4972931741220064,0.4742726907711307,-0.07936375440698759],[0.29613260107643297,-0.33723890967748504,-0.37564750634022515,0.011452831341104221,0.07630923757555277,0.08457759487364679,-0.03483708115054496,0.014479830260470334,-0.16550040938137495,-0.7071854732366863,-0.1338089847396932,0.1414936981206989,0.024435277457287633,-0.10406992830285058,0.16687120327182148,-0.25849154108195016],[-0.022190172200083663,0.06346675441997249,-0.14949112977857493,-0.1373192404525009,0.048510959259430934,0.10409120328931389,0.06849527437712591,0.07842386461147194,0.09306747785188409,-0.2703723622036379,0.1667826477827168,-0.03872790210131867,-0.13707022086341683,0.2897679596379752,-0.08302109063183666,0.016807856234647423],[0.14434966850226758,-0.1644378786831577,-0.1759853687418805,-0.28189563198448003,0.3086753854902887,-0.055506712909760614,-0.11057259509010407,-0.2987277307995334,0.04030500493576492,-0.41223568334802857,-0.07568958095372974,-0.1537699017670316,-0.41695924152101493,0.4372590247156817,0.2509833535901658,-0.19995722157150542],[0.15570200836035156,-0.10762836220722276,-0.3391575338830586,-0.3476301534393232,0.3654361756128686,-0.050520137257083375,-0.09337300175897846,-0.35324136159049524,0.06849876618753482,-0.2837947304890472,-0.0783959834165605,0.07181188891848658,-0.46727967450972674,0.32705174892562583,0.3723130966286197,-0.13213039383761724],[0.13206946424622767,0.22936029172214473,-0.413027359147038,0.06797035863879447,0.14057705540713838,-0.18980685759639315,-0.2308066286065853,0.0035047285366284465,-0.04719920023510598,-0.36417193800200803,0.09048750831749802,-0.12091368247166767,0.13038011011482067,0.12614343619336396,-0.05673486860719086,0.13770278468246608],[0.031139576639932352,0.05104676612824784,-0.17776016338080627,-0.16474843265345618,0.09903058257996819,-0.13868715231253556,-0.1017619198538355,-0.35446364459147345,0.18069921895735586,0.005011647484283694,0.11291200170384799,0.12127617339961605,-0.005226674897474037,0.38405220939715323,0.16842105801281246,0.03840175601356916],[0.19179471322683608,-0.12106747383960356,0.17928538886364798,0.07438894534389386,-0.06573181976233196,0.21771619162812436,-0.06908160915564181,0.22447352134077547,0.3364530055373319,0.17028198930281502,-0.27236622476565264,-0.16698820863927008,-0.3023420356091634,-0.09004479568709943,0.055679173296414405,-0.12939701792217373],[0.06948057162006621,0.08049853978056043,-0.032423366299949075,0.2105594142439961,0.17794679890446508,-0.07605090605484564,0.19623574345633,-0.036398832597567474,-0.1283869767344845,-0.04767633377759466,-0.07788960714489175,0.3361758335979253,-0.15842406276439344,0.0897528400149129,-0.19852689022430992,-0.09124817783722321],[0.22861839915132315,-0.02332251724519364,-0.23657019845385835,-0.0544866003243404,-0.05879341524730973,-0.18784524812337342,0.09038632913010015,-0.13933923469353268,0.3895379004481128,-0.13996882386462478,0.01907257026697239,0.040459785668847885,-0.01659648606773582,0.38208357039832774,-0.1412817209746694,-0.06381884711623381],[0.13686904596977897,-0.04052623635478858,0.1510706145206478,-0.16748704363029343,-0.011925760530294363,-0.039276267276036086,-0.31363240778554835,-0.13354402293486797,-0.09907219431689256,0.10462792690825674,0.02344521315648481,0.002071611316753901,-0.1912889840486658,-0.24691055471380516,0.24451128024603944,-0.26176189429821733],[0.37808061208954574,-0.24657553125107487,-0.03279248544785138,-0.18935940859777417,0.1159917949161695,-0.18054811913980148,-0.2815539049987782,-0.05857757361614805,0.022174770273645682,0.20045125948492037,0.09245691508120835,0.10168801652981965,-0.3510048873156888,0.13176843087418166,-0.09368827120403948,-0.11436149668103587],[0.17633543819367895,-0.1356021463275476,-0.13180833757548124,-0.20335881920354376,-0.06649379246556598,0.1037487461603434,-0.2098874959906825,-0.07497230740720723,0.0893124725249547,0.18734114445527372,0.3252542811753469,0.0007854008292653443,-0.18931138990918228,-0.11397326333577316,-0.05843131471630019,-0.09912399723421779],[0.2716559641177455,0.15898019251209247,-0.07518715932336863,-0.20437338507023284,0.14000035395386454,-0.125668778631755,-0.35354503654592695,-0.20206116918930184,0.15737367026183763,0.11740248510310311,-0.07602352918961537,-0.1371143116764136,-0.34376944657812797,0.11856003278118019,0.12091409456370135,-0.04712808105456121],[0.17719582336895504,0.03658457734409232,-0.028826019116390687,-0.22165262327775478,0.02842413386776352,-0.15537032453104388,-0.34094863850599133,-0.16953436477352216,0.22031152721971886,0.04788875184694563,-0.038845785356912,-0.15284630966383078,-0.2446503065866463,-0.044282067738764155,0.09044727526035143,-0.06264047097181749],[0.23601593842051322,0.001550052684641659,-0.09121082562186411,-0.2539084609465783,-0.08460184828547927,-0.09784244601322015,-0.2353404837908925,-0.20766507497836312,0.09705959881260794,0.07676633003699963,-0.15027864073959943,-0.06986028677652219,-0.22657538428850563,-0.0623189740312223,0.1810990645806104,-0.08195405211462028],[0.39743441403847396,-0.12367007284829055,0.1548578858165232,-0.31821486708020935,-0.1537794113317353,-0.11979060300109838,-0.01117415656659124,-0.2489226446032153,0.1670685882700829,0.079152723283186,-0.2340822647677558,0.02829275566582461,-0.25597271861223364,0.046273745231397004,-0.08649008418616463,-0.08600613039515068],[0.2838690745303923,-0.001355931249847958,-0.13483504876463018,-0.2789701395002066,0.017918355228873847,-0.16989284625829146,-0.16145139550234666,-0.1742485166382001,0.19326714462882913,0.04518722779459559,0.17463330501631313,0.012572485091558597,-0.08468498888467797,-0.0061350978539668685,0.2562849683311217,-0.01699987276250259],[0.19175239794371332,-0.22049756274386428,0.05871200627868134,-0.014865219997933918,0.020726897401008127,-0.27806896511592066,-0.16000322426440042,-0.26571041327782446,0.18252709387651053,0.007605912691675965,0.2669646559127228,-0.15292562638102003,-0.02820645706103379,-0.24507767374914935,0.055019897754982366,-0.12524662190173888],[0.16819070617710113,-0.07717374444084378,-0.1821319237520828,-0.24287431848651747,-0.04519398003872835,-0.2467374652318531,-0.1639412956968404,-0.2856202453527017,0.17281697986074424,0.02236055270490844,-0.1181167406434258,0.08787665608709729,-0.26395810990535334,-0.12100529605442827,0.03206829896178794,0.027988820020527747],[-0.24735869152989454,0.004971786621268488,-0.0738259932618868,-0.01614162999897307,0.13831710806587566,-0.14074757292209303,0.1123463030290075,-0.1493669748426984,0.1362692481380754,-0.11948585955525656,0.16637414089642993,0.05195172896085979,-0.011112015524414195,0.44456411665160106,-0.16676223772271745,-0.1501667697037586],[-0.02290520199079111,-0.06164752818269886,-0.06569642608629805,-0.33178564747688777,0.29493726529746717,-0.0991804589691281,-0.2477235488730069,-0.3774786473981335,0.5106515175202216,-0.22292198753591616,-0.2860912494530471,0.2608229187229015,-0.11931110584989796,0.06178749701803989,0.3558557826668526,-0.30978612909824493],[0.09668066975806433,0.14535010682165078,-0.12576785809730376,0.12545969578311184,-0.17281116886849082,-0.2861254930893555,-0.18200698942263022,0.30021926789617115,0.02999774829700732,-0.0639583579845222,0.298628284830304,-0.027111500921270924,0.11997723420775715,0.22054061122005594,0.23454113763013093,-0.02017915977519111],[0.09887178433367036,0.10547241929306665,-0.002564010499163528,-0.28778870294170406,-0.10422040905153367,0.002521115294409685,0.06759835882040582,0.1240540060761197,-0.20634825068549914,-0.17057476687444648,-0.08660400909069256,-0.25868673433734857,-0.14737921831328454,0.07793897018214342,0.2654432575248347,-0.1790751886804341],[0.3217023407768778,-0.06610109724035787,-0.05486664706096885,0.2772528547094178,0.12928736885539965,-0.23178144938364426,0.3246848723449933,0.1461323992531688,-0.26020055290723837,0.11468132629121279,0.17017249700164944,-0.11110980959417707,0.20399381062186356,0.058520902058764736,0.1562143515229567,-0.04605926702205311],[0.12370029902007887,0.16417681782111188,0.1779005231753894,0.09496002256207951,0.054575907743909434,-0.02619451413445465,0.2105117045823837,0.20278150556245392,-0.22129403042897702,-0.16458772132244642,0.21455187797893585,-0.0017780101249286091,-0.2208129194646418,-0.27946851634159736,0.33247630541361795,-0.218274266303038],[-0.19663530230142418,0.20714737152357798,0.04327900982148332,0.020149290214324062,-0.09804835730429459,-0.10919112280107368,0.06028748629875405,0.2158449677481605,0.16908602864767772,-0.03440429494603408,0.3749447758735027,-0.024478443524808925,0.07547016917821016,0.23645533362077106,-0.07125837676387095,-0.08807581366975026],[0.04370918269153168,-0.16625158798073228,-0.2916375529107362,0.04675037747572869,-0.11649579805670791,-0.21166130206796477,-0.08463624447454052,-0.18265760286244773,-0.17611588859526844,0.04158153160545837,0.06188660140686851,-0.30779707944822726,0.04494725933358315,0.1650520164446732,-0.15112814329154772,-0.19064203262976087],[0.16605924199753852,-0.07473960331346417,0.017312456724493695,-0.20730911693089715,-0.2722130695097778,0.050887689735176565,0.09128170482182252,-0.06200417254744872,-0.09709146240079845,-0.11732531092366841,0.0625842982309481,-0.20561333952800528,0.011094447459635537,0.25015481504930387,0.4415516426017339,-0.20304485401996844],[0.2961413727542642,0.24471766723554472,0.017573047466239968,-0.028415373348108723,0.09929593532401154,-0.19383589595014017,-0.272790761969841,0.09867647053112456,-0.05516360685114775,-0.048981943623641014,-0.08241166998063816,-0.18631049433314945,0.3605866875068755,0.35029708637945484,0.3024320575434007,-0.12697056116396116],[-0.14062963634147402,0.08589165258600968,0.14220605166618638,0.052730350483851676,-0.21829792799465747,0.29956425705129214,0.1330038954811599,0.12190714406054878,-0.015428011749819327,0.18819596987444917,0.1555695096994678,-0.16281320944788355,0.265235520644818,0.07611297464288554,0.019063502485296542,-0.4301253722319299],[0.21571048924609118,-0.34528209716386654,-0.11526922174134187,-0.2822273018554945,0.2501497543689497,-0.27684830994167076,0.17954928921129046,0.0960224601003077,-0.16005179340017847,-0.12338109381317534,0.3069709923987451,-0.07213129933721653,-0.263963607503285,0.018345831456759644,-0.03877457662717313,0.13613009282398114],[0.10951836980269608,0.08211898224042709,0.04358141607169593,-0.07021212884952771,-0.05172918719522868,-0.2240107160449084,-0.06586259977221064,0.22955646739554667,-0.040026757507042494,-0.15858935846066005,0.05272200652797318,0.050623708687503516,-0.16526742268976913,0.24382641966834906,0.07653905692447484,-0.2135948972368622],[-0.2154564381511547,0.10970076901532387,-0.024972401740993008,-0.08744844789160662,0.11233826332840642,0.010397612298678941,-0.0507010144034405,0.2715593632558711,-0.2588895423392537,0.007757734445844708,0.039067449418639544,-0.16419810071126395,-0.4403711933291265,0.2453448968244076,0.024132014717173866,-0.07099238215832239],[-0.13754419166986628,-0.23953068552062862,0.18919605939772463,0.10330097303528232,-0.24592030800659276,-0.18554343052983158,0.012567662597883701,0.03857408909126671,-0.014426816580859992,-0.0007435122937667381,-0.007689559562520638,-0.5566992316088907,-0.026876083559379368,0.04111920508137577,0.20515005544923745,0.3485698214277881],[-0.36654724539794675,0.10408438649636814,-0.12161622533567844,-0.2985066920613479,-0.12422769034711896,-0.2938182264408488,0.07342352253763622,-0.0700951523051457,-0.33410265361501484,-0.05410737932158161,-0.111850797978624,-0.15546155009006052,-0.18269463787874907,0.03455902988514689,0.09016350287459696,0.20595976575283004],[-0.2163077988441511,0.08182890668176564,-0.07833273582505657,0.15958516584432286,-0.20710998126783617,-0.06295152050187267,-0.17425942573338837,0.23018489555095561,-0.11683430237673513,0.021498054002622977,-0.08408268597177872,0.11496913261932762,0.010759257176943992,0.3454108833402396,0.04955104935409833,-0.22070258197953666],[0.22291150746999935,0.11815549377834925,0.13138695667795255,0.15017762366169055,-0.09499285767557114,0.00526893385300485,0.2464809720221196,0.042419249619409134,-0.10237855934440268,0.018567526717971346,-0.08250015334943751,-0.41399467571236187,0.20674606797106887,-0.27928518359819143,0.31882189049454446,0.06542749225957058],[-0.062473202979498196,0.05807691036349109,-0.44337302141259594,-0.2422372467127169,0.40559564393641784,-0.1820442748723968,0.11377066357711779,0.06933488725148713,0.03622713263408768,0.014378763231253281,-0.013106752102739413,-0.024850700297943625,-0.20220224610352405,0.07246321335735402,0.3872914131996515,-0.3117218558552567],[-0.16518843964353583,0.05437393287895272,-0.187233157640239,0.13799673121843425,-0.07799689012017058,0.10500645934336164,-0.018858339638100914,0.04305158154953205,-0.33638334485975996,0.2569663215847024,-0.06483003115670544,-0.2272988852334857,0.10577487905972818,0.21437919729653612,0.18642194409254995,0.05383721532918857],[0.07142730533190242,-0.01018921604344183,-0.13622098113805794,0.14114028398309142,-0.21516875622536444,0.1295165352663584,0.24236335098605727,0.11998069657554049,-0.22022451938235074,-0.1414828827515421,0.12075494995902246,-0.2161780991531966,-0.08348392045145402,0.3907391903944599,0.05836628750379499,0.05610581127918448],[0.0814241969390886,0.19055961800403762,-0.12687218232951644,0.025392598074373916,-0.20719899409245293,-0.23702197066086061,0.3519089753937732,0.07955107480339821,-0.29022441067939764,-0.028641109233463,-0.10165879504305202,0.2381268829678586,-0.04206493082086055,0.10027920719194587,0.14759571230734803,-0.17358638230097925],[0.07421464685885461,-0.12047673410770059,-0.11925306938273836,0.06807977878996543,-0.16340463076666153,-0.14640555327282942,-0.12370086178048892,0.1555505915156607,-0.26396271682835115,-0.06520532711153677,0.20128457135117245,0.08810379757228472,-0.11095253520505326,0.1366698481840219,-0.02532113147716737,-0.02245906056099274],[-0.15989884756908368,-0.0083764788721333,-0.1991377127429025,-0.01235272053270346,-0.0071936354791411064,-0.10906654012170743,-0.05722874293178839,0.10458248606422131,-0.15166358702057728,-0.06988190873947377,-0.0072267060849221815,-0.09735057718208183,-0.10913889224175734,0.24509867808404073,-0.11776489220000538,0.03650589186793107],[0.030448136855438623,-0.006923534908813613,-0.25119014083548963,0.2486402339368739,-0.010351258437940172,0.06027438612098594,-0.0020765619127793666,-0.07177285673963767,-0.040631065970418136,0.09198693597829137,-0.055532607699253035,-0.451069830914625,-0.2697542301070853,0.05875122056387097,0.2293381122683042,-0.39280756606585093],[0.1315172661373291,-0.015510205024982144,-0.20237888119692884,0.036250332953291414,0.19655117530235316,-0.04449449415138204,0.06153104962728695,-0.4203382024481817,-0.3159571941137107,0.07952933610393045,-0.01895489973612576,-0.18532712021958905,-0.19773834754178127,-0.1542000231173683,0.0685695798464269,0.08387785690589715],[-0.17672141192863855,0.2370660895596285,-0.13262989515896667,0.1709620310307506,-0.01438315926727864,0.38354340541551113,0.11331996093372648,0.08144523519651563,0.09470684135730668,0.2194563599392635,-0.2011158042907786,-0.05162197766199198,-0.389022238189828,0.17685821573674365,0.144239681854724,-0.08837587544633561],[-0.10728493046911802,-0.181259351174602,-0.5221430649041948,-0.1264271349815186,-0.05277586747807876,0.06094646878478224,0.06215012797904099,0.34923165243617804,0.18290259459489175,-0.2805583096066678,-0.05317852746797865,-0.1026131515219511,0.11892797434503914,0.1324363094386778,0.1789785938659607,-0.03413894896404665],[-0.053249028250358724,-0.003589954577711367,-0.22437787779495333,-0.08322618077851708,0.26735720770073973,-0.12411231952823977,-0.1435167976966546,-0.1047761259306923,0.06464439994386793,-0.2628523779372407,0.018243097269509692,0.0203996476148097,-0.19092349101062867,0.45544347322257295,0.13425067011554792,0.03791806595627807],[-0.22239721465486378,-0.2592690961269844,0.2295539619213051,-0.03706934333202963,0.1005845861846887,0.236345238709524,-0.5867081197823931,0.14387232061486238,0.20841242471180543,-0.3373155613481186,0.03768722460037659,0.15475674395044273,-0.023419467788754034,-0.08993655276462073,0.25095585177394725,0.09850482872021323],[0.05702669091966596,-0.040884219752824344,0.21713521143605696,-0.3328677801037449,0.37849549349567935,0.0583912867520338,-0.3036270202396664,-0.41361942540260827,0.49583322350722353,-0.2803387144057903,-0.1733542919225244,0.036792433916986056,-0.12790540401188735,0.04668009690509811,-0.014908987898191069,0.006844852673711051],[-0.14745803237265262,-0.2049807281149715,-0.18165554787845462,-0.6788242113702134,-0.07100290724447941,-0.014400468904977934,0.3064730206453126,-0.11470917618448763,0.08124359436141093,-0.21106010320324176,-0.23159438514646524,0.08892844055684725,-0.0321598199659131,-0.30923232381417054,-0.14603468047456758,-0.05199296499040697],[0.04715148408062214,-0.031949460636961115,0.10592101847853459,-0.41429031653752413,0.06746776293293921,0.26354062968442904,-0.12779060505559622,-0.5973478759506043,0.037579927391083824,-0.2117268169483365,-0.13102610504706233,0.3198320091502518,-0.06493986557647655,-0.055532061299658646,-0.24210159882181387,0.15828910567673266],[-0.14451259222672164,0.3196072304299356,-0.2510095127455769,0.16124730778613447,0.23856264875215064,0.3050601206394007,-0.09627440857059118,0.008226614694539575,0.3967151476549438,-0.24139616781213633,-0.0931009340178118,-0.04563138582202148,-0.0143136296233898,-0.2798749005035622,-0.22985617755242535,0.29048757701378053],[0.3502788883050192,-0.14543193832953827,-0.28183458119269533,0.09883919508343039,0.05724836399009263,0.12091264353988448,-0.024832368607278058,-0.16681315380862316,0.5196324721459226,-0.1836089432704914,-0.3099093866364216,-0.13935447805223342,0.12342364315979569,0.07450823793836318,-0.10251513669026009,0.24272381426830436],[-0.2263964103764747,-0.5046871373523268,-0.01279902961977658,0.140162131407445,0.25671319336958126,-0.008263938010598867,0.18973926458352733,-0.19181468653849593,0.08693283497135378,-0.13295287164539407,0.05075726011911175,0.4210309610021993,0.021755991947930525,-0.22484716999561016,0.20997689443214032,-0.21660409726412855],[-0.15180339107943366,0.17388782725502233,-0.20447861099553405,0.10114081332603209,0.6636145229109165,-0.020818462712117073,-0.3126552448795311,-0.11270077238796505,-0.01144759513392025,-0.14095518208602534,-0.12033449077018067,0.16404560429547577,0.2665549733120182,0.16202611365999864,0.13957381479857506,0.02594146237760188],[-0.14021945687663168,-0.46818530815793435,0.006364000921502558,0.23845475196534485,0.04959375220171649,0.5240977418391668,-0.05882115492873408,-0.2683548546932571,0.13843306306792116,-0.14940926969048268,0.09066114362968328,0.12018258049977658,0.07223600147072849,0.04065408651080794,-0.009110658966551954,0.297629526428011],[0.1566298980053811,-0.1542721265251072,-0.4656898737068894,-0.4818671448842342,0.5180207753863207,0.03727347982660482,-0.09575301429433514,-0.29212898068859217,0.31502842866913694,-0.3940066686619522,-0.08169782023181803,0.012602359088893492,-0.2764620875206583,0.47526043135319035,0.38566320655944925,-0.1512723125947183],[-0.05822509951600858,-0.09164579282156106,-0.7628253561655156,0.20350660187156058,0.340943155460552,0.3006573575656094,0.02924823703532661,-0.509774533972618,0.34387429569668887,-0.47030851622099984,0.22430982720117848,0.1512683384026674,-0.05164235995727087,0.05719304388824162,-0.008390668250475361,-0.18853534077541484],[-0.19326055280906107,0.07925393886113279,0.04011778660209892,-0.31698778719255327,0.47835867789659786,0.2525598079250236,0.06672961469051006,-0.2949367485760422,0.25515026443645816,-0.20382074788847818,-0.17489655322151396,0.04694682938684386,0.1397313234094317,0.23703944622186848,-0.1851121158746596,0.186708006000438],[0.06243245765865506,-0.3552538706287384,0.059157101432413296,-0.09135556616791281,-0.13728861176389223,-0.1727049236456792,0.24549832556118456,-0.01876796973399848,-0.13338392247836584,-0.5472308844612069,-0.7229922059672323,0.10826607580782524,-0.12065150915901204,0.19919696845586396,-0.012872357855310343,0.1797203928885558],[-0.2960166259797067,-0.08068827428613762,-0.02163168582882433,-0.49563180194887724,0.39683527359025916,-0.028235638438880557,0.08442114423165552,-0.03466559921407777,-0.16973077366986314,-0.42042295505001887,-0.028770517848472767,0.1989001155778449,0.09541035443003529,-0.0037495808359914685,-0.27113677026797217,0.14157814925574977],[-0.2851573413268045,0.1789674758243271,0.14190135426814912,0.18549622991910894,0.4217092306336836,-0.045243273400082815,-0.14202310473792396,-0.2494396605570721,0.2668577420852512,-0.5361358822422532,-0.2615526235090169,0.1581905101650849,-0.11629198123565586,-0.2951168870155031,0.2351432646945253,-0.019540689325625315],[-0.29170501809223226,-0.025537333720943533,-0.23720409395732187,-0.19491412162801847,-0.01383897336402943,0.033474878827263785,-0.13086008622994086,-0.24039153806763017,0.23556108433122586,-0.10037188978569701,-0.24999964225390062,0.04106554624574028,0.542552682063038,-0.014464264215318292,-0.12473873536927384,-0.29140663041180814],[-0.10152306974716653,-0.3521733672955843,0.22198812526264539,-0.05907866189225687,0.450418871499226,0.12957571424922515,-0.22849698209883385,0.24925100253669843,0.24754861425178398,-0.05921733727661594,-0.20242516681680556,0.147105833666525,0.11598758449635756,0.17632689338295884,-0.26495169962307613,-0.12785188393598393],[0.3099052714536314,-0.43698379566926854,0.23154508759551,-0.07553812710963727,0.20099702982134873,-0.04607727816664022,0.28503500812510335,-0.15067440223280812,0.3128891493009546,-0.3316562743915501,-0.027456018506832092,0.19376771304166338,0.25811076189632964,-0.043796970497803935,-0.06431708636681378,0.034735744934947986],[0.17424938594923603,-0.07874869991995281,-0.46355884247385654,-0.18277738898810073,0.3651510797484404,0.2723983977718356,0.10255216143921644,-0.2968625842170332,0.160437933424668,-0.1432071316087703,-0.40463401815375694,0.04922032220756551,0.23745793457455933,-0.28015408352237775,-0.14447270081253866,-0.013107670864893542],[-0.10700383346180947,-0.40126538005330953,-0.17964878286204414,0.2414909659766785,0.20138224153514145,0.08849372651669225,-0.236600696664701,-0.10868980901042204,0.16738776445558792,-0.33557373832627,-0.22921554472639266,0.02743863380833133,-0.18958949687156668,-0.03859742856549749,-0.3433291100807977,0.17005773682401376],[-0.19455875221273763,-0.09409480500852692,0.031331280261613456,-0.29779001440223035,0.2771389961403459,-0.2701756465060609,-0.1366432424651942,-0.37710618964419773,0.24508776586783493,-0.4644864569691313,-0.18119842846811413,-0.10806609729273711,-0.24309846841719057,-0.03516882996771473,-0.15447075083996806,0.21366167275723047],[0.19415587311062232,-0.32346273253708374,-0.2487697817544697,-0.5647130429992624,0.49257104212478614,-0.07077952827997178,0.07650239881227476,0.1354348386262102,0.4789447346527812,0.06903925119266284,-0.37343107188823554,-0.245286132254699,-0.02685604970756509,0.18663228427353407,-0.07936608332711735,-0.10780198076773798],[0.04086715448676789,-0.4071357018033132,-0.047361283834193045,-0.1942633946045063,0.38776906125531035,0.22482009715855636,-0.04113501076904939,-0.18003303215010544,-0.06773386655853629,-0.23905232084919248,-0.32229838879398276,0.16355297629049836,-0.29078442379111386,0.15319288188864869,0.05501648700836722,0.1408372703183945],[-0.4462921580230862,-0.4577359136298825,-0.11629188320214658,-0.26555139506007425,0.5245434315157569,-0.05525983751278986,0.003292770026965255,-0.050461511421314734,0.48338767686703155,0.028369969489969494,-0.19971997635567137,-0.03857345579749531,-0.08269015155936688,-0.0985296148150796,0.2549048832073934,0.12199370062404907],[-0.05297823805873419,-0.33081406559673654,-0.20525661852761967,-0.37987865469139204,0.35603235366776004,-0.28065327644270355,0.17213795737114457,-0.39414188370998343,0.018902483258777886,-0.40779040193156557,-0.19369020173268314,-0.18324597535154055,-0.11436580506333908,0.11792427876904521,0.04027600285702297,-0.17268791568162023],[0.3087269598475557,-0.4448030170579132,-0.22257939507919133,-0.1166757210988315,0.3733863310714569,0.08529067050633493,-0.06196946508583291,0.26078701171335383,-0.021007069923058126,-0.24559937890556374,-0.01809000440283502,0.44139254480699386,0.08340893246164552,-0.2552489549236905,0.07947268024369432,0.33529730618878284],[-0.18942300696136968,0.2411887001876138,0.22363303906219792,0.029327176723197908,-0.05438385109200184,-0.014212582442203556,0.0888024434187146,-0.2553724696890776,0.25436589710114826,0.34297332295189026,0.23250943748193698,0.24433379239185632,-0.20909702742168326,0.05406122419540556,-0.06480113322728444,0.14549232395365796]],"l0.wq":[[0.3046835505113558,0.3377410471056453,0.014048116896315226,-0.14747430463916347,-0.3085162979066513,-0.03870118082682945,0.452131362950899,-0.09885757351244781,0.06825037775883341,-0.23788911361853,-0.320819066208141,0.3351124153540895,0.18967131463547793,-0.24053881331208363,-0.2747934307327665,0.3962336199820546],[-0.1371678729412677,-0.02996566761522411,0.08164985647314106,-0.20514280662938816,-0.1004212327199506,0.16170278880667965,-0.23778154157689826,-0.23560956932566457,-0.22676610435151182,-0.29450087598452734,-0.17497700720861975,0.20447215013869555,0.3723252554471333,0.4349457316189955,0.23736070632415812,0.020438018502082635],[0.09130460571861913,-0.4742361688001481,0.0340329876080912,-0.23387026794252871,0.08791910026200779,-0.45449309648016833,0.3209450493760638,0.01632985731993025,0.21983233568539615,-0.2259049795777958,-0.34547388007808144,0.195147569080345,0.04235631214838106,0.1440889752890137,-0.06288034728474619,-0.14995289995033584],[-0.23976965770526626,0.1797702034258387,0.273998620276305,-0.2223660854600492,-0.20252240779959996,0.12275377404622961,-0.5357131523817577,-0.22417689295573,-0.21103452752848778,-0.08862500089947688,0.31088421206556854,0.3573702757328597,0.075732094456407,0.24769981295727844,0.460154049095964,0.18558213971584453],[0.12459662153695426,-0.13960266072910016,0.49670336038962587,0.10242777937396996,0.2148431122265534,0.15418410463080767,0.23664687336345583,0.407271866025458,0.08705378345665837,0.04545647483540159,-0.44363603549431196,0.596864045732068,0.046066152352992405,-0.41260204938431855,-0.06409051953536044,-0.287319463224313],[-0.007491840803168103,0.10702355944788194,-0.32485631450728225,0.02016752502134425,-0.14446742073359517,-0.11944519391203766,0.079139169117725,-0.04677984500093248,0.06776333038046271,0.2478395656046793,0.06130329094719397,-0.26696443320816865,-0.5354460838065506,-0.19904885468476854,0.26014808705241066,-0.05295029622260338],[0.23797934159292594,-0.41558678725334,0.2660306262166319,-0.13818752194653863,-0.14649647733436486,-0.12103711002334618,0.3494059967721354,0.07440676552539131,-0.246543234896732,-0.3458988916260863,-0.002188933529276739,0.3830125640136267,-0.30320326229608097,-0.4710266780780135,0.10483271699354371,-0.20267254435840948],[0.17570093246961901,-0.6101527220538632,0.21353837147948915,0.0035082811620775374,-0.2774124812255994,0.2869689381610316,0.30615089724974043,-0.4249686530233783,-0.45822208949207605,0.0793044575219994,-0.014727756686931008,-0.058908892200600645,0.042659301645099804,-0.3704317282843445,0.009589719099987237,-0.0036630994142390497],[-0.2057090959438145,-0.3996964080640121,0.14530083733406107,0.24815723245034443,-0.06000144376330717,0.5520226051512056,0.13211110876591603,0.43444799681821217,0.2022031477797506,-0.5737812062813299,0.07523766594304525,0.1104246500338702,-0.028789122819403046,-0.19802030792739883,0.4702071427415018,-0.5694589359713763],[-0.3430375568665027,0.17472785339238353,-0.13340628882224456,0.4715776046857936,-0.1282113421559845,0.644841745646397,0.10787519182918287,-0.10215185715764526,-0.19816928174493934,-0.18594855598987636,-0.18207892703661574,-0.03241371623881015,-0.034802103136599725,0.009894395094780968,-0.622874608834033,-0.556691614976454],[-0.016500570348020875,-0.21883517657226578,-0.05322247191332846,-0.14357427538045497,0.40116810387235485,0.621351282947695,-0.11669268365736785,0.6143565550113246,0.4247588179037916,-0.14743128104221878,-0.11953735462228139,-0.06770078453478263,0.16260714934159243,-0.25934875838020577,-0.13651716885032023,0.4683000697237809],[-0.1531212373033303,-0.36418428638724887,0.11621854511879279,0.31941765876405687,-0.4828426946464619,-0.45204516573939824,-0.0957880973762549,0.4603636251923927,-0.30840630364861,-0.17180306582705068,0.25699943077943255,-0.7790656281348121,-0.4070566004498458,0.1379149476006034,-0.21994505528361347,-0.3846745982405512],[-0.4140470850674389,-0.3978170481160289,-0.5979503176414848,0.31222320424252764,0.33776845858196547,-0.35532770817253584,0.03448585337093232,-0.07832397048195724,0.06276092737711081,-0.18860428828339562,-0.23150672558791324,-0.3253462051456605,0.0796612204948976,0.4328826285230344,0.03461863085922926,-0.2048132535505201],[-0.3312959607898099,-0.3919774568916385,-0.34972187095028173,0.4102840338098902,0.03616521740322462,0.003538775907235123,-0.1652424318798631,0.10686164999709609,0.13663629823600248,-0.18947117697781188,-0.2002988425677324,-0.2273464230772731,-0.11528029596795206,0.2631869340435019,-0.1391628079115446,-0.22283992036229883],[-0.10581906484406149,-0.19003799922155276,-0.8516587658274705,-0.22367995373269492,0.1187374585139102,0.5692899844388412,-0.005728350439014596,-0.007834628054650782,0.2813616435928212,0.3267337729605253,-0.06119262920440278,0.04043652114552113,0.09055109529833906,0.12802737751583526,-0.06921311837255698,-0.043738226753733525],[-0.3324183049562922,0.342825707890336,-0.9890836515180926,-0.3594469362331413,-0.07135446984346541,0.048448013546258197,-0.3583490715525972,-0.2590307134884025,-0.3705551044148322,-0.46533300756204227,0.2598844279618175,0.062105532343086474,-0.04778452793773415,0.2650076047666721,-0.37549982200259435,0.09720401769813185]],"l0.wk":[[0.06291544392627636,0.061696296607283645,-0.31803265154395793,0.28052528685721306,0.29128167941392535,-0.41295726343871664,-0.21832331434362798,-0.47593458125364463,-0.12550973222261144,-0.32917601765928456,-0.23896118803048222,0.32215441778351,0.0010998961902973948,-0.29718189327550193,0.16037711653117953,-0.13100855727671115],[-0.5437166466665808,0.31453912783647536,-0.042619004533760135,0.27201201228444893,-0.06072723883394593,0.01892412924742867,-0.03059465239998991,0.3119262393251147,0.22631658183076925,-0.12981726311765213,-0.19927445817380082,0.19346487573413856,-0.25304600450942455,0.3448548011095429,-0.1314758768693279,0.12954585025688772],[-0.023178295219346317,0.1368233685024508,0.14869689998141275,0.26015500070165243,0.24539644004492195,0.41432297568265547,-0.03424823958376866,-0.17995080668660085,0.2581246220745005,-0.23270005748442668,-0.2175711625722721,0.043985764628915854,0.469245373100264,-0.3195805446434968,-0.2159755278200112,-0.26391980019354394],[-0.4578780263147348,0.1579899351962042,-0.19111553095318234,-0.02011634528193112,-0.1666210810835459,-0.08944918400046678,-0.10354246297981796,0.12881172837886293,0.0860072022565841,0.22629453181490175,-0.08332989130033351,0.24519711681427658,-0.409897339621756,0.6725517291619092,-0.27505087228468267,0.2338535834688044],[0.1786472942601734,-0.2603773381127199,-0.2230909696404587,-0.11393048291699263,0.15439932452117125,0.3419149138021677,-0.6876937374251821,-0.15007465038730447,0.10645399018792447,-0.08816303841518941,-0.013033886820458366,-0.4034657848183694,0.13218047441101827,-0.22102990236894227,-0.3453909652935295,-0.23450685513478653],[-0.19330892374655587,-0.011795453574339896,0.28267813972175965,-0.014439776162272057,0.030721026964027225,-0.7445739158119318,0.4015592841066512,-0.02272334847484551,0.24294732224823654,-0.0324014987950816,-0.04690037874104368,-0.12767643021115818,-0.2960452309699924,0.11305132958158921,0.2566079017926357,-0.1468369264175591],[0.8470335122837064,-0.22436107744404166,-0.27902519489797634,-0.34766919218376285,-0.0409925141788473,-0.08334481388538735,-0.2867056220909432,-0.11821760116288041,0.12877845778750882,-0.14510319534368124,-0.14529187387551773,-0.3050785991852967,0.06459130363568516,-0.0678368430870241,-0.021883564613708426,-0.36920809242632574],[0.8643571953086561,-0.22761739949083876,0.19170698401986863,-0.34711804945709085,-0.2964615185745177,-0.25731887445791024,-0.42017961133363474,0.208860107404507,0.015043197489829921,-0.053356673359747725,0.03127118001952443,0.10841865653724105,0.2647804763334347,0.1025377755941028,-0.3240975737137736,0.2384447423208515],[0.19904624888168201,-0.010385519424377616,-0.020878349766110926,0.3473725206890137,0.07641450478353745,-0.1922214297840599,0.22507497965330306,-0.37221931672588304,-0.20331536140900236,0.6524897605263749,0.5158952276052399,0.6562693243221092,-0.3268244554425684,-0.28489831883141187,0.2009211890058191,0.2671095827192486],[0.704611258271649,-0.12192996019907917,-0.05803140199792545,-0.11926294891987842,-0.5233991188691338,-0.7032093445210704,0.2567233433729261,0.05993497890406945,0.08917423746941021,0.8351591675385006,0.18511334355619777,-0.046264346223506676,0.17568317717041132,0.06408230426649496,-0.029892005841304022,0.0918717770549766],[0.5365273593440423,0.25927037735063085,0.23515816658968858,0.29394926924894715,0.2522888253512564,0.32859283847585274,-0.21413026206550487,0.022827494053212473,0.0900747805104758,0.183825962309264,0.019331547017260187,0.19233320656833763,0.3631572558088588,-0.007252178600148621,0.5789665472851365,-0.1726205034245881],[0.12330202292203409,-0.21707936652207444,-0.30054031542496906,-0.4423551430025851,0.03879806690293187,-0.8202895005598745,-0.595835445324536,-0.10651618296094405,-0.04263585089449237,-0.16652840714023726,0.3452041881931917,-0.06461811413945195,-0.6578772998008093,-0.13638769306695017,0.2698178543424229,0.24024652318145123],[-0.4099647679829623,-0.016386036004133048,0.7496812183177913,0.0658546746804662,0.2433146301148723,0.8690532798350489,-0.3788050964391458,-0.28450884625151085,-0.08708871906918382,-0.47702915741804536,-0.05561343919519295,-0.13119173306440288,-0.4158759506596949,0.004781302035336562,-0.023379390340688984,-0.22881718833701986],[-0.5050841326962701,-0.048056384110982196,0.3586744107554127,-0.11349159992682085,0.3873307511820361,0.580144975694425,-0.24548819014570206,-0.15030441382244913,-0.07927954142070467,-0.34355134119778763,-0.2631638133865811,-0.19833462265019278,-0.08365317514643911,0.232252590141803,0.12227226427312413,-0.2619377040650657],[-0.17830324162750852,-0.36810541249451345,0.8342499116737888,0.14024117902862934,0.44973127166147003,0.028126198591008338,0.41052205671346853,-0.11776216446430023,-0.07125895317787964,-0.17819567422945595,-0.2427452175980996,0.02730831074031945,0.4926993972148716,0.13228689548887218,-0.37503515026137646,0.06381233948248602],[0.20815766456069362,0.24870243931758027,0.7086678875594941,0.036694747792749303,-0.21136764401198832,0.3320166719065421,0.002461785099712443,-0.037204864862885094,-0.27117104790350666,-0.12593356668809927,-0.1773559224825413,-0.01662721245066164,0.5189508293492247,0.06500924588855529,-0.41380421516416954,-0.683282901929215]],"l0.wv":[[-0.10951452548728215,-0.13646425097610443,0.10105227696031358,-0.31779014058185734,-0.0011158750264531959,0.4295357472381415,0.0787225608351094,-0.45092341704467037,0.1069147059224095,-0.1579015089073644,-0.1841180426829688,0.23353106974808932,-0.05479376165357402,-0.14641504808596534,0.786732486385962,0.07658749556497933],[-0.012837250490185949,-0.3976440446794396,0.3856840536489808,-0.36288973443868294,0.5468318906195015,0.07063045598335982,-0.22379329694226255,0.021651452555157377,-0.009061667336838426,-0.2126402131159039,-0.48826176428571194,0.42195954227923055,0.06509978523722841,-0.013375849431856714,0.5328571688496,0.10730863736880238],[0.07535932829785913,0.17533276431204942,-0.31130336038509365,0.15806033545494297,-0.5065607871662605,-0.27251806650521726,0.4046343470845011,-0.243966693093941,0.3713289840035485,0.0890497620763663,0.16408350457564047,-0.14254353140707623,-0.19064816453891859,0.051531144341353294,0.17882031124173334,-0.3775037000899344],[0.13994380693359398,0.019198232140348194,0.5189200244155128,0.27397736943898365,0.07189141955381356,-0.4141708418462938,-0.36999869162359,0.34579673420578266,-0.4047174714923435,0.2298498253217124,-0.011281389642487349,0.037559101593662665,0.1347818892071534,-0.3456635416805216,-0.4809517799296501,0.21121326345209174],[-0.24169973748088724,0.4356162322481765,-0.11752288742163694,0.25405859506604955,0.2637674678629974,-0.05554775562537329,0.1154588102128265,0.05694775455445281,-0.18145137804936193,0.16908857201092573,0.29972988612486223,-0.22732848359719465,-0.15413691974964677,-0.15145758987148802,0.26899995830272205,0.061749672845225284],[0.017978350565319528,-0.6262061311298158,0.32068300239394604,-0.4040949005140401,0.11798611802613232,0.0779198813752835,0.028609373600155773,0.16346690035256875,0.22855182487984788,-0.04844387465233879,-0.09208558269654397,0.014473932199798471,0.06633224001272281,0.40703460497630306,-0.10422710986440659,0.18481014947070046],[-0.2890568634457361,-0.08835274394264495,0.42574788837933397,-0.3293822217764993,0.3323549167046146,0.001927502448191858,-0.07037069514290605,-0.18285412391267467,0.42050552332787905,-0.3944633084656891,-0.20397154981345225,0.0609099917083172,0.10731717603659274,0.3548179222705187,-0.01712747037357782,-0.23639382408807233],[0.1791606198663041,0.4201525610807097,0.13321308255901954,0.07899510770534376,0.0450331807376634,-0.16891385750294166,-0.2193270550370552,0.026722715183738786,-0.1565761507995275,0.16344758163923584,0.661668260225442,-0.07190988329394217,0.047295761271090093,-0.5044403804029296,0.21547522429815555,0.2923159003888349],[0.14476432997846242,0.041986600370139446,-0.41000969793801334,0.031623568522662196,0.3629690056472832,-0.16696424413561597,-0.8322888563981049,0.023745796892797457,0.6066500558522631,-0.08687487229773187,0.011484816477174975,-0.18651229775822992,-0.06803762006134492,-0.07206464646707583,-0.48630160115786564,-0.37085307253083927],[0.7932787841894039,0.08921976233424171,-0.29406341238937855,0.46768079303295046,-0.157225957421096,-0.34919541991834074,0.027196934553857896,-0.09022268787622599,0.2096620191466413,-0.08306597394048704,-0.4201664065399979,-0.08114389916823007,-0.07101973496904986,-0.5349663378764866,-0.1381583707666992,-0.02582069906727029],[-0.15121843170308044,0.23806292791082642,0.42682221059411524,0.1680406775085477,0.23191320440676833,-0.03379118248551681,-0.013946990165154476,0.4171950401420668,-0.2068130742686416,0.22795326258428147,0.1207286745579207,-0.35263468743699505,0.14825204313728096,0.45667498921414096,-0.18041277946047568,-0.16664240106786318],[-0.2837174178287254,0.35183158155282057,0.07039164961958191,0.13386726754197179,0.2144329498745533,-0.08318333659094912,-0.13636714767665295,0.38058868175515087,-0.14727356791667076,-0.02429233500754433,0.3529390390750414,0.1818610451132621,0.14053457064520636,-0.11259220535165133,-0.25211072898555253,0.5089632431579275],[0.194476457057719,-0.23715993543485778,-0.04083514625118119,-0.27661778390825986,-0.10698198513955345,-0.13665973440561396,0.39353844741020755,-0.7729494952729657,0.059843552288524574,0.17868517915486692,-0.3057615340615973,0.007777536422957859,-0.2518700816272164,0.305666429104099,-0.002509611073161381,-0.07746061890058027],[-0.14094900270691332,0.23755431691141485,-0.29903884916524104,0.4160523855588295,0.10406913948783167,0.0059703782732535475,-0.09864109518725377,-0.3024588204723519,0.7558370638493194,0.03101644964957677,0.7460979668981875,0.18583453012784312,-0.06683218205192042,-0.5347324194908339,-0.01300221226411618,-0.47208811593293964],[0.06176076626335878,0.0030152843170495824,0.09779685288553269,0.05695391941045212,-0.3603191033653759,-0.08192429776768005,0.27866407834703705,-0.32022379739156087,-0.17392403775005408,-0.15281011876347023,-0.2964020989780655,0.2792825081914161,-0.1651986557575016,-0.3165955060290892,-0.3295552804499096,-0.17185780128195674],[-0.005878753923511619,-0.22361507650168955,0.16425432787847088,-0.4456626980227326,-0.11298755962547426,-0.19015892058358336,-0.025555629646191933,-0.12675962757497408,0.22921599836529694,-0.19931754980421235,-0.18866937435742848,0.6595437182146289,-0.07948687213548038,-0.33040413201902236,-0.09780914979073592,-0.016280753743819987]],"l0.wo":[[-0.034511817233485474,-0.2583346853320475,0.3863584062536779,-0.3644710436180489,-0.04857318902681238,-0.03535069428511929,-0.48914900010024415,0.06441229071167087,0.5850510505354813,0.09084650800269298,0.2640498969114987,-0.2872444065182547,0.38838275922494964,-0.18622554014483128,-0.06508973509833141,-0.08152878339892],[-0.5343533661601402,-0.04549450829753171,-0.26068058224846263,0.5403239919893285,0.4386401807410522,-0.3663118930668162,-0.17980106133032514,0.5954602624356979,-0.5672054775350054,0.012241579894108788,0.11074136486125025,-0.27690582305102607,0.05050641740385104,-0.02647687836243263,-0.21018298174423944,-0.5104100194273122],[-0.4452789452347622,-0.4691916881433959,0.05715812209203426,0.2853906367255391,-0.12962465774886045,0.1781665782994668,0.07014960467873742,-0.12970778686616485,-0.4083956363321942,-0.20509072451430616,0.28847616144870164,0.16078527157442066,0.19717056395717714,0.24413524836887318,-0.37440031424838066,-0.1971487357956123],[-0.23205811842190435,-0.2523188292498847,-0.0069915532232658105,0.032795993446021535,0.11693087307622323,-0.047910902576741805,0.16904581208524788,-0.058011057067399036,-0.34757829629022996,0.6177837797991174,-0.21926337380222613,-0.2701764168652667,-0.23923404677900825,0.5399082964763648,-0.007924984743775046,0.10661038528243016],[-0.1452873810917517,0.2131240341191255,-0.1889789667828516,0.059305278130326954,-0.13791708547738193,0.21709740706226066,0.28923491752827196,0.15676955913705362,-0.015344389084366571,-0.06287271724368765,-0.04477241232058,-0.34333613405908675,-0.36286051188641305,0.203687720986761,-0.18408358315634019,0.06611217580845359],[0.03458120023729796,0.629351982066673,-0.3748136920285529,0.06859436927910478,-0.36745912908601686,0.42044213203151415,0.1450835125600787,-0.24585981326612985,0.11938756558883175,0.1154842104216512,-0.2769003108799136,-0.34157607895082914,-0.3386443756049986,-0.8876939673059697,-0.2030411827011344,-0.00772711941329171],[0.2572150441961314,-0.150172961083694,0.3325684683561292,-0.5788564615512097,0.10302949628864941,-0.16941721936386345,0.3907620497221354,-0.24494645635522724,-0.441427212006826,-0.5067485073080134,0.029263684604925982,-0.25607236993859245,0.277538931092269,-0.5029577099385387,0.1113801162783164,0.14981997007993902],[0.2631281032251695,0.29577313395345317,-0.3336173732790439,0.3141000998260363,0.4364254711432659,-0.12184801758007209,-0.16503182357171947,0.1293976859970473,-0.21528999782285307,-0.3346828553574836,0.12001886236885298,0.3558784606187817,-0.5197443062491026,-0.20889936747824872,-0.5534653584121921,-0.21055517263764717],[0.4482125082631314,0.4860173995451063,-0.23139968882693332,-0.24257121200246762,0.07033645882438436,0.24886891469032982,0.4125679908388185,0.20591800490701317,-0.3219110037294732,-0.24601620278467057,-0.1228733688374536,-0.09365840573634208,-0.0014773660002061473,0.42471128976621003,-0.22960685499503314,0.2540338835970699],[-0.28382746261992764,-0.36300076570359446,0.2447550080645246,0.20173358738218597,0.24066582813402762,-0.03224254330766214,-0.12151826467820856,0.0801645310567595,0.1803768787151494,-0.11402518218103554,0.5060651524231522,0.13989613689228086,0.29914974478990325,-0.06557532978239432,-0.08859666560764247,0.12436618985619506],[-0.1023378723851171,-0.24326442402733342,0.06172311091398713,-0.1534192244066304,0.061044694388152396,-0.26526622977209907,-0.026235216825572037,0.13833672636741245,0.07550381319374488,-0.014306781142029032,0.2605216723303923,0.007852065708010208,0.05712508098430328,0.17673440105501997,0.1780180813000121,0.32857470314265635],[-0.29344593489308307,0.13779636004309304,-0.40364223503370017,0.1031461236904215,-0.25878407389083624,0.09625806047930642,-0.060995153788134596,-0.1633403687271187,0.029615379594242847,-0.06066843495080797,0.25899207107298583,-0.06635492268431521,0.20030583401141133,-0.10836814102591683,-0.16500377981120948,-0.06715591146932072],[0.011660994703950281,0.20829234302278377,-0.07051313638311722,-0.0568176864591249,0.09014998718123939,0.10281810690927783,-0.008434356557976284,0.18515792804855263,0.06694329392338326,-0.1163189151942327,-0.18886715598067672,-0.06119783869500714,0.12575681281372833,-0.31354226552104814,0.03339273272938188,0.5124233035222522],[-0.04232872878384416,-0.05023948504330042,0.06923150651554544,0.105446904430385,0.13947600282160805,-0.12644546643981788,0.08532231372469207,-0.26741223282413007,0.11357462746620237,0.38280960296910366,-0.16949480502474248,0.12388645913197166,-0.12152533833696752,0.3453781920057744,-0.1402231292274865,-0.16810895229071682],[0.256642302268991,0.03960821561201126,-0.16290567014321514,-0.4241496515967661,-0.08738285916796674,0.47947598818039205,0.4054533377796399,-0.4083838878083429,0.24482151941900668,-0.19588366695955947,-0.1295728021370408,0.18021695735939036,0.08060945714644815,-0.018848451611671802,0.3021720157007663,0.26419905576923025],[0.09292135880849799,0.4086210118078183,-0.1796480979123701,0.31413117769433047,0.16820573970395014,-0.023681500468740523,0.07320702814801197,-0.1926633970945587,-0.10451348273429333,-0.4308797806698492,0.14086939708997853,0.2593634979563163,0.0011831886000705726,-0.02381694020758734,-0.17450915622937177,-0.15995205908771548]],"l0.fc1":[[-0.15975865353309063,0.2772421505547101,0.1536242594810765,-0.13500279221195746,0.22304351531828803,0.11895463711381994,0.07347844112801631,-0.06849574830749611,0.19309323923373836,0.3868975830518843,-0.14263070224410962,-0.07342889762924816,-0.30474394898430873,-0.46928802413563425,-0.04035360848192546,0.017768326894031978],[0.22106714638351896,-0.3692178031764413,-0.3797476868356869,0.2562043717997676,-0.14990847773004054,0.4025734583361212,-0.4997044737441989,0.46312321253822264,-0.014381595891470393,-0.2866959081399647,0.4780700075927388,0.30657454438953524,0.04849937158915342,0.006789602997657172,0.28739890072112806,0.016859632627287256],[-0.11221007399070662,-0.028817550466391083,0.08692062876718927,-0.6298064351699618,0.39451579522252794,0.20079451829180242,0.10477834303012071,0.29463029253072953,0.29016447330224293,-0.27264291689684284,-0.05067166231468647,-0.1354886620310638,0.24665541199938212,0.13022555870459732,-0.31027127574218805,0.2822527867490368],[0.004135333614232829,-0.025673084740417042,-0.00878044003474431,-0.17779169012354196,0.1549914266712901,0.04269042989394058,-0.7263345874775743,-0.10954980423035289,0.09912253433855658,0.23056436947508682,-0.0015371176894930423,-0.25788447656113084,0.055812082366645956,0.20427591899940498,-0.07126215647178044,-0.27827693197252085],[0.22532529408741273,-0.04459469017141418,-0.022576359447504992,0.4485362755865727,-0.017116861568250357,0.0901037931025179,-0.25695320018969675,0.46537283013969943,0.2588471914962456,0.13862911787924437,0.06669739324747646,0.17559449946528535,0.34589677036247984,0.33748023455995824,0.08039197396671026,0.726173016502408],[-0.2336177409595539,0.008650016041478959,0.06253034511440478,-0.02045068041986386,0.2927890673398959,-0.36235989881535985,-0.4450385180211456,0.14497897549646185,0.07034445929735357,-0.07018341353845843,-0.5117086814420673,0.37143772042823936,0.17102036059410655,0.11736511747752762,0.17333624361617508,-0.2516603816017108],[-0.13560283347604474,0.1684268304230508,0.25854406488641746,-0.06676296151943985,-0.24465623437935152,0.25400760178417353,0.25573987778209023,0.23354323829073584,0.1279369075780358,-0.2460468024212118,0.34707943222744714,-0.04238439038884186,-0.2926013815261622,-0.2897217557586063,-0.28016051192405,-0.32338568517760197],[-0.3494661110205048,-0.22586351638739813,-0.01848452520628196,-0.2596696848484287,0.04442597041875194,0.03332360477346709,0.24514241168927808,0.2161240343147199,0.0820749391369414,0.3642078910992461,-0.37679116555827386,0.26770171232292805,0.037358687764743194,-0.22359613197962128,0.33135008391278337,0.1185387106686719],[0.04955813352017535,-0.14578637881887355,0.22121013766349024,0.08414008928958956,0.22845999600108666,-0.00877792016903236,0.1644423086475024,0.23247352847164393,0.6647062402293559,0.11617722525321043,-0.21310098729935553,0.12333649125381446,0.3004044608030552,0.06119272454446138,0.6693838413976873,-0.13072500070147333],[0.16142661013318002,0.07498404996544798,-0.020490177600789184,0.008578556212635983,-0.08097423078505986,-0.36134506664687027,-0.10791130814698512,0.05481161064430213,0.48181010978356714,-0.07059045660254584,-0.1699058402591613,0.2528926878579584,0.13715988530800982,0.1776176485763647,-0.003282073716468636,0.3505680676905265],[-0.3124051438680462,0.26124312843226655,-0.2708117099494064,-0.029747749633946316,0.16830143679158338,-0.06633025488012534,0.042467929467709956,0.38520523361453574,0.2406001187455376,-0.06589567467605408,0.07245228136085091,-0.2538062478544848,-0.14079428697040816,0.17300606868166493,0.44645094221752196,-0.09176999797022733],[-0.13727786983982032,-0.2298721021626061,-0.2592247015348829,0.08431185565439009,-0.004179258312644126,0.21169585909727415,-0.0875820074267944,0.18991880839302305,-0.014384694584645641,0.026343805016222965,0.1424436041310436,0.20456902502070115,0.07596084289212414,-0.0023873471175567804,-0.3792441656291719,-0.16010305686123064],[-0.08992374478681864,-0.10298593828312474,-0.009902495472130577,-0.36507421539089835,0.03232468093457606,0.10835954001502182,-0.6812206958338969,0.325186695335394,0.2591037691490327,-0.1404826203249915,-0.22677356701024773,-0.29879688341767835,0.07095850693802574,-0.10792318036698072,-0.11509376222537902,0.27623476642475486],[0.3768016229022866,-0.05484529067757699,0.04918063799323936,-0.4292297450690211,-0.22118011996979822,0.28990671450975525,-0.19739661590613156,0.12363945949961216,-0.27958217741645863,-0.04177755024630203,0.0016085937537159251,-0.12795144848131318,-0.27949668378290554,-0.5648691428757818,-0.16369456668694668,0.43380991117757556],[0.34212880477792207,-0.10700759550180573,-0.30134464521249105,-0.4410981942776001,-0.36247678159015173,